{"learner":{"attributes":{"scikit_learn":"{\"_estimator_type\": \"regressor\"}"},"feature_names":["street","pm25_lagged_1","pm25_lagged_2","pm25_lagged_3","temperature_2m_mean","precipitation_sum","wind_speed_10m_max","wind_direction_10m_dominant"],"feature_types":["c","float","float","float","float","float","float","float"],"gradient_booster":{"model":{"gbtree_model_param":{"num_parallel_tree":"1","num_trees":"100"},"iteration_indptr":[0,1,2,3,4,5,6,7,8,9,10,11,12,13,14,15,16,17,18,19,20,21,22,23,24,25,26,27,28,29,30,31,32,33,34,35,36,37,38,39,40,41,42,43,44,45,46,47,48,49,50,51,52,53,54,55,56,57,58,59,60,61,62,63,64,65,66,67,68,69,70,71,72,73,74,75,76,77,78,79,80,81,82,83,84,85,86,87,88,89,90,91,92,93,94,95,96,97,98,99,100],"tree_info":[0,0,0,0,0,0,0,0,0,0,0,0,0,0,0,0,0,0,0,0,0,0,0,0,0,0,0,0,0,0,0,0,0,0,0,0,0,0,0,0,0,0,0,0,0,0,0,0,0,0,0,0,0,0,0,0,0,0,0,0,0,0,0,0,0,0,0,0,0,0,0,0,0,0,0,0,0,0,0,0,0,0,0,0,0,0,0,0,0,0,0,0,0,0,0,0,0,0,0,0],"trees":[{"base_weights":[2.958129E-7,-6.5121903E0,2.0804518E1,-1.2831695E1,-9.512062E-1,1.4626914E1,3.5978565E1,-1.6704351E1,-1.0070896E1,2.8357346E0,-6.258009E0,2.0972174E1,7.5189185E0,4.2090065E1,1.922642E1,-1.5065055E1,-2.1775286E1,-6.17635E0,-1.2588969E1,9.167066E0,-5.900317E-1,-4.1719297E-1,-8.0308275E0,1.1457339E1,2.4217314E1,1.1067734E1,-1.4168972E0,5.3830307E1,3.666778E1,2.5846657E1,2.740487E0,-1.3148801E1,-1.8011587E1,-2.3673334E1,-1.872094E1,-9.524631E0,-3.8841226E0,-9.416054E0,-1.4621221E1,1.105155E1,1.0449971E0,1.2475501E0,-3.906267E0,-8.086386E0,1.1930115E0,-1.7897081E0,-9.098864E0,1.9824093E1,4.2637606E0,2.933539E1,1.7056364E1,1.6518953E1,9.265245E0,-3.3690026E0,9.922052E0,4.9028812E1,7.067302E1,4.1760647E1,2.5877285E1,2.8917587E1,1.5017985E1,6.4412355E0,-5.0332365E0,-5.199312E0,-3.3157358E0,-6.6998935E0,-5.0243735E0,-8.108095E0,-6.769837E0,-4.755225E0,-6.155371E0,7.2306366E0,-2.958453E0,1.2618604E0,-1.688888E0,-1.1337843E0,-3.156235E0,-3.8068724E0,-4.780367E0,1.9956484E0,4.1899896E0,1.1137723E0,-1.1888427E0,-1.3871247E0,9.2698693E-1,-2.090151E0,-2.3477516E-1,-4.218776E0,1.0504467E0,1.0815767E-2,3.4532583E0,1.2171433E0,-1.2934239E0,-2.9197211E0,-9.099149E-1,6.6813865E0,-2.7232366E0,-2.3436196E0,2.509031E0,9.313873E0,-3.9835352E-1,4.2560077E0,6.8988605E0,5.8610196E0,2.7399979E0,4.1064487E0,2.2797787E0,-3.9212632E-1,-2.815238E0,3.8551972E0,-1.464987E0,1.8118683E1,1.1639019E1,9.592156E0,2.313953E1,3.359487E0,1.3645356E1,5.8126454E0,1.1113874E1,1.31374445E1,8.076994E0,7.381253E-1,6.981761E0,-1.8039539E0,4.323947E0],"categories":[],"categories_nodes":[],"categories_segments":[],"categories_sizes":[],"default_left":[0,0,0,0,0,0,0,0,0,0,0,0,0,0,0,0,0,0,0,0,0,0,0,0,0,0,0,0,0,0,0,0,0,0,0,0,0,0,0,0,0,0,0,0,0,0,0,0,0,0,0,0,0,0,0,0,0,0,0,0,0,0,0,0,0,0,0,0,0,0,0,0,0,0,0,0,0,0,0,0,0,0,0,0,0,0,0,0,0,0,0,0,0,0,0,0,0,0,0,0,0,0,0,0,0,0,0,0,0,0,0,0,0,0,0,0,0,0,0,0,0,0,0,0,0],"id":0,"left_children":[1,3,5,7,9,11,13,15,17,19,21,23,25,27,29,31,33,35,37,39,41,43,45,47,49,51,53,55,57,59,61,63,65,67,69,71,73,75,77,79,81,83,85,87,89,91,93,95,97,99,101,103,105,107,109,111,113,115,117,119,121,123,-1,-1,-1,-1,-1,-1,-1,-1,-1,-1,-1,-1,-1,-1,-1,-1,-1,-1,-1,-1,-1,-1,-1,-1,-1,-1,-1,-1,-1,-1,-1,-1,-1,-1,-1,-1,-1,-1,-1,-1,-1,-1,-1,-1,-1,-1,-1,-1,-1,-1,-1,-1,-1,-1,-1,-1,-1,-1,-1,-1,-1,-1,-1],"loss_changes":[1.5236416E6,3.009847E5,2.5078875E5,4.26945E4,9.159772E4,8.585194E4,7.8535875E4,1.35293125E4,2.2899438E4,5.7699906E4,1.9649883E4,3.0815625E4,2.8587797E4,3.4120812E4,2.2739594E4,6.8944375E3,1.9047188E3,7.039375E3,9.031625E3,1.4284164E4,1.0528959E4,5.48024E3,9.689031E3,1.5443699E4,2.6987406E4,6.1845547E3,5.722077E3,1.0849E4,2.0406562E4,4.520578E3,4.5141577E3,6.5506094E3,2.3290938E3,3.0354688E2,4.999961E2,4.474414E3,7.7764863E3,3.4349688E3,1.9922188E3,9.628125E3,2.3792034E3,1.2043143E4,5.8843027E3,5.3816025E3,4.380584E3,3.172715E3,4.74725E3,8.618762E3,6.996311E3,2.2913875E4,5.0430547E3,3.3653867E3,3.4844414E3,2.716322E3,1.7103953E3,1.4056E4,6.7818906E3,2.9536594E4,8.577359E3,2.2321875E3,3.5707373E3,5.2495205E3,0E0,0E0,0E0,0E0,0E0,0E0,0E0,0E0,0E0,0E0,0E0,0E0,0E0,0E0,0E0,0E0,0E0,0E0,0E0,0E0,0E0,0E0,0E0,0E0,0E0,0E0,0E0,0E0,0E0,0E0,0E0,0E0,0E0,0E0,0E0,0E0,0E0,0E0,0E0,0E0,0E0,0E0,0E0,0E0,0E0,0E0,0E0,0E0,0E0,0E0,0E0,0E0,0E0,0E0,0E0,0E0,0E0,0E0,0E0,0E0,0E0,0E0,0E0],"parents":[2147483647,0,0,1,1,2,2,3,3,4,4,5,5,6,6,7,7,8,8,9,9,10,10,11,11,12,12,13,13,14,14,15,15,16,16,17,17,18,18,19,19,20,20,21,21,22,22,23,23,24,24,25,25,26,26,27,27,28,28,29,29,30,30,31,31,32,32,33,33,34,34,35,35,36,36,37,37,38,38,39,39,40,40,41,41,42,42,43,43,44,44,45,45,46,46,47,47,48,48,49,49,50,50,51,51,52,52,53,53,54,54,55,55,56,56,57,57,58,58,59,59,60,60,61,61],"right_children":[2,4,6,8,10,12,14,16,18,20,22,24,26,28,30,32,34,36,38,40,42,44,46,48,50,52,54,56,58,60,62,64,66,68,70,72,74,76,78,80,82,84,86,88,90,92,94,96,98,100,102,104,106,108,110,112,114,116,118,120,122,124,-1,-1,-1,-1,-1,-1,-1,-1,-1,-1,-1,-1,-1,-1,-1,-1,-1,-1,-1,-1,-1,-1,-1,-1,-1,-1,-1,-1,-1,-1,-1,-1,-1,-1,-1,-1,-1,-1,-1,-1,-1,-1,-1,-1,-1,-1,-1,-1,-1,-1,-1,-1,-1,-1,-1,-1,-1,-1,-1,-1,-1,-1,-1],"split_conditions":[5.8E1,3.8E1,7.8E1,2.9E1,1.9921535E1,1.9274922E2,1.8792551E1,2.56233E1,1.9709143E2,9.141749E0,1.7565508E2,6.766372E1,2.1540668E1,1.1570515E1,2E0,2.5282071E2,2.6E1,8.210901E1,1.913426E1,2.508601E2,2.4872026E2,3.312627E1,1E-1,1.4539945E1,9.235501E0,2.4167502E0,1.6641748E1,7.4875836E0,1.637237E2,2.3021768E2,9.4E1,9.465986E1,2.1E1,2.4E1,1.8000001E0,1.8E1,6.9396663E0,1.1570515E1,7.0000005E-1,4.7E1,2E-1,7.743303E1,4.7E1,1.4477165E1,5.5E1,1.1685501E1,2.0170916E1,6.570672E1,2.158417E0,4.9E0,6.8E1,2.9717584E2,2.2093037E2,3.6999998E0,2.9301876E1,1.688335E-1,7.570707E0,4.090103E1,7.8084164E0,2.9E1,2.5228987E2,5E1,-5.0332365E0,-5.199312E0,-3.3157358E0,-6.6998935E0,-5.0243735E0,-8.108095E0,-6.769837E0,-4.755225E0,-6.155371E0,7.2306366E0,-2.958453E0,1.2618604E0,-1.688888E0,-1.1337843E0,-3.156235E0,-3.8068724E0,-4.780367E0,1.9956484E0,4.1899896E0,1.1137723E0,-1.1888427E0,-1.3871247E0,9.2698693E-1,-2.090151E0,-2.3477516E-1,-4.218776E0,1.0504467E0,1.0815767E-2,3.4532583E0,1.2171433E0,-1.2934239E0,-2.9197211E0,-9.099149E-1,6.6813865E0,-2.7232366E0,-2.3436196E0,2.509031E0,9.313873E0,-3.9835352E-1,4.2560077E0,6.8988605E0,5.8610196E0,2.7399979E0,4.1064487E0,2.2797787E0,-3.9212632E-1,-2.815238E0,3.8551972E0,-1.464987E0,1.8118683E1,1.1639019E1,9.592156E0,2.313953E1,3.359487E0,1.3645356E1,5.8126454E0,1.1113874E1,1.31374445E1,8.076994E0,7.381253E-1,6.981761E0,-1.8039539E0,4.323947E0],"split_indices":[1,1,1,1,6,7,6,6,7,4,7,7,6,6,5,7,1,7,6,7,7,7,5,6,4,4,4,4,7,7,2,7,1,3,5,2,4,6,5,1,5,7,1,4,1,4,4,7,4,5,1,7,7,5,6,4,6,7,4,3,7,3,0,0,0,0,0,0,0,0,0,0,0,0,0,0,0,0,0,0,0,0,0,0,0,0,0,0,0,0,0,0,0,0,0,0,0,0,0,0,0,0,0,0,0,0,0,0,0,0,0,0,0,0,0,0,0,0,0,0,0,0,0,0,0],"split_type":[0,0,0,0,0,0,0,0,0,0,0,0,0,0,0,0,0,0,0,0,0,0,0,0,0,0,0,0,0,0,0,0,0,0,0,0,0,0,0,0,0,0,0,0,0,0,0,0,0,0,0,0,0,0,0,0,0,0,0,0,0,0,0,0,0,0,0,0,0,0,0,0,0,0,0,0,0,0,0,0,0,0,0,0,0,0,0,0,0,0,0,0,0,0,0,0,0,0,0,0,0,0,0,0,0,0,0,0,0,0,0,0,0,0,0,0,0,0,0,0,0,0,0,0,0],"sum_hessian":[1.1244E4,8.564E3,2.68E3,4.008E3,4.556E3,1.906E3,7.74E2,1.666E3,2.342E3,2.659E3,1.897E3,1.006E3,9E2,5.66E2,2.08E2,1.262E3,4.04E2,9.21E2,1.421E3,9.33E2,1.726E3,4.42E2,1.455E3,2.57E2,7.49E2,6.44E2,2.56E2,1.76E2,3.9E2,1.48E2,6E1,7.68E2,4.94E2,2.45E2,1.59E2,3.73E2,5.48E2,5.57E2,8.64E2,7.57E2,1.76E2,1.111E3,6.15E2,7.6E1,3.66E2,2.13E2,1.242E3,1.18E2,1.39E2,4.35E2,3.14E2,1.58E2,4.86E2,2.19E2,3.7E1,1.4E2,3.6E1,2.63E2,1.27E2,1.14E2,3.4E1,5.1E1,9E0,2.54E2,5.14E2,1.08E2,3.86E2,5.5E1,1.9E2,6.5E1,9.4E1,3E0,3.7E2,9.7E1,4.51E2,9.2E1,4.65E2,3.54E2,5.1E2,3.03E2,4.54E2,1.15E2,6.1E1,2.65E2,8.46E2,3.1E2,3.05E2,5E1,2.6E1,3.3E2,3.6E1,6.4E1,1.49E2,1.124E3,1.18E2,1.09E2,9E0,3.5E1,1.04E2,4.12E2,2.3E1,2.14E2,1E2,1.11E2,4.7E1,1.31E2,3.55E2,1.64E2,5.5E1,3.1E1,6E0,6.4E1,7.6E1,6E0,3E1,2.9E1,2.34E2,8.2E1,4.5E1,1.1E1,1.03E2,1.4E1,2E1,2E1,3.1E1],"tree_param":{"num_deleted":"0","num_feature":"8","num_nodes":"125","size_leaf_vector":"1"}},{"base_weights":[9.414155E-3,-5.0266743E0,1.3524207E1,-9.717569E0,-1.6380775E0,9.92502E0,2.7213827E1,-6.842871E0,-1.1379003E1,8.503275E-1,-4.9969225E0,1.4668999E1,4.923152E0,3.95351E1,2.3186775E1,-9.770477E0,-4.4826455E0,-9.482656E0,-1.3696544E1,4.906907E0,-1.5477734E0,-1.2095708E0,-6.2844734E0,1.05455065E1,1.9881355E1,7.0304713E0,-2.3716404E0,3.384154E1,5.0481934E1,2.824464E1,1.52916E1,-1.2185926E1,-6.152146E0,6.1527305E0,-5.153667E0,-1.1092934E1,-7.3192887E0,-1.6315247E1,-1.2372232E1,8.394322E0,1.9950286E0,-4.1711545E0,-2.3930489E-1,-2.783389E0,2.1457007E0,-3.4390197E0,-7.7222114E0,1.6011984E1,8.744909E0,2.2939434E1,7.9331603E0,1.1356807E1,5.9110537E0,7.4834347E-1,-5.52093E0,2.9770391E1,1.9777494E1,5.72831E1,2.0542856E1,8.970133E0,3.0094893E1,2.1840721E1,6.01355E0,-5.3440127E0,-3.3063228E0,4.9811053E0,-1.9284643E0,-1.8862928E-1,3.2367892E0,-9.7311914E-1,-2.6544647E0,-2.9609134E0,-4.291279E0,-2.0305763E-1,-2.409622E0,4.9965897E-1,-4.929522E0,-3.0718148E0,-4.0408654E0,-1.0789677E0,3.1205654E0,3.2219005E0,2.4393235E-1,-7.2236747E-1,-2.132898E0,-4.266721E-1,8.359583E-1,-1.017203E0,2.0763485E0,-1.3442441E0,1.0954353E0,-1.835438E0,-2.7886575E-1,-3.0536535E0,-1.2736665E0,5.069356E0,-5.433576E-1,7.963421E-1,3.1746235E0,1.0752172E1,6.2697625E0,-5.6315553E-1,4.0003223E0,3.7807992E0,-3.1216413E-1,2.913069E0,1.3632681E0,2.9589837E0,-4.611958E-1,-2.230658E0,4.6067598E-1,1.0492554E1,5.3690386E0,7.0360017E0,1.8399061E1,6.5842285E0,9.7457147E-1,8.471146E0,6.361933E-1,1.0943367E1,7.0312886E0,3.5398612E0,8.266027E0,2.4819942E0,-3.1896389E0],"categories":[0,6,9,0],"categories_nodes":[8,58],"categories_segments":[0,3],"categories_sizes":[3,1],"default_left":[0,0,0,0,0,0,0,0,1,0,0,0,0,0,0,0,0,0,0,0,0,0,0,0,0,0,0,0,0,0,0,0,0,0,0,0,0,0,0,0,0,0,0,0,0,0,0,0,0,0,0,0,0,0,0,0,0,0,1,0,0,0,0,0,0,0,0,0,0,0,0,0,0,0,0,0,0,0,0,0,0,0,0,0,0,0,0,0,0,0,0,0,0,0,0,0,0,0,0,0,0,0,0,0,0,0,0,0,0,0,0,0,0,0,0,0,0,0,0,0,0,0,0,0,0],"id":1,"left_children":[1,3,5,7,9,11,13,15,17,19,21,23,25,27,29,31,33,35,37,39,41,43,45,47,49,51,53,55,57,59,61,63,65,67,69,71,73,75,77,79,81,83,85,87,89,91,93,95,97,99,101,103,105,107,109,111,-1,113,115,117,119,121,123,-1,-1,-1,-1,-1,-1,-1,-1,-1,-1,-1,-1,-1,-1,-1,-1,-1,-1,-1,-1,-1,-1,-1,-1,-1,-1,-1,-1,-1,-1,-1,-1,-1,-1,-1,-1,-1,-1,-1,-1,-1,-1,-1,-1,-1,-1,-1,-1,-1,-1,-1,-1,-1,-1,-1,-1,-1,-1,-1,-1,-1,-1],"loss_changes":[7.654217E5,1.3021634E5,1.5015575E5,1.6332906E4,3.9772406E4,5.732767E4,3.0591E4,8.669477E3,9.4333125E3,2.6604186E4,9.867125E3,2.6463281E4,1.81408E4,7.9522188E3,1.8775703E4,4.8368477E3,5.0273047E3,4.0991484E3,3.1863594E3,1.0300662E4,5.899661E3,2.725475E3,6.1549727E3,6.7008047E3,1.9804594E4,4.3641875E3,2.6079504E3,1.1752117E4,9.207891E3,1.0143578E4,1.1413648E4,2.006207E3,1.5327822E3,1.3273837E3,4.6214355E3,2.5535547E3,2.4328926E3,7.08125E2,1.390375E3,1.1158877E4,5.727454E3,2.9466172E3,4.113073E3,2.092069E3,1.6627106E3,3.4163877E3,8.523277E3,2.7305234E3,5.8462188E3,1.07006875E4,6.0126855E3,2.9013906E3,3.7414375E3,2.8068743E3,1.7947883E3,5.2450156E3,0E0,4.1750156E3,1.9590381E2,3.5032883E3,1.0448266E4,6.0420938E3,3.0971873E3,0E0,0E0,0E0,0E0,0E0,0E0,0E0,0E0,0E0,0E0,0E0,0E0,0E0,0E0,0E0,0E0,0E0,0E0,0E0,0E0,0E0,0E0,0E0,0E0,0E0,0E0,0E0,0E0,0E0,0E0,0E0,0E0,0E0,0E0,0E0,0E0,0E0,0E0,0E0,0E0,0E0,0E0,0E0,0E0,0E0,0E0,0E0,0E0,0E0,0E0,0E0,0E0,0E0,0E0,0E0,0E0,0E0,0E0,0E0,0E0,0E0,0E0],"parents":[2147483647,0,0,1,1,2,2,3,3,4,4,5,5,6,6,7,7,8,8,9,9,10,10,11,11,12,12,13,13,14,14,15,15,16,16,17,17,18,18,19,19,20,20,21,21,22,22,23,23,24,24,25,25,26,26,27,27,28,28,29,29,30,30,31,31,32,32,33,33,34,34,35,35,36,36,37,37,38,38,39,39,40,40,41,41,42,42,43,43,44,44,45,45,46,46,47,47,48,48,49,49,50,50,51,51,52,52,53,53,54,54,55,55,57,57,58,58,59,59,60,60,61,61,62,62],"right_children":[2,4,6,8,10,12,14,16,18,20,22,24,26,28,30,32,34,36,38,40,42,44,46,48,50,52,54,56,58,60,62,64,66,68,70,72,74,76,78,80,82,84,86,88,90,92,94,96,98,100,102,104,106,108,110,112,-1,114,116,118,120,122,124,-1,-1,-1,-1,-1,-1,-1,-1,-1,-1,-1,-1,-1,-1,-1,-1,-1,-1,-1,-1,-1,-1,-1,-1,-1,-1,-1,-1,-1,-1,-1,-1,-1,-1,-1,-1,-1,-1,-1,-1,-1,-1,-1,-1,-1,-1,-1,-1,-1,-1,-1,-1,-1,-1,-1,-1,-1,-1,-1,-1,-1,-1],"split_conditions":[5.6E1,3.6E1,8.1E1,2.0194147E2,1.9921535E1,1.9274922E2,1.1570515E1,9.361467E1,NaN,1.0027167E1,1.883879E2,6.7E1,2.3132626E1,4.6125827E0,1.5200803E2,3.1E1,1.2604998E0,3.1E1,2.4E1,1.738903E2,4.1E1,4.8E1,6E-1,1.2429127E1,2.1461555E1,2.4167502E0,2.5400195E2,9.3E1,9.3E1,4.090103E1,4E-1,2.1E1,1.8E1,2.5E1,1.9921535E1,2.7257967E1,3.1834164E0,8.477216E0,1.8720001E1,3.449612E1,-4.4575003E-1,2.0973038E2,6E-1,7.1E1,2.0972897E1,4.4E1,1.3460499E1,3.8999999E0,5.0845966E1,-4.4575003E-1,7.957281E1,1.02E2,2.2093037E2,2.4063513E1,2.9024442E2,1.9274922E2,1.9777494E1,7.570707E0,NaN,-7.8950006E-1,2.6855E0,4.4229994E0,1.17E2,-5.3440127E0,-3.3063228E0,4.9811053E0,-1.9284643E0,-1.8862928E-1,3.2367892E0,-9.7311914E-1,-2.6544647E0,-2.9609134E0,-4.291279E0,-2.0305763E-1,-2.409622E0,4.9965897E-1,-4.929522E0,-3.0718148E0,-4.0408654E0,-1.0789677E0,3.1205654E0,3.2219005E0,2.4393235E-1,-7.2236747E-1,-2.132898E0,-4.266721E-1,8.359583E-1,-1.017203E0,2.0763485E0,-1.3442441E0,1.0954353E0,-1.835438E0,-2.7886575E-1,-3.0536535E0,-1.2736665E0,5.069356E0,-5.433576E-1,7.963421E-1,3.1746235E0,1.0752172E1,6.2697625E0,-5.6315553E-1,4.0003223E0,3.7807992E0,-3.1216413E-1,2.913069E0,1.3632681E0,2.9589837E0,-4.611958E-1,-2.230658E0,4.6067598E-1,1.0492554E1,5.3690386E0,7.0360017E0,1.8399061E1,6.5842285E0,9.7457147E-1,8.471146E0,6.361933E-1,1.0943367E1,7.0312886E0,3.5398612E0,8.266027E0,2.4819942E0,-3.1896389E0],"split_indices":[1,1,1,7,6,7,6,7,0,4,7,1,6,4,7,1,4,1,1,7,1,1,5,6,6,4,7,3,3,7,5,1,2,1,6,6,4,6,6,7,4,7,5,2,6,1,4,5,7,4,7,2,7,6,7,7,0,6,0,4,4,4,2,0,0,0,0,0,0,0,0,0,0,0,0,0,0,0,0,0,0,0,0,0,0,0,0,0,0,0,0,0,0,0,0,0,0,0,0,0,0,0,0,0,0,0,0,0,0,0,0,0,0,0,0,0,0,0,0,0,0,0,0,0,0],"split_type":[0,0,0,0,0,0,0,0,1,0,0,0,0,0,0,0,0,0,0,0,0,0,0,0,0,0,0,0,0,0,0,0,0,0,0,0,0,0,0,0,0,0,0,0,0,0,0,0,0,0,0,0,0,0,0,0,0,0,1,0,0,0,0,0,0,0,0,0,0,0,0,0,0,0,0,0,0,0,0,0,0,0,0,0,0,0,0,0,0,0,0,0,0,0,0,0,0,0,0,0,0,0,0,0,0,0,0,0,0,0,0,0,0,0,0,0,0,0,0,0,0,0,0,0,0],"sum_hessian":[1.1244E4,8.192E3,3.052E3,3.435E3,4.757E3,2.418E3,6.34E2,1.26E3,2.175E3,2.733E3,2.024E3,1.24E3,1.178E3,1.54E2,4.8E2,5.61E2,6.99E2,1.199E3,9.76E2,1.015E3,1.718E3,5.14E2,1.51E3,6.94E2,5.46E2,9.14E2,2.64E2,1.04E2,5E1,2.91E2,1.89E2,3.35E2,2.26E2,4.1E1,6.58E2,6.85E2,5.14E2,3.24E2,6.52E2,4.61E2,5.54E2,5.71E2,1.147E3,3.5E2,1.64E2,5.08E2,1.002E3,1.7E2,5.24E2,4.34E2,1.12E2,1.86E2,7.28E2,1.33E2,1.31E2,9.4E1,1E1,4E1,1E1,2.6E1,2.65E2,1.1E2,7.9E1,5.5E1,2.8E2,2E0,2.24E2,1.7E1,2.4E1,4.35E2,2.23E2,4.99E2,1.86E2,5E1,4.64E2,2E0,3.22E2,2.25E2,4.27E2,6.6E1,3.95E2,6.5E1,4.89E2,3.58E2,2.13E2,8.25E2,3.22E2,3.3E2,2E1,3E1,1.34E2,2.45E2,2.63E2,5.86E2,4.16E2,1.62E2,8E0,1.22E2,4.02E2,5.7E1,3.77E2,4E1,7.2E1,1.69E2,1.7E1,1.91E2,5.37E2,2.6E1,1.07E2,1.03E2,2.8E1,6.4E1,3E1,5E0,3.5E1,9E0,1E0,6E0,2E1,1.33E2,1.32E2,4.1E1,6.9E1,7E1,9E0],"tree_param":{"num_deleted":"0","num_feature":"8","num_nodes":"125","size_leaf_vector":"1"}},{"base_weights":[1.6735842E-2,-2.9088182E0,1.1805298E1,-5.932523E0,6.131204E-1,8.942941E0,1.9542091E1,-7.82975E0,-4.122305E0,2.9292915E0,-2.0220175E0,1.2038353E1,4.846946E0,2.3643654E1,1.1463723E1,-4.4661345E0,-8.536681E0,-2.0292325E0,-5.6394267E0,6.010127E0,5.8699846E-1,-4.4762263E-1,-4.671415E0,1.444696E1,6.337421E0,6.5281754E0,3.5307097E-1,2.2461622E1,4.4920067E1,1.3977236E1,-3.2674345E-1,-5.7261662E0,2.5222021E1,-1.1678834E1,-7.7781076E0,7.4384475E0,-2.5627282E0,1.17524676E-1,-6.055628E0,7.3849974E0,1.3432823E0,-6.222122E-1,2.7800815E0,7.081657E0,-7.74601E-1,-2.6462982E0,-6.3997216E0,7.2266297E0,1.715838E1,8.559862E0,-6.5188044E-1,9.531242E0,4.7469687E0,-1.0956128E0,9.700217E0,2.8604162E1,1.8375723E1,1.3813483E1,3.5321162E0,1.6443556E1,7.601684E0,6.4745502E0,-5.258287E0,-5.5080986E-1,-2.5804768E0,1.3224754E1,-4.5190373E-1,-3.8566563E0,-3.0195043E0,-1.759491E0,-2.5624652E0,-3.2739625E0,2.3911607E0,3.7878819E0,-8.286021E-1,3.1574047E0,-5.226886E-1,-1.3195792E0,-2.1112568E0,2.4055415E-1,2.448185E0,3.7988656E0,4.4656997E-3,2.5030452E-1,-9.3867683E-1,-3.2475486E-1,1.2735772E0,2.4112442E0,2.8182694E-1,3.9452034E-1,-6.13355E-1,-2.8246203E-1,-1.3036356E0,-2.3827825E0,-6.364649E-1,9.291782E-1,4.2936745E0,6.034846E0,2.7781284E0,-2.2278726E0,2.8683498E0,-1.0422138E0,4.8192253E0,3.3344448E0,1.1059185E0,2.055358E0,2.896661E-1,-5.258277E-1,2.8387723E0,3.2115588E0,-4.7190475E-1,7.391491E0,1.1668297E1,5.95292E0,1.2729305E0,4.164013E0,6.2312584E0,2.795432E0,4.598611E-1,-7.3546946E-1,3.2264235E0,-1.9287505E0,2.899533E0],"categories":[0,3,4,6,7,9,0,0,3,4,6,7,9,0,4,6,7,9,0,6,9],"categories_nodes":[22,28,38,52,60],"categories_segments":[0,6,7,13,18],"categories_sizes":[6,1,6,5,3],"default_left":[0,0,0,0,0,0,0,0,0,0,0,0,0,0,0,0,0,0,0,0,0,0,1,0,0,0,0,0,1,0,0,0,0,0,0,0,0,0,1,0,0,0,0,0,0,0,0,0,0,0,0,0,1,0,0,0,0,0,0,0,1,0,0,0,0,0,0,0,0,0,0,0,0,0,0,0,0,0,0,0,0,0,0,0,0,0,0,0,0,0,0,0,0,0,0,0,0,0,0,0,0,0,0,0,0,0,0,0,0,0,0,0,0,0,0,0,0,0,0,0,0,0,0],"id":2,"left_children":[1,3,5,7,9,11,13,15,17,19,21,23,25,27,29,31,33,35,37,39,41,43,45,47,49,51,53,55,57,59,61,63,65,67,69,71,73,75,77,79,81,83,85,87,89,91,93,95,97,99,101,103,105,107,109,111,113,-1,-1,115,117,119,121,-1,-1,-1,-1,-1,-1,-1,-1,-1,-1,-1,-1,-1,-1,-1,-1,-1,-1,-1,-1,-1,-1,-1,-1,-1,-1,-1,-1,-1,-1,-1,-1,-1,-1,-1,-1,-1,-1,-1,-1,-1,-1,-1,-1,-1,-1,-1,-1,-1,-1,-1,-1,-1,-1,-1,-1,-1,-1,-1,-1],"loss_changes":[3.8785272E5,9.595385E4,4.934253E4,1.6617672E4,2.5414502E4,2.0658805E4,1.9708688E4,5.5878438E3,7.8731914E3,1.5987615E4,8.123403E3,1.26785625E4,5.3241367E3,9.025625E3,6.07984E3,1.5593935E4,4.566625E3,5.2973237E3,3.448629E3,6.1304844E3,3.343123E3,3.0164033E3,2.524081E3,1.266E4,4.323841E3,2.698836E3,2.624052E3,9.011531E3,2.0358984E2,2.5323828E3,1.2750574E3,4.424961E3,8.636276E3,5.8841016E2,2.2532266E3,6.338076E2,3.0314453E3,1.9151702E3,2.1525195E3,3.7668008E3,3.2928975E3,2.9710166E3,2.5399993E3,2.918645E2,3.1154822E3,9.691819E2,2.5640352E3,5.2223154E3,1.0886516E4,3.4484678E3,3.2637222E3,1.7176172E3,2.5714346E3,1.1822153E3,3.1140234E2,5.163125E3,4.7061406E3,0E0,0E0,1.0539629E3,4.9613257E2,6.376542E2,4.4655615E2,0E0,0E0,0E0,0E0,0E0,0E0,0E0,0E0,0E0,0E0,0E0,0E0,0E0,0E0,0E0,0E0,0E0,0E0,0E0,0E0,0E0,0E0,0E0,0E0,0E0,0E0,0E0,0E0,0E0,0E0,0E0,0E0,0E0,0E0,0E0,0E0,0E0,0E0,0E0,0E0,0E0,0E0,0E0,0E0,0E0,0E0,0E0,0E0,0E0,0E0,0E0,0E0,0E0,0E0,0E0,0E0,0E0,0E0,0E0,0E0],"parents":[2147483647,0,0,1,1,2,2,3,3,4,4,5,5,6,6,7,7,8,8,9,9,10,10,11,11,12,12,13,13,14,14,15,15,16,16,17,17,18,18,19,19,20,20,21,21,22,22,23,23,24,24,25,25,26,26,27,27,28,28,29,29,30,30,31,31,32,32,33,33,34,34,35,35,36,36,37,37,38,38,39,39,40,40,41,41,42,42,43,43,44,44,45,45,46,46,47,47,48,48,49,49,50,50,51,51,52,52,53,53,54,54,55,55,56,56,59,59,60,60,61,61,62,62],"right_children":[2,4,6,8,10,12,14,16,18,20,22,24,26,28,30,32,34,36,38,40,42,44,46,48,50,52,54,56,58,60,62,64,66,68,70,72,74,76,78,80,82,84,86,88,90,92,94,96,98,100,102,104,106,108,110,112,114,-1,-1,116,118,120,122,-1,-1,-1,-1,-1,-1,-1,-1,-1,-1,-1,-1,-1,-1,-1,-1,-1,-1,-1,-1,-1,-1,-1,-1,-1,-1,-1,-1,-1,-1,-1,-1,-1,-1,-1,-1,-1,-1,-1,-1,-1,-1,-1,-1,-1,-1,-1,-1,-1,-1,-1,-1,-1,-1,-1,-1,-1,-1,-1,-1],"split_conditions":[6.1E1,4.1E1,8.2E1,3.2E1,1.8692286E1,1.9373892E2,1.645007E1,1.3905509E1,1.9980772E2,1.0027167E1,2.508601E2,1.8792551E1,2.1734581E1,1.5893093E1,1.9E0,1.3783817E1,2.2E1,1.2604998E0,1.2140329E1,2.5148706E2,5.2E1,5.729999E-1,NaN,6.766372E1,1.7000002E0,1E-1,1.6641748E1,1.1570515E1,NaN,2.011441E2,8.6E1,1.1314667E1,4.8E1,2E1,1.9105634E2,2.1148947E1,7.8087645E0,2.158417E0,NaN,4.1727337E1,-2.3895E0,1.5801087E1,4E1,2.6674032E1,1.4219795E2,2.56233E1,2.9521445E2,5.4021664E0,1.1770917E1,2.7E1,9.3E1,2.9806854E2,NaN,9.4E1,6.5E1,1.18E2,1.07E2,1.3813483E1,3.5321162E0,8.616752E0,NaN,6.2E1,2.5766684E2,-5.5080986E-1,-2.5804768E0,1.3224754E1,-4.5190373E-1,-3.8566563E0,-3.0195043E0,-1.759491E0,-2.5624652E0,-3.2739625E0,2.3911607E0,3.7878819E0,-8.286021E-1,3.1574047E0,-5.226886E-1,-1.3195792E0,-2.1112568E0,2.4055415E-1,2.448185E0,3.7988656E0,4.4656997E-3,2.5030452E-1,-9.3867683E-1,-3.2475486E-1,1.2735772E0,2.4112442E0,2.8182694E-1,3.9452034E-1,-6.13355E-1,-2.8246203E-1,-1.3036356E0,-2.3827825E0,-6.364649E-1,9.291782E-1,4.2936745E0,6.034846E0,2.7781284E0,-2.2278726E0,2.8683498E0,-1.0422138E0,4.8192253E0,3.3344448E0,1.1059185E0,2.055358E0,2.896661E-1,-5.258277E-1,2.8387723E0,3.2115588E0,-4.7190475E-1,7.391491E0,1.1668297E1,5.95292E0,1.2729305E0,4.164013E0,6.2312584E0,2.795432E0,4.598611E-1,-7.3546946E-1,3.2264235E0,-1.9287505E0,2.899533E0],"split_indices":[1,1,1,1,6,7,6,6,7,4,7,6,6,6,5,6,1,4,6,7,1,4,0,7,5,5,4,6,0,7,1,4,3,1,7,7,6,4,0,7,4,6,3,6,7,6,7,4,4,3,3,7,0,3,3,1,2,0,0,4,0,2,7,0,0,0,0,0,0,0,0,0,0,0,0,0,0,0,0,0,0,0,0,0,0,0,0,0,0,0,0,0,0,0,0,0,0,0,0,0,0,0,0,0,0,0,0,0,0,0,0,0,0,0,0,0,0,0,0,0,0,0,0],"split_type":[0,0,0,0,0,0,0,0,0,0,0,0,0,0,0,0,0,0,0,0,0,0,1,0,0,0,0,0,1,0,0,0,0,0,0,0,0,0,1,0,0,0,0,0,0,0,0,0,0,0,0,0,1,0,0,0,0,0,0,0,1,0,0,0,0,0,0,0,0,0,0,0,0,0,0,0,0,0,0,0,0,0,0,0,0,0,0,0,0,0,0,0,0,0,0,0,0,0,0,0,0,0,0,0,0,0,0,0,0,0,0,0,0,0,0,0,0,0,0,0,0,0,0],"sum_hessian":[1.1244E4,9.009E3,2.235E3,4.847E3,4.162E3,1.633E3,6.02E2,2.365E3,2.482E3,2.215E3,1.947E3,9.29E2,7.04E2,3.98E2,2.04E2,4.12E2,1.953E3,1.044E3,1.438E3,9.56E2,1.259E3,1.222E3,7.25E2,6.52E2,2.77E2,5.12E2,1.92E2,3.79E2,1.9E1,1.68E2,3.6E1,3.96E2,1.6E1,3.77E2,1.576E3,5.5E1,9.89E2,9.7E1,1.341E3,7.38E2,2.18E2,8.12E2,4.47E2,5E1,1.172E3,3.35E2,3.9E2,1.79E2,4.73E2,2.1E2,6.7E1,1.89E2,3.23E2,1.67E2,2.5E1,1.49E2,2.3E2,1.8E1,1E0,1.2E2,4.8E1,1.5E1,2.1E1,1.69E2,2.27E2,9E0,7E0,2.14E2,1.63E2,4.52E2,1.124E3,1E0,5.4E1,1.2E1,9.77E2,1.4E1,8.3E1,5.01E2,8.4E2,7.8E1,6.6E2,2.2E1,1.96E2,5.14E2,2.98E2,1.23E2,3.24E2,4.3E1,7E0,4.43E2,7.29E2,1.68E2,1.67E2,2.86E2,1.04E2,1.14E2,6.5E1,3.43E2,1.3E2,1.2E1,1.98E2,5.8E1,9E0,1.48E2,4.1E1,2.07E2,1.16E2,1.58E2,9E0,2.3E1,2E0,1.1E2,3.9E1,2.08E2,2.2E1,7.8E1,4.2E1,3.7E1,1.1E1,5E0,1E1,2E1,1E0],"tree_param":{"num_deleted":"0","num_feature":"8","num_nodes":"123","size_leaf_vector":"1"}},{"base_weights":[2.0196859E-2,-1.7499737E0,9.919028E0,-3.969792E0,1.118134E0,1.2380553E1,4.5665617E0,-3.247486E0,-6.5256224E0,2.4457593E0,-1.5610161E0,7.8205714E0,1.474536E1,7.1597047E0,-7.7737933E-1,-2.0704484E0,-4.890793E0,-5.422628E0,-9.461519E0,7.1604953E0,1.6586162E0,1.3869541E0,-2.7998626E0,-8.621671E0,8.177212E0,2.2653164E1,1.3303707E1,6.8251557E0,1.3509157E1,-1.8179963E0,1.1468232E1,-2.1719353E0,1.1739695E1,-6.855573E0,-3.782227E0,-9.060287E0,-4.4708405E0,-1.0311098E1,-5.2228266E-1,-3.8984105E-1,8.052361E0,3.369795E0,1.4585675E-1,-9.750646E0,2.5209374E0,-4.8640547E0,-1.8304816E0,3.8270074E-1,-4.134886E0,1.2196549E1,6.0267963E0,2.9219208E1,4.2990093E0,1.3105639E1,1.2810516E1,-3.5917282E0,7.414374E0,-2.663513E0,1.0184509E1,3.7086916E0,1.2207589E0,-5.0551385E-2,-8.6656564E-1,3.5299057E-1,8.451209E0,-5.527897E-1,-2.185364E0,-5.484245E-1,-1.557074E0,-2.355934E0,-3.5980775E0,-4.527839E0,-1.2288535E0,-2.2502706E0,-3.4310837E0,4.004622E0,-1.6627651E0,-2.558039E0,4.2876008E-1,2.2832131E0,6.3636723E0,-2.4484499E0,1.0824823E0,-7.217382E0,1.01396136E-1,-3.264943E0,-5.690422E-1,1.2017525E0,-6.32501E-1,-1.2241473E0,-2.9300349E0,-2.867414E0,-4.65105E-1,4.0121245E0,1.1209129E0,1.6450495E0,8.37942E0,1.0302309E1,6.1127405E0,2.4016824E0,5.0243104E-1,1.9095874E-1,4.1374655E0,3.1233337E0,-2.0025709E0,1.9132502E0,3.7144556E0,-2.0209704E-1,-2.0366821E0,3.1897042E0,8.5592026E-1],"categories":[0,7,9,3,4,6,7,9,0,3,4,6,7,9,7,8],"categories_nodes":[7,23,52,58],"categories_segments":[0,3,8,14],"categories_sizes":[3,5,6,2],"default_left":[0,0,0,0,0,0,0,1,0,0,0,0,0,0,0,0,0,0,0,0,0,0,0,1,0,0,0,0,0,0,0,0,0,0,0,0,0,0,0,0,0,0,0,0,0,0,0,0,0,0,0,0,1,0,0,0,0,0,1,0,0,0,0,0,0,0,0,0,0,0,0,0,0,0,0,0,0,0,0,0,0,0,0,0,0,0,0,0,0,0,0,0,0,0,0,0,0,0,0,0,0,0,0,0,0,0,0,0,0,0,0],"id":3,"left_children":[1,3,5,7,9,11,13,15,17,19,21,23,25,27,29,31,33,35,37,39,41,43,45,47,49,51,53,55,-1,57,59,61,63,65,67,69,71,73,75,77,79,81,83,85,87,89,91,-1,-1,93,95,97,99,-1,101,103,105,107,109,-1,-1,-1,-1,-1,-1,-1,-1,-1,-1,-1,-1,-1,-1,-1,-1,-1,-1,-1,-1,-1,-1,-1,-1,-1,-1,-1,-1,-1,-1,-1,-1,-1,-1,-1,-1,-1,-1,-1,-1,-1,-1,-1,-1,-1,-1,-1,-1,-1,-1,-1,-1],"loss_changes":[1.9705922E5,6.074254E4,2.2420422E4,9.907094E3,1.4811223E4,1.2479766E4,7.4748145E3,8.1039883E3,3.7828125E3,1.0320027E4,5.043757E3,2.4219512E3,8.454078E3,4.29174E3,2.2763586E3,3.4536914E3,3.7857266E3,2.9474375E3,2.4400723E3,2.6832246E3,6.178502E3,5.190191E3,1.9360576E3,4.7732904E2,3.323291E3,1.3974543E4,9.209922E3,2.2423809E3,0E0,1.6914512E3,4.2309082E1,3.4868086E3,3.090963E3,1.3413379E3,3.074913E3,5.361123E2,2.6682158E3,8.443867E2,2.093437E3,6.486491E2,1.9076543E3,3.109417E3,5.9046914E3,3.173457E2,2.5655845E3,1.1510425E3,1.4204019E3,0E0,0E0,1.3044961E3,2.9172256E3,3.1955938E3,2.978565E2,0E0,7.670633E3,9.3305396E2,1.6824395E3,1.2596138E3,5.781372E0,0E0,0E0,0E0,0E0,0E0,0E0,0E0,0E0,0E0,0E0,0E0,0E0,0E0,0E0,0E0,0E0,0E0,0E0,0E0,0E0,0E0,0E0,0E0,0E0,0E0,0E0,0E0,0E0,0E0,0E0,0E0,0E0,0E0,0E0,0E0,0E0,0E0,0E0,0E0,0E0,0E0,0E0,0E0,0E0,0E0,0E0,0E0,0E0,0E0,0E0,0E0,0E0],"parents":[2147483647,0,0,1,1,2,2,3,3,4,4,5,5,6,6,7,7,8,8,9,9,10,10,11,11,12,12,13,13,14,14,15,15,16,16,17,17,18,18,19,19,20,20,21,21,22,22,23,23,24,24,25,25,26,26,27,27,29,29,30,30,31,31,32,32,33,33,34,34,35,35,36,36,37,37,38,38,39,39,40,40,41,41,42,42,43,43,44,44,45,45,46,46,49,49,50,50,51,51,52,52,54,54,55,55,56,56,57,57,58,58],"right_children":[2,4,6,8,10,12,14,16,18,20,22,24,26,28,30,32,34,36,38,40,42,44,46,48,50,52,54,56,-1,58,60,62,64,66,68,70,72,74,76,78,80,82,84,86,88,90,92,-1,-1,94,96,98,100,-1,102,104,106,108,110,-1,-1,-1,-1,-1,-1,-1,-1,-1,-1,-1,-1,-1,-1,-1,-1,-1,-1,-1,-1,-1,-1,-1,-1,-1,-1,-1,-1,-1,-1,-1,-1,-1,-1,-1,-1,-1,-1,-1,-1,-1,-1,-1,-1,-1,-1,-1,-1,-1,-1,-1,-1],"split_conditions":[6.5E1,4.3E1,1.8792551E1,2.56233E1,2.5148706E2,7.2E1,2E0,NaN,3.9E0,2.0417502E0,1.5034041E1,6.9550843E0,-1.0644999E0,1.8000001E0,1.03E2,2.5563803E1,2.8E1,2.6E1,4.025727E1,2.8762299E1,1.7660192E1,2.6028787E2,4.8E1,NaN,1.2429127E1,1.9274922E2,2.6E1,4.4E1,1.3509157E1,2.7273975E2,8.4E1,1.4417988E1,2.5282071E2,1.4584166E0,1.6917111E2,2.7711417E2,3.312627E1,2.288891E2,3.7250836E0,5E1,1.8750834E0,6.9550843E0,2.158417E0,6.9E1,3.18642E2,3.1220102E2,1.5745627E1,3.8270074E-1,-4.134886E0,7.1E1,1.859845E1,8.210901E1,NaN,1.3105639E1,4.090103E1,3E-1,7E-1,6.7999997E0,NaN,3.7086916E0,1.2207589E0,-5.0551385E-2,-8.6656564E-1,3.5299057E-1,8.451209E0,-5.527897E-1,-2.185364E0,-5.484245E-1,-1.557074E0,-2.355934E0,-3.5980775E0,-4.527839E0,-1.2288535E0,-2.2502706E0,-3.4310837E0,4.004622E0,-1.6627651E0,-2.558039E0,4.2876008E-1,2.2832131E0,6.3636723E0,-2.4484499E0,1.0824823E0,-7.217382E0,1.01396136E-1,-3.264943E0,-5.690422E-1,1.2017525E0,-6.32501E-1,-1.2241473E0,-2.9300349E0,-2.867414E0,-4.65105E-1,4.0121245E0,1.1209129E0,1.6450495E0,8.37942E0,1.0302309E1,6.1127405E0,2.4016824E0,5.0243104E-1,1.9095874E-1,4.1374655E0,3.1233337E0,-2.0025709E0,1.9132502E0,3.7144556E0,-2.0209704E-1,-2.0366821E0,3.1897042E0,8.5592026E-1],"split_indices":[1,1,6,6,7,1,5,0,5,4,6,6,4,5,3,6,1,1,6,7,6,7,1,0,6,7,2,2,0,7,1,6,7,4,7,7,7,7,4,1,4,6,4,3,7,7,6,0,0,2,6,7,0,0,7,5,5,5,0,0,0,0,0,0,0,0,0,0,0,0,0,0,0,0,0,0,0,0,0,0,0,0,0,0,0,0,0,0,0,0,0,0,0,0,0,0,0,0,0,0,0,0,0,0,0,0,0,0,0,0,0],"split_type":[0,0,0,0,0,0,0,1,0,0,0,0,0,0,0,0,0,0,0,0,0,0,0,1,0,0,0,0,0,0,0,0,0,0,0,0,0,0,0,0,0,0,0,0,0,0,0,0,0,0,0,0,1,0,0,0,0,0,1,0,0,0,0,0,0,0,0,0,0,0,0,0,0,0,0,0,0,0,0,0,0,0,0,0,0,0,0,0,0,0,0,0,0,0,0,0,0,0,0,0,0,0,0,0,0,0,0,0,0,0,0],"sum_hessian":[1.1244E4,9.539E3,1.705E3,5.377E3,4.162E3,1.167E3,5.38E2,4.194E3,1.183E3,2.783E3,1.379E3,4E2,7.67E2,3.62E2,1.76E2,2.445E3,1.749E3,8.62E2,3.21E2,3.97E2,2.386E3,4.08E2,9.71E2,8E0,3.92E2,1.16E2,6.51E2,3.6E2,2E0,1.63E2,1.3E1,2.428E3,1.7E1,6.29E2,1.12E3,1.77E2,6.85E2,2.93E2,2.8E1,4.2E1,3.55E2,1.119E3,1.267E3,3.7E1,3.71E2,3.09E2,6.62E2,3E0,5E0,1.35E2,2.57E2,8.5E1,3.1E1,9E0,6.42E2,1.9E1,3.41E2,1.53E2,1E1,1.1E1,2E0,6.4E2,1.788E3,1.1E1,6E0,5E1,5.79E2,4.7E2,6.5E2,1.28E2,4.9E1,2.2E1,6.63E2,8.6E1,2.07E2,7E0,2.1E1,7E0,3.5E1,3.45E2,1E1,2.2E1,1.097E3,9E0,1.258E3,3.2E1,5E0,2.81E2,9E1,2.68E2,4.1E1,2.2E1,6.4E2,1.18E2,1.7E1,2.52E2,5E0,5.2E1,3.3E1,1.2E1,1.9E1,4.8E1,5.94E2,3E0,1.6E1,2.84E2,5.7E1,1.04E2,4.9E1,9E0,1E0],"tree_param":{"num_deleted":"0","num_feature":"8","num_nodes":"111","size_leaf_vector":"1"}},{"base_weights":[1.862275E-2,-2.1637983E0,4.2780623E0,-6.517063E-1,-3.294072E0,2.380595E0,8.009076E0,-1.4494524E0,1.190753E0,-1.4884423E0,-4.216235E0,4.089292E0,1.0711588E0,1.0111196E1,3.614237E0,-6.7080575E-1,-2.9912128E0,2.3178892E0,-1.1426935E0,-3.377804E0,1.5931059E0,-4.3696766E0,1.865468E0,6.888561E0,2.9514456E0,4.7807846E0,1.1268534E-1,1.4515923E1,8.736074E0,5.40685E0,-8.896345E-2,3.944104E0,-9.484109E-1,-7.287472E0,-2.6848888E0,8.193436E0,1.8874569E0,-1.7310419E0,4.928688E0,-5.6161094E0,-1.2204456E0,-4.2000284E0,3.4414082E0,-6.247913E-1,-4.6571608E0,3.1416712E0,7.4293447E-1,-4.239511E-1,7.628933E0,-6.4629154E0,3.715617E0,6.9736266E0,-9.735579E-1,2.4211159E0,-8.4404975E-1,2.0865555E1,9.365206E0,9.567118E0,8.369236E0,5.0582495E0,1.0807325E1,-9.7999877E-1,8.485527E0,5.808433E0,6.8732417E-1,-1.0076373E0,-1.1862536E-1,-2.3203802E0,2.1262026E0,-7.292445E-1,-2.3666704E0,2.8110507E0,-2.4627E-1,-4.2623872E-1,7.223616E-1,-5.9892483E-2,-1.1767881E0,3.7234395E0,3.945012E-1,1.3170354E0,-1.9087864E0,4.623731E-1,-1.2569973E0,-1.542226E0,9.000949E-1,1.4606738E0,-3.6103077E-2,1.1799581E0,-1.2357284E0,-1.5478603E0,-8.434549E-1,1.3192555E-2,2.65262E0,-1.7883636E0,1.2483253E0,4.7869167E0,2.0836177E0,6.0950553E-1,-3.70375E0,1.0472976E0,6.344394E0,-4.2179536E-2,2.730023E0,2.7834916E-1,-2.0742762E0,1.0801771E0,-6.998749E-1,3.3341762E-1,-7.543048E-1,8.139861E0,5.152569E0,6.935564E0,2.3505561E0,-1.4600756E0,2.6706617E0,-9.8389065E-1,1.7144293E0,-5.108979E-1,2.2514195E0,2.742158E0,9.766068E-1],"categories":[0,4,6,7,9],"categories_nodes":[1],"categories_segments":[0],"categories_sizes":[5],"default_left":[0,1,0,0,0,0,0,0,0,0,0,0,0,0,0,0,0,0,0,0,0,0,0,0,0,0,0,0,0,0,0,0,0,0,0,0,0,0,0,0,0,0,0,0,0,0,0,0,0,0,0,0,0,0,0,0,0,0,0,0,0,0,0,0,0,0,0,0,0,0,0,0,0,0,0,0,0,0,0,0,0,0,0,0,0,0,0,0,0,0,0,0,0,0,0,0,0,0,0,0,0,0,0,0,0,0,0,0,0,0,0,0,0,0,0,0,0,0,0,0,0],"id":4,"left_children":[1,3,5,7,9,11,13,15,17,19,21,23,25,27,29,31,33,35,37,39,41,43,45,47,49,51,53,55,57,59,61,63,65,67,69,71,73,75,77,79,81,83,85,87,89,-1,91,93,95,97,99,101,103,105,107,109,111,-1,113,115,-1,117,119,-1,-1,-1,-1,-1,-1,-1,-1,-1,-1,-1,-1,-1,-1,-1,-1,-1,-1,-1,-1,-1,-1,-1,-1,-1,-1,-1,-1,-1,-1,-1,-1,-1,-1,-1,-1,-1,-1,-1,-1,-1,-1,-1,-1,-1,-1,-1,-1,-1,-1,-1,-1,-1,-1,-1,-1,-1,-1],"loss_changes":[1.04541555E5,1.2706551E4,2.6953734E4,4.6786763E3,7.07866E3,5.6496045E3,1.1825656E4,2.6642744E3,2.5328164E3,8.389291E3,2.636E3,3.470582E3,5.091049E3,5.1306953E3,2.7686953E3,1.8959592E3,9.6088965E2,1.6258723E3,1.1301672E3,4.305286E3,5.8821445E3,2.9545E3,6.685169E2,1.7140527E3,5.642673E3,3.7165874E3,2.5175896E3,6.5091445E3,5.373043E3,2.8169775E3,1.0550197E3,2.0964E3,1.8567668E3,3.6975952E2,9.023999E2,4.744204E2,1.04675E3,9.624444E2,7.408099E2,3.2996934E3,3.746096E3,9.1630444E2,2.1157031E3,3.1538164E3,2.3507852E3,0E0,3.562519E2,7.8646124E2,1.5228242E3,2.973492E3,2.7572559E3,3.2235518E3,9.3265204E2,1.881224E3,2.6353303E3,1.6386758E3,2.238792E3,0E0,4.664004E3,1.5459727E3,0E0,7.795818E2,1.4779297E1,0E0,0E0,0E0,0E0,0E0,0E0,0E0,0E0,0E0,0E0,0E0,0E0,0E0,0E0,0E0,0E0,0E0,0E0,0E0,0E0,0E0,0E0,0E0,0E0,0E0,0E0,0E0,0E0,0E0,0E0,0E0,0E0,0E0,0E0,0E0,0E0,0E0,0E0,0E0,0E0,0E0,0E0,0E0,0E0,0E0,0E0,0E0,0E0,0E0,0E0,0E0,0E0,0E0,0E0,0E0,0E0,0E0,0E0],"parents":[2147483647,0,0,1,1,2,2,3,3,4,4,5,5,6,6,7,7,8,8,9,9,10,10,11,11,12,12,13,13,14,14,15,15,16,16,17,17,18,18,19,19,20,20,21,21,22,22,23,23,24,24,25,25,26,26,27,27,28,28,29,29,30,30,31,31,32,32,33,33,34,34,35,35,36,36,37,37,38,38,39,39,40,40,41,41,42,42,43,43,44,44,46,46,47,47,48,48,49,49,50,50,51,51,52,52,53,53,54,54,55,55,56,56,58,58,59,59,61,61,62,62],"right_children":[2,4,6,8,10,12,14,16,18,20,22,24,26,28,30,32,34,36,38,40,42,44,46,48,50,52,54,56,58,60,62,64,66,68,70,72,74,76,78,80,82,84,86,88,90,-1,92,94,96,98,100,102,104,106,108,110,112,-1,114,116,-1,118,120,-1,-1,-1,-1,-1,-1,-1,-1,-1,-1,-1,-1,-1,-1,-1,-1,-1,-1,-1,-1,-1,-1,-1,-1,-1,-1,-1,-1,-1,-1,-1,-1,-1,-1,-1,-1,-1,-1,-1,-1,-1,-1,-1,-1,-1,-1,-1,-1,-1,-1,-1,-1,-1,-1,-1,-1,-1,-1],"split_conditions":[5.2E1,NaN,7E1,4.4E1,1.7565508E2,1E-1,1.8792551E1,2.2945587E1,2.508601E2,1E-1,2.340425E1,1.2140329E1,1.3240211E2,1.688335E-1,2E0,2.6E1,2.5E1,9.0424997E-1,6.6E1,9.465986E1,4.3025085E1,1.1570515E1,2.3E1,6.9550843E0,5.0845966E1,2.1969587E1,4.7E1,8.210901E1,2.6E1,1.7000002E0,1.03E2,3.0984241E1,7.279036E1,1.8368834E1,3.0882983E2,5.8E1,5.98908E1,2.1969587E1,2.6467526E2,9.0424997E-1,1.5550087E1,1.9895916E1,4.7E1,8.962584E0,5.1E1,3.1416712E0,2.8348713E1,1.6202805E2,-5.3665843E0,1.982822E1,1.03E2,3.802166E0,2.6211487E1,2.5417631E1,1.7106628E1,1.0088033E1,-6.527E0,9.567118E0,2.6118853E1,4.8E1,1.0807325E1,2.3204254E1,8.4E1,5.808433E0,6.8732417E-1,-1.0076373E0,-1.1862536E-1,-2.3203802E0,2.1262026E0,-7.292445E-1,-2.3666704E0,2.8110507E0,-2.4627E-1,-4.2623872E-1,7.223616E-1,-5.9892483E-2,-1.1767881E0,3.7234395E0,3.945012E-1,1.3170354E0,-1.9087864E0,4.623731E-1,-1.2569973E0,-1.542226E0,9.000949E-1,1.4606738E0,-3.6103077E-2,1.1799581E0,-1.2357284E0,-1.5478603E0,-8.434549E-1,1.3192555E-2,2.65262E0,-1.7883636E0,1.2483253E0,4.7869167E0,2.0836177E0,6.0950553E-1,-3.70375E0,1.0472976E0,6.344394E0,-4.2179536E-2,2.730023E0,2.7834916E-1,-2.0742762E0,1.0801771E0,-6.998749E-1,3.3341762E-1,-7.543048E-1,8.139861E0,5.152569E0,6.935564E0,2.3505561E0,-1.4600756E0,2.6706617E0,-9.8389065E-1,1.7144293E0,-5.108979E-1,2.2514195E0,2.742158E0,9.766068E-1],"split_indices":[1,0,1,1,7,5,6,6,7,5,4,6,7,4,5,3,3,4,3,7,7,6,3,6,7,6,2,7,2,5,3,7,7,4,7,2,7,6,7,4,4,4,2,4,3,0,6,7,4,7,3,4,6,6,6,6,4,0,7,2,0,4,1,0,0,0,0,0,0,0,0,0,0,0,0,0,0,0,0,0,0,0,0,0,0,0,0,0,0,0,0,0,0,0,0,0,0,0,0,0,0,0,0,0,0,0,0,0,0,0,0,0,0,0,0,0,0,0,0,0,0],"split_type":[0,1,0,0,0,0,0,0,0,0,0,0,0,0,0,0,0,0,0,0,0,0,0,0,0,0,0,0,0,0,0,0,0,0,0,0,0,0,0,0,0,0,0,0,0,0,0,0,0,0,0,0,0,0,0,0,0,0,0,0,0,0,0,0,0,0,0,0,0,0,0,0,0,0,0,0,0,0,0,0,0,0,0,0,0,0,0,0,0,0,0,0,0,0,0,0,0,0,0,0,0,0,0,0,0,0,0,0,0,0,0,0,0,0,0,0,0,0,0,0,0],"sum_hessian":[1.1244E4,7.435E3,3.809E3,3.181E3,4.254E3,2.526E3,1.283E3,2.22E3,9.61E2,1.439E3,2.815E3,1.095E3,1.431E3,8.67E2,4.16E2,1.476E3,7.44E2,6.48E2,3.13E2,8.92E2,5.47E2,2.746E3,6.9E1,3.15E2,7.8E2,2.93E2,1.138E3,2.04E2,6.63E2,2.8E2,1.36E2,8.3E1,1.393E3,4.8E1,6.96E2,4.3E1,6.05E2,2.86E2,2.7E1,4.37E2,4.55E2,1.32E2,4.15E2,1.96E2,2.55E3,7E0,6.2E1,2.9E1,2.86E2,5.8E1,7.22E2,2.12E2,8.1E1,3.33E2,8.05E2,9E1,1.14E2,9E0,6.54E2,2.78E2,2E0,1.24E2,1.2E1,7E0,7.6E1,2.59E2,1.134E3,4.7E1,1E0,6.65E2,3.1E1,3.8E1,5E0,8.2E1,5.23E2,1.69E2,1.17E2,8E0,1.9E1,3E1,4.07E2,2.36E2,2.19E2,1.17E2,1.5E1,2.96E2,1.19E2,8.5E1,1.11E2,2.003E3,5.47E2,5.8E1,4E0,1.3E1,1.6E1,2E1,2.66E2,2.4E1,3.4E1,7.14E2,8E0,4.9E1,1.63E2,6.2E1,1.9E1,2.67E2,6.6E1,3.71E2,4.34E2,3.1E1,5.9E1,1E1,1.04E2,2.5E1,6.29E2,2E1,2.58E2,1.15E2,9E0,1E1,2E0],"tree_param":{"num_deleted":"0","num_feature":"8","num_nodes":"121","size_leaf_vector":"1"}},{"base_weights":[1.9475082E-2,-1.5132365E0,3.0108724E0,-2.852836E0,-6.605116E-1,2.3779323E0,8.6191845E0,-5.4087234E0,-2.6004336E0,8.123253E-1,-1.4749504E0,3.6348238E0,5.5952924E-1,2.7226671E1,8.051893E0,-4.9802127E0,-9.05729E0,-1.2584875E0,-3.162274E0,-9.053718E-2,5.0029297E0,1.0619707E0,-1.9655997E0,4.9496617E0,9.860714E-1,2.1640813E0,-8.8489103E-1,8.687848E0,1.4847691E0,1.0050938E1,3.5959241E0,-6.180038E0,-3.6630275E0,-9.687073E0,-1.3424376E0,4.1125803E0,-1.761437E0,-2.679556E0,-5.0489063E0,-2.128341E0,1.9658169E0,1.1525628E1,3.4417648E0,3.5036108E0,-2.5868742E0,-2.9590518E0,-9.2918736E-1,-6.840383E0,5.231304E0,5.0043592E0,1.6630192E-1,5.6779795E0,1.6384177E0,-6.0404557E-1,-8.5525055E0,1.3614663E1,7.610692E0,9.361507E0,1.6981703E0,-2.5651329E0,-1.299264E0,3.218106E0,-1.4995866E0,-9.7217757E-1,-3.0509074E0,9.4131213E-1,4.0502515E0,-7.0516005E-2,-1.0748944E0,-8.4194785E-1,1.0032781E0,-3.0770352E0,-1.2092499E0,5.58566E0,-7.126423E-1,1.1343938E0,3.837826E-2,3.7519467E0,1.2599279E0,1.4822098E0,-1.0372618E-1,1.441292E0,-2.9486145E-3,-1.2278719E0,5.583218E-1,-1.4528763E-1,-1.2503703E0,-4.8303577E-1,6.6662353E-1,-8.8824075E-1,-3.9178853E0,4.2358583E-1,1.8644339E0,-6.228136E-1,3.000659E0,4.320105E-1,-6.139367E-1,4.5330634E0,1.4345053E0,-7.5357866E-1,6.1841524E-1,-3.8600782E-1,1.7054812E0,3.025469E-1,-3.263087E0,3.0936208E0,7.8530173E0,2.8666387E0,6.3135564E-1,3.9051158E0,-5.5842894E-1,-4.510397E0,7.9537886E-1],"categories":[0,3,4,6,7,9,0,0,6,7,9,0,4,6,7,8,9,0,9],"categories_nodes":[12,13,14,33,43],"categories_segments":[0,6,7,11,17],"categories_sizes":[6,1,4,6,2],"default_left":[0,0,0,0,0,0,0,0,0,0,0,0,1,1,1,0,0,0,0,0,0,0,0,0,0,0,0,0,0,0,0,0,0,1,0,0,0,0,0,0,0,0,0,1,0,0,0,0,0,0,0,0,0,0,0,0,0,0,0,0,0,0,0,0,0,0,0,0,0,0,0,0,0,0,0,0,0,0,0,0,0,0,0,0,0,0,0,0,0,0,0,0,0,0,0,0,0,0,0,0,0,0,0,0,0,0,0,0,0,0,0,0,0],"id":5,"left_children":[1,3,5,7,9,11,13,15,17,19,21,23,25,27,29,31,33,35,37,39,41,43,45,47,49,51,53,-1,-1,55,57,59,61,63,-1,65,67,69,71,73,75,77,79,81,83,85,87,89,91,93,95,97,99,101,103,105,107,109,111,-1,-1,-1,-1,-1,-1,-1,-1,-1,-1,-1,-1,-1,-1,-1,-1,-1,-1,-1,-1,-1,-1,-1,-1,-1,-1,-1,-1,-1,-1,-1,-1,-1,-1,-1,-1,-1,-1,-1,-1,-1,-1,-1,-1,-1,-1,-1,-1,-1,-1,-1,-1,-1,-1],"loss_changes":[5.1562312E4,8.492332E3,1.3503957E4,1.8515977E3,5.4530874E3,7.825926E3,3.8553398E3,3.5982666E2,1.9819492E3,6.1260034E3,3.645437E3,7.047543E3,3.2489395E3,2.813037E2,3.3131445E3,3.4717432E2,3.1687744E1,2.1116157E3,1.676752E3,5.590048E3,2.8828545E3,4.2409175E3,2.5229238E3,4.5285312E3,2.2160767E3,1.2171907E3,1.5840542E3,0E0,0E0,2.1487422E3,1.2752185E3,4.9334277E2,2.2446167E3,3.549048E1,0E0,5.7084644E2,1.9815654E3,1.1410605E3,1.9575117E3,3.479536E3,2.2150718E3,3.42687E2,1.3245054E3,1.3024729E3,1.287078E3,3.7434775E3,2.582826E3,7.334297E2,4.9569688E3,4.0548496E3,1.5812859E3,6.547969E2,1.02158777E3,3.0683347E3,5.887949E2,4.044754E3,1.650376E3,1.2139832E3,1.4751747E3,0E0,0E0,0E0,0E0,0E0,0E0,0E0,0E0,0E0,0E0,0E0,0E0,0E0,0E0,0E0,0E0,0E0,0E0,0E0,0E0,0E0,0E0,0E0,0E0,0E0,0E0,0E0,0E0,0E0,0E0,0E0,0E0,0E0,0E0,0E0,0E0,0E0,0E0,0E0,0E0,0E0,0E0,0E0,0E0,0E0,0E0,0E0,0E0,0E0,0E0,0E0,0E0,0E0,0E0],"parents":[2147483647,0,0,1,1,2,2,3,3,4,4,5,5,6,6,7,7,8,8,9,9,10,10,11,11,12,12,13,13,14,14,15,15,16,16,17,17,18,18,19,19,20,20,21,21,22,22,23,23,24,24,25,25,26,26,29,29,30,30,31,31,32,32,33,33,35,35,36,36,37,37,38,38,39,39,40,40,41,41,42,42,43,43,44,44,45,45,46,46,47,47,48,48,49,49,50,50,51,51,52,52,53,53,54,54,55,55,56,56,57,57,58,58],"right_children":[2,4,6,8,10,12,14,16,18,20,22,24,26,28,30,32,34,36,38,40,42,44,46,48,50,52,54,-1,-1,56,58,60,62,64,-1,66,68,70,72,74,76,78,80,82,84,86,88,90,92,94,96,98,100,102,104,106,108,110,112,-1,-1,-1,-1,-1,-1,-1,-1,-1,-1,-1,-1,-1,-1,-1,-1,-1,-1,-1,-1,-1,-1,-1,-1,-1,-1,-1,-1,-1,-1,-1,-1,-1,-1,-1,-1,-1,-1,-1,-1,-1,-1,-1,-1,-1,-1,-1,-1,-1,-1,-1,-1,-1,-1],"split_conditions":[5.2E1,3.4E1,8.9E1,2E1,1.6917111E2,2.2093037E2,8.107996E0,3.163087E1,7.393833E0,1.2000002E0,1.4417988E1,1.0077168E1,NaN,NaN,NaN,3E-1,2.7204376E2,1.1620809E1,2.56233E1,9.361467E1,1.5999999E0,1.5939666E1,1.3762584E1,6.9550843E0,1.2620554E1,1.6063334E0,1.03E2,8.687848E0,1.4847691E0,1.0223373E2,6.1E1,1.637237E2,4E-1,NaN,-1.3424376E0,9E-1,2.5282071E2,6.4E1,8.962584E0,2.2E1,1.6704155E1,1.3010498E1,4.7E1,NaN,4E-1,4E-1,2.7459293E1,6.4E1,5.0845966E1,1.1570515E1,1.6731726E2,3.7E1,2.309418E2,7.7E1,8E1,9.8E1,8E-1,2.2271454E2,7E1,-2.5651329E0,-1.299264E0,3.218106E0,-1.4995866E0,-9.7217757E-1,-3.0509074E0,9.4131213E-1,4.0502515E0,-7.0516005E-2,-1.0748944E0,-8.4194785E-1,1.0032781E0,-3.0770352E0,-1.2092499E0,5.58566E0,-7.126423E-1,1.1343938E0,3.837826E-2,3.7519467E0,1.2599279E0,1.4822098E0,-1.0372618E-1,1.441292E0,-2.9486145E-3,-1.2278719E0,5.583218E-1,-1.4528763E-1,-1.2503703E0,-4.8303577E-1,6.6662353E-1,-8.8824075E-1,-3.9178853E0,4.2358583E-1,1.8644339E0,-6.228136E-1,3.000659E0,4.320105E-1,-6.139367E-1,4.5330634E0,1.4345053E0,-7.5357866E-1,6.1841524E-1,-3.8600782E-1,1.7054812E0,3.025469E-1,-3.263087E0,3.0936208E0,7.8530173E0,2.8666387E0,6.3135564E-1,3.9051158E0,-5.5842894E-1,-4.510397E0,7.9537886E-1],"split_indices":[1,1,1,1,7,7,6,6,4,5,6,4,0,0,0,5,7,6,6,7,5,4,4,6,6,4,2,0,0,7,3,7,5,0,0,5,7,3,4,2,6,4,2,0,5,5,6,1,7,6,7,3,7,1,3,3,5,7,2,0,0,0,0,0,0,0,0,0,0,0,0,0,0,0,0,0,0,0,0,0,0,0,0,0,0,0,0,0,0,0,0,0,0,0,0,0,0,0,0,0,0,0,0,0,0,0,0,0,0,0,0,0,0],"split_type":[0,0,0,0,0,0,0,0,0,0,0,0,1,1,1,0,0,0,0,0,0,0,0,0,0,0,0,0,0,0,0,0,0,1,0,0,0,0,0,0,0,0,0,1,0,0,0,0,0,0,0,0,0,0,0,0,0,0,0,0,0,0,0,0,0,0,0,0,0,0,0,0,0,0,0,0,0,0,0,0,0,0,0,0,0,0,0,0,0,0,0,0,0,0,0,0,0,0,0,0,0,0,0,0,0,0,0,0,0,0,0,0,0],"sum_hessian":[1.1244E4,7.435E3,3.809E3,2.891E3,4.544E3,3.424E3,3.85E2,2.58E2,2.633E3,1.618E3,2.926E3,2.024E3,1.4E3,1E1,3.75E2,2.33E2,2.5E1,7.78E2,1.855E3,1.332E3,2.86E2,4.74E2,2.452E3,1.352E3,6.72E2,6.63E2,7.37E2,9E0,1E0,2.58E2,1.17E2,1.2E2,1.13E2,2.1E1,4E0,6.6E1,7.12E2,1.479E3,3.76E2,6.69E2,6.63E2,5.4E1,2.32E2,2.84E2,1.9E2,1.251E3,1.201E3,3.1E1,1.321E3,1.13E2,5.59E2,8.5E1,5.78E2,7.12E2,2.5E1,1.03E2,1.55E2,2.8E1,8.9E1,5.1E1,6.9E1,9E0,1.04E2,2E0,1.9E1,6.1E1,5E0,3.88E2,3.24E2,1.449E3,3E1,6E1,3.16E2,7E0,6.62E2,3.33E2,3.3E2,4.7E1,7E0,1.66E2,6.6E1,2.07E2,7.7E1,1.42E2,4.8E1,4.11E2,8.4E2,9.88E2,2.13E2,2E1,1.1E1,2.71E2,1.05E3,4.7E1,6.6E1,3.55E2,2.04E2,6E0,7.9E1,5.3E1,5.25E2,6.43E2,6.9E1,5E0,2E1,8.3E1,2E1,1.14E2,4.1E1,2.1E1,7E0,4E0,8.5E1],"tree_param":{"num_deleted":"0","num_feature":"8","num_nodes":"113","size_leaf_vector":"1"}},{"base_weights":[1.6507024E-2,-6.290328E-1,3.626374E0,-1.9306111E0,1.4414449E-2,4.3496275E0,-3.0533394E-1,-7.101771E0,-1.8161504E0,6.08122E-1,-1.1862134E0,6.3185525E0,4.218122E0,1.094728E1,-1.4665323E0,-9.020906E0,-3.0077326E-1,-1.4745464E0,-3.2819908E0,2.2432256E0,-1.4374195E-1,-4.3392262E-1,-2.4506187E0,7.4094267E0,3.5816724E0,5.8589873E0,5.398146E0,8.017851E-1,-4.7510896E0,-1.114525E1,-6.195831E0,-2.0564024E0,1.1918675E0,2.7776277E0,-1.7063832E0,2.8467681E0,-3.6196213E0,-2.2850876E0,2.9308188E0,9.475829E0,-2.0317464E-1,-1.5177999E0,1.543347E0,-3.0917995E0,3.4254096E0,2.0908895E1,6.1369553E0,-3.6993387E0,4.0794883E0,2.130086E0,3.2487051E0,3.727255E0,-4.8061556E-1,-3.2359104E0,-9.106585E0,-1.8776796E0,-5.2637873E0,-1.437021E-1,-2.5177286E0,-1.4834276E-1,-1.2432613E0,6.49793E-1,5.2907114E0,-3.444751E-1,-8.1031543E-1,-5.574694E-1,3.1353612E0,-3.6982272E0,-9.551918E-1,5.344146E-1,-1.7813715E0,2.0326777E0,5.355661E-1,3.217559E0,-1.03823096E-1,-6.178799E-1,1.4660612E-2,-4.3444507E-2,-1.1893893E0,5.31415E-3,1.5754527E0,-3.5344667E0,-8.115057E-1,-1.0646235E0,1.5847288E0,7.706547E0,4.398901E0,1.3603145E0,4.5930653E0,-4.1076156E-1,-2.0799906E0,2.2813075E0,8.085372E-1,1.0531777E0,2.5160754E-1,2.1903741E0,7.3840165E-1,2.3416182E-1,-1.3037244E0,-1.2237904E0,1.3012208E0,9.833568E-1,-3.2833097E0],"categories":[0,4,6,7,9,5,6,7,8,9,4,6,9,0,9,0,1,2,3,4,5],"categories_nodes":[14,25,31,34,50],"categories_segments":[0,5,10,13,15],"categories_sizes":[5,5,3,2,6],"default_left":[0,0,0,0,0,0,0,0,0,0,0,0,0,0,1,0,0,0,0,0,0,0,0,0,0,1,0,0,0,0,0,1,0,0,1,0,0,0,0,0,0,0,0,0,0,0,0,0,0,0,1,0,0,0,0,0,0,0,0,0,0,0,0,0,0,0,0,0,0,0,0,0,0,0,0,0,0,0,0,0,0,0,0,0,0,0,0,0,0,0,0,0,0,0,0,0,0,0,0,0,0,0,0],"id":6,"left_children":[1,3,5,7,9,11,13,15,17,19,21,-1,23,25,27,29,31,33,35,37,39,41,43,45,47,49,-1,51,53,55,57,59,-1,61,63,65,67,69,71,73,75,77,79,81,83,85,87,89,91,-1,93,95,97,99,101,-1,-1,-1,-1,-1,-1,-1,-1,-1,-1,-1,-1,-1,-1,-1,-1,-1,-1,-1,-1,-1,-1,-1,-1,-1,-1,-1,-1,-1,-1,-1,-1,-1,-1,-1,-1,-1,-1,-1,-1,-1,-1,-1,-1,-1,-1,-1,-1],"loss_changes":[2.6206648E4,7.989748E3,4.852545E3,1.855123E3,4.5520884E3,3.0781035E3,3.491748E3,8.848252E2,1.5419375E3,5.2534434E3,2.0088228E3,0E0,2.8799746E3,7.909458E2,1.8068107E3,2.4902197E2,1.2821738E2,2.476167E3,1.2166792E3,4.197653E3,1.6759122E3,2.8441167E3,2.979457E3,3.9427969E3,4.346493E3,2.8775513E1,0E0,5.420254E2,6.2386816E2,7.971821E2,3.09919E2,3.7082714E1,0E0,1.1432354E3,1.3170625E3,1.1285654E3,2.0585786E3,2.654602E3,5.136843E3,2.245929E2,1.3621562E3,2.8784844E3,2.6588354E3,2.3578232E3,1.0289349E3,2.2038574E2,3.1353584E3,5.7074524E2,5.4398965E3,0E0,1.4737473E0,1.8110156E2,4.957196E2,4.9673834E2,6.0487134E2,0E0,0E0,0E0,0E0,0E0,0E0,0E0,0E0,0E0,0E0,0E0,0E0,0E0,0E0,0E0,0E0,0E0,0E0,0E0,0E0,0E0,0E0,0E0,0E0,0E0,0E0,0E0,0E0,0E0,0E0,0E0,0E0,0E0,0E0,0E0,0E0,0E0,0E0,0E0,0E0,0E0,0E0,0E0,0E0,0E0,0E0,0E0,0E0],"parents":[2147483647,0,0,1,1,2,2,3,3,4,4,5,5,6,6,7,7,8,8,9,9,10,10,12,12,13,13,14,14,15,15,16,16,17,17,18,18,19,19,20,20,21,21,22,22,23,23,24,24,25,25,27,27,28,28,29,29,30,30,31,31,33,33,34,34,35,35,36,36,37,37,38,38,39,39,40,40,41,41,42,42,43,43,44,44,45,45,46,46,47,47,48,48,50,50,51,51,52,52,53,53,54,54],"right_children":[2,4,6,8,10,12,14,16,18,20,22,-1,24,26,28,30,32,34,36,38,40,42,44,46,48,50,-1,52,54,56,58,60,-1,62,64,66,68,70,72,74,76,78,80,82,84,86,88,90,92,-1,94,96,98,100,102,-1,-1,-1,-1,-1,-1,-1,-1,-1,-1,-1,-1,-1,-1,-1,-1,-1,-1,-1,-1,-1,-1,-1,-1,-1,-1,-1,-1,-1,-1,-1,-1,-1,-1,-1,-1,-1,-1,-1,-1,-1,-1,-1,-1,-1,-1,-1,-1],"split_conditions":[6.5E1,3.5E1,2.1E0,2.1148947E1,2.5148706E2,2.6E1,2.250833E-1,1.5833419E1,2.869245E2,7.7105007E0,2.2682856E1,6.3185525E0,1.0538843E1,1.08E2,NaN,1.8568813E1,4.2E1,1.4584166E0,1.0538843E1,4.3025085E1,8.107996E0,5E-1,2.0170916E1,-5.3665843E0,4.090103E1,NaN,5.398146E0,7.1E1,6.7999997E0,1.6704155E1,2.1969587E1,NaN,1.1918675E0,1.2604998E0,NaN,1E-1,5.729999E-1,1.7388409E1,1.0773061E2,5.9E1,9.3063345E0,1.62605E1,3.1034433E2,2.2771244E1,2E-1,5.7E1,1.12E2,7.2E1,1.0773061E2,2.130086E0,NaN,4.7E1,6.7999997E0,5.7999997E0,4.7E1,-1.8776796E0,-5.2637873E0,-1.437021E-1,-2.5177286E0,-1.4834276E-1,-1.2432613E0,6.49793E-1,5.2907114E0,-3.444751E-1,-8.1031543E-1,-5.574694E-1,3.1353612E0,-3.6982272E0,-9.551918E-1,5.344146E-1,-1.7813715E0,2.0326777E0,5.355661E-1,3.217559E0,-1.03823096E-1,-6.178799E-1,1.4660612E-2,-4.3444507E-2,-1.1893893E0,5.31415E-3,1.5754527E0,-3.5344667E0,-8.115057E-1,-1.0646235E0,1.5847288E0,7.706547E0,4.398901E0,1.3603145E0,4.5930653E0,-4.1076156E-1,-2.0799906E0,2.2813075E0,8.085372E-1,1.0531777E0,2.5160754E-1,2.1903741E0,7.3840165E-1,2.3416182E-1,-1.3037244E0,-1.2237904E0,1.3012208E0,9.833568E-1,-3.2833097E0],"split_indices":[1,1,5,7,7,2,4,4,7,4,6,0,6,1,0,6,3,4,6,7,6,5,4,4,7,0,0,1,5,6,6,0,0,4,0,5,4,6,7,1,4,4,7,6,5,2,1,2,7,0,0,3,5,5,2,0,0,0,0,0,0,0,0,0,0,0,0,0,0,0,0,0,0,0,0,0,0,0,0,0,0,0,0,0,0,0,0,0,0,0,0,0,0,0,0,0,0,0,0,0,0,0,0],"split_type":[0,0,0,0,0,0,0,0,0,0,0,0,0,0,1,0,0,0,0,0,0,0,0,0,0,1,0,0,0,0,0,1,0,0,1,0,0,0,0,0,0,0,0,0,0,0,0,0,0,0,1,0,0,0,0,0,0,0,0,0,0,0,0,0,0,0,0,0,0,0,0,0,0,0,0,0,0,0,0,0,0,0,0,0,0,0,0,0,0,0,0,0,0,0,0,0,0,0,0,0,0,0,0],"sum_hessian":[1.1244E4,9.539E3,1.705E3,3.155E3,6.384E3,1.44E3,2.65E2,6.7E1,3.088E3,4.272E3,2.112E3,1E1,1.43E3,2.4E1,2.41E2,5.2E1,1.5E1,2.506E3,5.82E2,1.345E3,2.927E3,1.325E3,7.87E2,2.36E2,1.194E3,1.5E1,9E0,1.43E2,9.8E1,2.8E1,2.4E1,1.1E1,4E0,1.29E2,2.377E3,3E1,5.52E2,1.77E2,1.168E3,1.7E1,2.91E3,8.56E2,4.69E2,7.1E2,7.7E1,1.9E1,2.17E2,7.6E1,1.118E3,9E0,6E0,4.3E1,1E2,7.4E1,2.4E1,1.7E1,1.1E1,7E0,1.7E1,7E0,4E0,1.25E2,4E0,1.524E3,8.53E2,1.9E1,1.1E1,2.5E1,5.27E2,8.4E1,9.3E1,2.67E2,9.01E2,1.5E1,2E0,3.47E2,2.563E3,5.49E2,3.07E2,3.33E2,1.36E2,2.9E1,6.81E2,1.6E1,6.1E1,9E0,1E1,1.86E2,3.1E1,4.5E1,3.1E1,3.14E2,8.04E2,5E0,1E0,1E1,3.3E1,7.6E1,2.4E1,6.7E1,7E0,3E0,2.1E1],"tree_param":{"num_deleted":"0","num_feature":"8","num_nodes":"103","size_leaf_vector":"1"}},{"base_weights":[1.3912291E-2,-8.9180326E-1,1.4236465E0,-1.3696882E-1,-1.673299E0,3.5838735E0,9.657455E-1,8.195782E-1,-5.6877226E-1,-1.1178517E0,-2.4681094E0,4.9602633E0,1.1487794E0,1.7850773E0,-5.4711837E-2,-5.72949E-1,3.552932E0,1.8054912E0,-7.8063667E-1,-1.3912847E0,1.610568E0,-7.6703486E0,-2.2793553E0,8.654796E0,3.3097217E0,2.9514713E0,-1.2998103E0,1.4468338E0,5.0246E0,6.052184E-1,-1.8909786E0,-1.6322812E0,2.8314157E0,-7.854973E-1,5.2780547E0,6.013516E0,7.94801E-1,-9.58961E-1,1.6513968E0,3.1175795E-1,-1.8020124E0,4.606772E-1,7.382996E0,1.5249534E0,-9.547533E0,2.1203864E0,-2.5799935E0,2.2572727E0,1.0711384E1,1.3322843E0,8.41622E0,4.575817E0,-1.2088671E0,2.5976193E0,-2.4173455E0,2.2501538E0,6.1324286E-1,1.4311948E1,3.9694595E0,4.2908904E-1,5.1868386E0,-4.200519E0,-5.509461E-1,-9.0852666E-1,3.259811E-1,1.6907967E0,-8.439121E-2,-1.1244674E0,5.621465E-1,3.6010816E0,1.192804E0,2.633294E0,1.0812767E0,-3.9183767E0,3.4282774E-1,-4.0182385E-1,1.4204273E-1,-5.166479E-2,1.537976E0,-5.38327E-2,1.937599E0,8.770583E-1,-5.7214814E-1,-2.781545E-1,1.351705E0,3.174782E0,-1.3925427E0,7.016468E-1,-2.6471767E-1,-2.0888133E0,-3.6113954E0,4.028285E-1,2.5872612E0,-2.7845283E0,-7.4569607E-1,-3.368991E-1,2.4396708E0,2.160195E0,3.9741473E0,8.151321E-2,1.8261131E0,3.890032E0,8.541046E-1,2.009154E0,5.2224034E-1,-8.052684E-1,1.1188452E0,1.7155102E0,-1.283775E0,-1.7187127E-1,-1.1976322E0,8.467245E-1,-7.2519594E-1,-2.6237984E0,2.4445486E-1,5.572974E0,5.9274405E-1,4.1664383E-1,2.3404806E0,2.1674414E-1,-1.0814706E0,2.4664404E0,-4.6208177E0,-9.6584207E-1,-3.0222704E0,2.4624302E0,-3.836041E-1],"categories":[0,6,7,9,0,4,6,7,9,0,3,4,6,7,8,9,0,0,3,6,9,0,3,4,6,8,9],"categories_nodes":[1,6,35,43,51,54],"categories_segments":[0,4,9,16,17,21],"categories_sizes":[4,5,7,1,4,6],"default_left":[0,1,0,0,0,0,1,0,0,0,0,0,0,0,0,0,0,0,0,0,0,0,0,0,0,0,0,0,0,0,0,0,0,0,0,1,0,0,0,0,0,0,0,1,0,0,0,0,0,0,0,1,0,0,1,0,0,0,0,0,0,0,0,0,0,0,0,0,0,0,0,0,0,0,0,0,0,0,0,0,0,0,0,0,0,0,0,0,0,0,0,0,0,0,0,0,0,0,0,0,0,0,0,0,0,0,0,0,0,0,0,0,0,0,0,0,0,0,0,0,0,0,0,0,0,0,0],"id":7,"left_children":[1,3,5,7,9,11,13,15,17,19,21,23,25,27,29,31,33,35,37,39,41,43,45,47,49,51,53,55,57,59,61,63,65,67,69,71,73,75,77,79,81,83,85,87,89,91,93,95,97,99,101,103,105,107,109,111,113,115,117,119,121,123,125,-1,-1,-1,-1,-1,-1,-1,-1,-1,-1,-1,-1,-1,-1,-1,-1,-1,-1,-1,-1,-1,-1,-1,-1,-1,-1,-1,-1,-1,-1,-1,-1,-1,-1,-1,-1,-1,-1,-1,-1,-1,-1,-1,-1,-1,-1,-1,-1,-1,-1,-1,-1,-1,-1,-1,-1,-1,-1,-1,-1,-1,-1,-1,-1],"loss_changes":[1.4359089E4,4.038815E3,4.3478975E3,1.4394984E3,1.4823643E3,2.571711E3,3.0359524E3,4.1280312E3,1.2091653E3,1.4808918E3,1.3405459E3,2.965462E3,1.2353569E3,2.1995654E3,1.9618499E3,2.5975896E3,2.7434087E3,8.3306335E2,9.5787146E2,1.2610374E3,1.1980157E3,8.431008E2,1.7726382E3,1.9625391E3,3.43213E3,1.0935419E3,5.245857E2,1.2207136E3,1.8050864E3,9.58861E2,1.3222855E3,2.0872656E3,1.4943896E3,8.3430133E2,2.2465938E3,2.2142456E2,7.8633826E2,1.1205538E3,9.5783026E2,1.0609548E3,7.270464E2,8.5748987E2,1.203363E3,1.9697142E1,1.7367798E2,4.2336728E2,7.678672E2,7.637728E2,9.1948926E2,1.2439109E3,2.370665E3,6.859768E2,3.451599E2,6.0391656E2,2.6783655E2,2.4881943E3,1.6996624E3,9.6286816E2,1.6901431E3,1.3613064E3,2.8758271E3,8.722605E2,1.7442937E3,0E0,0E0,0E0,0E0,0E0,0E0,0E0,0E0,0E0,0E0,0E0,0E0,0E0,0E0,0E0,0E0,0E0,0E0,0E0,0E0,0E0,0E0,0E0,0E0,0E0,0E0,0E0,0E0,0E0,0E0,0E0,0E0,0E0,0E0,0E0,0E0,0E0,0E0,0E0,0E0,0E0,0E0,0E0,0E0,0E0,0E0,0E0,0E0,0E0,0E0,0E0,0E0,0E0,0E0,0E0,0E0,0E0,0E0,0E0,0E0,0E0,0E0,0E0,0E0],"parents":[2147483647,0,0,1,1,2,2,3,3,4,4,5,5,6,6,7,7,8,8,9,9,10,10,11,11,12,12,13,13,14,14,15,15,16,16,17,17,18,18,19,19,20,20,21,21,22,22,23,23,24,24,25,25,26,26,27,27,28,28,29,29,30,30,31,31,32,32,33,33,34,34,35,35,36,36,37,37,38,38,39,39,40,40,41,41,42,42,43,43,44,44,45,45,46,46,47,47,48,48,49,49,50,50,51,51,52,52,53,53,54,54,55,55,56,56,57,57,58,58,59,59,60,60,61,61,62,62],"right_children":[2,4,6,8,10,12,14,16,18,20,22,24,26,28,30,32,34,36,38,40,42,44,46,48,50,52,54,56,58,60,62,64,66,68,70,72,74,76,78,80,82,84,86,88,90,92,94,96,98,100,102,104,106,108,110,112,114,116,118,120,122,124,126,-1,-1,-1,-1,-1,-1,-1,-1,-1,-1,-1,-1,-1,-1,-1,-1,-1,-1,-1,-1,-1,-1,-1,-1,-1,-1,-1,-1,-1,-1,-1,-1,-1,-1,-1,-1,-1,-1,-1,-1,-1,-1,-1,-1,-1,-1,-1,-1,-1,-1,-1,-1,-1,-1,-1,-1,-1,-1,-1,-1,-1,-1,-1,-1],"split_conditions":[4.9E1,NaN,9.0424997E-1,1.5774881E2,2.0799152E1,1.9274922E2,NaN,1E-1,1.1874544E1,3.7999997E0,3.312627E1,1.0538843E1,6.2E1,8.5E1,2.0000002E0,1.2106512E2,4.3025085E1,2.777167E0,2.1100082E1,5.1084166E0,2.0483418E1,2.1969587E1,9.954495E1,8.311245E0,8.8E1,7.2E1,5.7E1,1.0325084E1,9.346143E0,1.4000002E0,6.7167497E0,1.8847641E1,1.2829249E1,1.7660192E1,1.4168641E1,NaN,3.4209166E0,5.5E1,1.1000001E0,4.8313327E0,1.7E1,2.6394492E2,2.0973038E2,NaN,2.3770796E1,6.1E1,2.0907913E1,-7.8950006E-1,4.1727337E1,8E-1,9.7E1,NaN,8.479999E-1,7.1E1,NaN,2.6211487E1,1.0662583E1,1.24E2,7.8084164E0,9.0000004E-1,7.2E1,8.200002E0,7.54175E0,-9.0852666E-1,3.259811E-1,1.6907967E0,-8.439121E-2,-1.1244674E0,5.621465E-1,3.6010816E0,1.192804E0,2.633294E0,1.0812767E0,-3.9183767E0,3.4282774E-1,-4.0182385E-1,1.4204273E-1,-5.166479E-2,1.537976E0,-5.38327E-2,1.937599E0,8.770583E-1,-5.7214814E-1,-2.781545E-1,1.351705E0,3.174782E0,-1.3925427E0,7.016468E-1,-2.6471767E-1,-2.0888133E0,-3.6113954E0,4.028285E-1,2.5872612E0,-2.7845283E0,-7.4569607E-1,-3.368991E-1,2.4396708E0,2.160195E0,3.9741473E0,8.151321E-2,1.8261131E0,3.890032E0,8.541046E-1,2.009154E0,5.2224034E-1,-8.052684E-1,1.1188452E0,1.7155102E0,-1.283775E0,-1.7187127E-1,-1.1976322E0,8.467245E-1,-7.2519594E-1,-2.6237984E0,2.4445486E-1,5.572974E0,5.9274405E-1,4.1664383E-1,2.3404806E0,2.1674414E-1,-1.0814706E0,2.4664404E0,-4.6208177E0,-9.6584207E-1,-3.0222704E0,2.4624302E0,-3.836041E-1],"split_indices":[1,0,4,7,6,7,0,5,6,5,7,6,3,1,5,7,7,4,4,4,4,6,7,6,1,1,1,4,6,5,4,6,4,6,6,0,4,3,5,4,2,7,7,0,7,2,6,4,7,5,2,0,4,3,0,6,4,2,4,5,3,5,4,0,0,0,0,0,0,0,0,0,0,0,0,0,0,0,0,0,0,0,0,0,0,0,0,0,0,0,0,0,0,0,0,0,0,0,0,0,0,0,0,0,0,0,0,0,0,0,0,0,0,0,0,0,0,0,0,0,0,0,0,0,0,0,0],"split_type":[0,1,0,0,0,0,1,0,0,0,0,0,0,0,0,0,0,0,0,0,0,0,0,0,0,0,0,0,0,0,0,0,0,0,0,1,0,0,0,0,0,0,0,1,0,0,0,0,0,0,0,1,0,0,1,0,0,0,0,0,0,0,0,0,0,0,0,0,0,0,0,0,0,0,0,0,0,0,0,0,0,0,0,0,0,0,0,0,0,0,0,0,0,0,0,0,0,0,0,0,0,0,0,0,0,0,0,0,0,0,0,0,0,0,0,0,0,0,0,0,0,0,0,0,0,0,0],"sum_hessian":[1.1244E4,6.846E3,4.398E3,3.483E3,3.363E3,7.68E2,3.63E3,1.083E3,2.4E3,1.981E3,1.382E3,4.9E2,2.78E2,2.013E3,1.617E3,7.18E2,3.65E2,1.96E2,2.204E3,1.801E3,1.8E2,4.7E1,1.335E3,1.5E2,3.4E2,1.6E2,1.18E2,1.824E3,1.89E2,1.19E3,4.27E2,5.48E2,1.7E2,1.04E2,2.61E2,3.7E1,1.59E2,2.054E3,1.5E2,3.5E2,1.451E3,1.51E2,2.9E1,8E0,3.9E1,8.5E1,1.25E3,3.7E1,1.13E2,2.46E2,9.4E1,1.15E2,4.5E1,2.6E1,9.2E1,9.28E2,8.96E2,1.8E1,1.71E2,1.147E3,4.3E1,1.56E2,2.71E2,3.62E2,1.86E2,8.9E1,8.1E1,4.9E1,5.5E1,4.1E1,2.2E2,1.6E1,2.1E1,3E0,1.56E2,1.623E3,4.31E2,9.9E1,5.1E1,3.25E2,2.5E1,3.1E1,1.42E3,1.13E2,3.8E1,2.3E1,6E0,6E0,2E0,2.1E1,1.8E1,7.7E1,8E0,1.6E1,1.234E3,2.4E1,1.3E1,4.9E1,6.4E1,2.02E2,4.4E1,5.1E1,4.3E1,6.5E1,5E1,3.5E1,1E1,1.8E1,8E0,4.3E1,4.9E1,8.27E2,1.01E2,1.8E1,8.78E2,1.3E1,5E0,1.03E2,6.8E1,1.07E3,7.7E1,3.8E1,5E0,1.35E2,2.1E1,2E1,2.51E2],"tree_param":{"num_deleted":"0","num_feature":"8","num_nodes":"127","size_leaf_vector":"1"}},{"base_weights":[1.1908404E-2,-5.660137E-1,1.1398393E0,8.2553364E-2,-1.050896E0,1.75871E0,3.5075206E-2,1.1882792E0,-1.9358489E-1,-2.164594E0,-7.775404E-1,1.43142E0,4.6484003E0,8.39438E-1,-8.4817624E-1,-5.346624E-1,1.9289904E0,-5.644239E0,-1.2198839E-1,1.0528939E1,-2.2075558E0,4.1730227E0,-8.463123E-1,2.0643165E0,3.98122E-1,6.3664417E0,7.018482E-3,5.435026E-1,5.7055073E0,3.1662524E0,-9.347149E-1,-1.4850676E0,5.873447E0,3.1671524E0,-4.5473838E-1,-3.1557481E0,-8.420045E0,-4.1354448E-1,9.0364957E-1,-1.4291325E-1,4.880936E0,-2.3352032E0,1.1824888E0,1.6942124E0,7.396857E0,-2.3620467E-1,-1.3075832E0,2.3623195E0,-2.3812182E0,-8.64939E0,6.307596E-1,9.895909E0,4.7060733E0,2.6181557E0,-6.3906183E0,1.2105224E0,-3.0610144E0,1.0487556E1,-2.4219174E0,-1.0216105E-1,-1.9334332E0,3.3184674E-1,-8.371667E-1,3.043854E-1,2.7135077E0,7.782146E-1,3.3886163E0,1.2895851E0,-5.0933784E-1,-1.2439554E0,-9.539814E-2,-2.9503145E0,-1.3978432E0,-1.5026282E0,-6.83866E-2,2.8798094E0,1.5843782E-1,-1.1806567E0,-6.3088644E-1,-5.812728E-1,1.8852168E0,9.084965E-1,-2.1112545E0,-6.231116E-1,5.974779E-2,-4.0515217E-1,2.387002E0,8.54743E-1,-2.0895548E-1,7.366748E-1,-1.1944965E0,-3.2779438E0,-1.3197653E0,3.5658836E-1,-6.7943716E-1,3.5723252E0,2.262849E0,6.5767E-1,2.5298965E0,-9.185563E-1,9.9995965E-1,2.3792286E0,-2.2685351E0,5.827315E-1,-3.7317374E-1,4.4367156E0,-1.0639462E0,4.728801E0,1.1999795E0,-1.3445203E0,5.9434894E-2,-9.134287E-2,1.7118161E0,-1.02745175E-1,-9.352675E-1],"categories":[0,4,6,7,9,0,6,7,9,0,9,0,1,3,4,6,7,9],"categories_nodes":[1,2,30,51],"categories_segments":[0,5,9,11],"categories_sizes":[5,4,2,7],"default_left":[0,1,1,0,0,0,0,0,0,0,0,0,0,0,0,0,0,0,0,0,0,0,0,0,0,0,0,0,0,0,1,0,0,0,0,0,0,0,0,0,0,0,0,0,0,0,0,0,0,0,0,1,0,0,0,0,0,0,0,0,0,0,0,0,0,0,0,0,0,0,0,0,0,0,0,0,0,0,0,0,0,0,0,0,0,0,0,0,0,0,0,0,0,0,0,0,0,0,0,0,0,0,0,0,0,0,0,0,0,0,0,0,0,0,0],"id":8,"left_children":[1,3,5,7,9,11,13,15,17,19,21,23,25,27,29,31,33,35,37,39,41,43,45,47,49,51,53,55,57,-1,59,61,63,65,67,69,71,73,75,-1,-1,77,79,81,-1,83,85,87,89,91,93,95,97,99,101,103,105,107,109,111,113,-1,-1,-1,-1,-1,-1,-1,-1,-1,-1,-1,-1,-1,-1,-1,-1,-1,-1,-1,-1,-1,-1,-1,-1,-1,-1,-1,-1,-1,-1,-1,-1,-1,-1,-1,-1,-1,-1,-1,-1,-1,-1,-1,-1,-1,-1,-1,-1,-1,-1,-1,-1,-1,-1],"loss_changes":[7.330768E3,2.3385508E3,2.6048594E3,9.718002E2,1.29369E3,2.3029087E3,9.733244E2,8.12696E2,9.9327234E2,4.802351E2,1.1672231E3,1.4346445E3,1.9775293E3,1.0294092E3,6.5420886E2,1.1780602E3,1.3148323E3,2.013783E2,7.5243665E2,1.9729007E2,3.6452417E2,2.3445999E3,9.4865576E2,1.8086538E3,1.7629565E3,1.0141284E3,1.1526791E3,1.6314058E3,1.6188955E3,0E0,5.3943744E2,5.7139905E2,3.7607678E2,1.3355884E3,9.1132605E2,5.2101105E1,3.395752E1,1.669537E3,1.8137834E3,0E0,0E0,2.9129102E2,5.0560962E2,5.2222217E2,0E0,1.1648954E3,7.74251E2,1.9020947E3,6.755027E2,1.5517053E2,1.3191904E3,1.80021E2,1.1526216E3,2.0921698E2,3.9542474E2,1.0299797E3,9.71016E2,8.267471E2,8.723655E1,4.1889423E2,5.546776E2,0E0,0E0,0E0,0E0,0E0,0E0,0E0,0E0,0E0,0E0,0E0,0E0,0E0,0E0,0E0,0E0,0E0,0E0,0E0,0E0,0E0,0E0,0E0,0E0,0E0,0E0,0E0,0E0,0E0,0E0,0E0,0E0,0E0,0E0,0E0,0E0,0E0,0E0,0E0,0E0,0E0,0E0,0E0,0E0,0E0,0E0,0E0,0E0,0E0,0E0,0E0,0E0,0E0,0E0],"parents":[2147483647,0,0,1,1,2,2,3,3,4,4,5,5,6,6,7,7,8,8,9,9,10,10,11,11,12,12,13,13,14,14,15,15,16,16,17,17,18,18,19,19,20,20,21,21,22,22,23,23,24,24,25,25,26,26,27,27,28,28,30,30,31,31,32,32,33,33,34,34,35,35,36,36,37,37,38,38,41,41,42,42,43,43,45,45,46,46,47,47,48,48,49,49,50,50,51,51,52,52,53,53,54,54,55,55,56,56,57,57,58,58,59,59,60,60],"right_children":[2,4,6,8,10,12,14,16,18,20,22,24,26,28,30,32,34,36,38,40,42,44,46,48,50,52,54,56,58,-1,60,62,64,66,68,70,72,74,76,-1,-1,78,80,82,-1,84,86,88,90,92,94,96,98,100,102,104,106,108,110,112,114,-1,-1,-1,-1,-1,-1,-1,-1,-1,-1,-1,-1,-1,-1,-1,-1,-1,-1,-1,-1,-1,-1,-1,-1,-1,-1,-1,-1,-1,-1,-1,-1,-1,-1,-1,-1,-1,-1,-1,-1,-1,-1,-1,-1,-1,-1,-1,-1,-1,-1,-1,-1,-1,-1],"split_conditions":[5.2E1,NaN,NaN,1.4417988E1,2.6E1,9E1,1.9274922E2,1.08745995E2,1.4512064E1,-6.527E0,1.8E1,1.0591751E1,1.645007E1,9.4E1,2.2E1,7E-1,1.736675E1,2E-1,1.8502165E1,2.2E1,2.2087584E1,1.7998E1,1.7884428E1,6.7999997E0,1.0727168E1,6.7E1,2E-1,7.7E1,1.0773061E2,3.1662524E0,NaN,4.1727337E1,4.181333E0,1.6295916E1,1.3057175E2,3.9E1,1.2043835E1,3.312627E1,1.861675E1,-1.4291325E-1,4.880936E0,1.2620554E1,2.8E1,2.6674032E1,7.396857E0,7.279036E1,8.5E1,8.4E1,4.0229993E0,1.0662583E1,6.5E1,NaN,8.5E1,1.7782688E1,9.1E1,2.000512E1,9.346143E0,2E-1,1E-1,1.11E2,3E-1,3.3184674E-1,-8.371667E-1,3.043854E-1,2.7135077E0,7.782146E-1,3.3886163E0,1.2895851E0,-5.0933784E-1,-1.2439554E0,-9.539814E-2,-2.9503145E0,-1.3978432E0,-1.5026282E0,-6.83866E-2,2.8798094E0,1.5843782E-1,-1.1806567E0,-6.3088644E-1,-5.812728E-1,1.8852168E0,9.084965E-1,-2.1112545E0,-6.231116E-1,5.974779E-2,-4.0515217E-1,2.387002E0,8.54743E-1,-2.0895548E-1,7.366748E-1,-1.1944965E0,-3.2779438E0,-1.3197653E0,3.5658836E-1,-6.7943716E-1,3.5723252E0,2.262849E0,6.5767E-1,2.5298965E0,-9.185563E-1,9.9995965E-1,2.3792286E0,-2.2685351E0,5.827315E-1,-3.7317374E-1,4.4367156E0,-1.0639462E0,4.728801E0,1.1999795E0,-1.3445203E0,5.9434894E-2,-9.134287E-2,1.7118161E0,-1.02745175E-1,-9.352675E-1],"split_indices":[1,0,0,6,1,1,7,7,6,4,2,4,6,3,2,5,4,5,4,1,4,4,6,5,4,3,5,2,7,0,0,7,4,4,7,3,4,7,4,0,0,6,2,6,0,7,2,2,4,4,3,0,3,6,1,6,6,5,5,1,5,0,0,0,0,0,0,0,0,0,0,0,0,0,0,0,0,0,0,0,0,0,0,0,0,0,0,0,0,0,0,0,0,0,0,0,0,0,0,0,0,0,0,0,0,0,0,0,0,0,0,0,0,0,0],"split_type":[0,1,1,0,0,0,0,0,0,0,0,0,0,0,0,0,0,0,0,0,0,0,0,0,0,0,0,0,0,0,1,0,0,0,0,0,0,0,0,0,0,0,0,0,0,0,0,0,0,0,0,1,0,0,0,0,0,0,0,0,0,0,0,0,0,0,0,0,0,0,0,0,0,0,0,0,0,0,0,0,0,0,0,0,0,0,0,0,0,0,0,0,0,0,0,0,0,0,0,0,0,0,0,0,0,0,0,0,0,0,0,0,0,0,0],"sum_hessian":[1.1244E4,7.435E3,3.809E3,3.181E3,4.254E3,2.441E3,1.368E3,6.35E2,2.546E3,8.37E2,3.417E3,2.194E3,2.47E2,7.16E2,6.52E2,1.91E2,4.44E2,3.2E1,2.514E3,2E0,8.35E2,4.6E1,3.371E3,1.36E3,8.34E2,1.8E2,6.7E1,6.76E2,4E1,4E0,6.48E2,1.67E2,2.4E1,2.92E2,1.52E2,1.8E1,1.4E1,1.958E3,5.56E2,1E0,1E0,8.05E2,3E1,4.2E1,4E0,1.452E3,1.919E3,1.275E3,8.5E1,2E1,8.14E2,5.6E1,1.24E2,4.8E1,1.9E1,5.71E2,1.05E2,2.5E1,1.5E1,3.54E2,2.94E2,5.6E1,1.11E2,1E1,1.4E1,2.74E2,1.8E1,3.1E1,1.21E2,1.3E1,5E0,9E0,5E0,7.5E1,1.883E3,2.2E1,5.34E2,1E2,7.05E2,1.9E1,1.1E1,3.7E1,5E0,2.77E2,1.175E3,1.911E3,8E0,1.1E3,1.75E2,2.1E1,6.4E1,1.2E1,8E0,6.83E2,1.31E2,2.8E1,2.8E1,7.5E1,4.9E1,5E0,4.3E1,1E0,1.8E1,4.4E2,1.31E2,2E0,1.03E2,1.3E1,1.2E1,8E0,7E0,3.43E2,1.1E1,1.26E2,1.68E2],"tree_param":{"num_deleted":"0","num_feature":"8","num_nodes":"115","size_leaf_vector":"1"}},{"base_weights":[1.11399265E-2,-2.3589869E-1,1.5942627E0,3.780932E-2,-1.0909187E0,-1.0647546E1,1.6906844E0,2.4543431E-1,-8.857125E-1,-2.5571743E-1,-1.5049146E0,-3.323667E0,-4.1682086E0,3.050014E0,7.552045E-1,1.9840759E-1,8.516304E0,-1.4394811E-1,-2.544578E0,-1.7660476E0,6.8603224E-1,-1.6345778E0,8.487161E-1,-1.126513E0,-2.3972455E-1,1.632644E0,6.40535E0,2.7200902E-1,4.81627E0,1.0313987E0,-1.6382734E-1,2.150265E0,7.7882485E0,8.4337926E-1,-1.4575706E0,-3.2548435E0,2.9981952E0,-2.8105268E0,1.1055074E0,2.4995234E0,-1.0858471E0,-1.2731138E0,-2.7341313E0,-1.0741463E0,4.466258E0,2.649627E0,-1.1194225E1,7.5910044E0,-3.5779972E0,-9.082505E0,4.0191746E-1,7.458706E0,-1.4547473E0,2.2678353E-1,1.2381012E0,-1.2521882E-1,5.3211415E-1,1.7763809E0,-4.5149183E-1,-3.9237747E-1,7.95515E-1,-4.8499316E-1,2.7932131E0,-1.1639408E0,9.161138E-1,-2.0606365E0,1.5429935E0,-9.596148E-1,1.0939661E0,-2.4854648E-1,1.2754743E0,-4.0136094E0,8.069902E-1,-4.16745E0,-2.7698526E-1,-1.7620671E-1,-6.1087584E-1,-5.891431E-1,-1.4805685E0,9.576705E-2,-1.119305E0,6.775211E-1,2.3621404E0,1.3130705E0,-2.2103865E-2,-4.9130363E0,-1.0083485E0,1.8289438E0,4.2040544E0,-5.198155E-2,-2.3160229E0,-8.4954244E-1,-3.3217626E0,4.9953428E-1,-1.6685945E-1,2.038921E-3,2.6297817E0,3.2692903E-1,-2.1690903E0],"categories":[0,9],"categories_nodes":[1],"categories_segments":[0],"categories_sizes":[2],"default_left":[0,1,0,0,0,0,0,0,0,0,0,0,0,0,0,0,0,0,0,0,0,0,0,0,0,0,0,0,0,0,0,0,0,0,0,0,0,0,0,0,0,0,0,0,0,0,0,0,0,0,0,0,0,0,0,0,0,0,0,0,0,0,0,0,0,0,0,0,0,0,0,0,0,0,0,0,0,0,0,0,0,0,0,0,0,0,0,0,0,0,0,0,0,0,0,0,0,0,0],"id":9,"left_children":[1,3,5,7,9,11,13,15,17,19,21,23,-1,25,27,29,31,33,35,37,39,41,43,-1,-1,45,47,49,51,53,55,57,-1,59,61,63,65,67,69,71,73,75,77,79,81,83,85,87,89,91,93,95,97,-1,-1,-1,-1,-1,-1,-1,-1,-1,-1,-1,-1,-1,-1,-1,-1,-1,-1,-1,-1,-1,-1,-1,-1,-1,-1,-1,-1,-1,-1,-1,-1,-1,-1,-1,-1,-1,-1,-1,-1,-1,-1,-1,-1,-1,-1],"loss_changes":[4.398211E3,2.276644E3,1.8098118E3,1.4133871E3,8.152864E2,2.3914282E2,1.9140361E3,2.3390234E3,1.6644833E3,1.1149138E3,4.8265503E2,2.444645E0,0E0,2.9095747E3,1.7529757E3,1.8060737E3,3.7199634E3,1.2151982E3,1.6553582E3,9.058903E2,1.554732E3,5.9070557E2,5.8214825E2,0E0,0E0,5.6780195E3,2.1814575E3,9.7583453E2,1.5850728E3,1.5436697E3,2.0504434E3,3.672932E2,0E0,2.0847698E3,7.036565E2,1.4745476E3,1.051288E3,5.656156E2,4.9636618E2,7.58702E2,4.9719675E2,5.885952E2,6.159668E2,2.0480115E2,2.0039514E2,1.8912893E3,1.2440056E3,1.4791387E3,2.8071518E2,1.05474915E2,9.5705396E2,6.5261304E2,4.340621E2,0E0,0E0,0E0,0E0,0E0,0E0,0E0,0E0,0E0,0E0,0E0,0E0,0E0,0E0,0E0,0E0,0E0,0E0,0E0,0E0,0E0,0E0,0E0,0E0,0E0,0E0,0E0,0E0,0E0,0E0,0E0,0E0,0E0,0E0,0E0,0E0,0E0,0E0,0E0,0E0,0E0,0E0,0E0,0E0,0E0,0E0],"parents":[2147483647,0,0,1,1,2,2,3,3,4,4,5,5,6,6,7,7,8,8,9,9,10,10,11,11,13,13,14,14,15,15,16,16,17,17,18,18,19,19,20,20,21,21,22,22,25,25,26,26,27,27,28,28,29,29,30,30,31,31,33,33,34,34,35,35,36,36,37,37,38,38,39,39,40,40,41,41,42,42,43,43,44,44,45,45,46,46,47,47,48,48,49,49,50,50,51,51,52,52],"right_children":[2,4,6,8,10,12,14,16,18,20,22,24,-1,26,28,30,32,34,36,38,40,42,44,-1,-1,46,48,50,52,54,56,58,-1,60,62,64,66,68,70,72,74,76,78,80,82,84,86,88,90,92,94,96,98,-1,-1,-1,-1,-1,-1,-1,-1,-1,-1,-1,-1,-1,-1,-1,-1,-1,-1,-1,-1,-1,-1,-1,-1,-1,-1,-1,-1,-1,-1,-1,-1,-1,-1,-1,-1,-1,-1,-1,-1,-1,-1,-1,-1,-1,-1],"split_conditions":[6.7E1,NaN,6.9550843E0,2.56233E1,1.6731726E2,7E1,1.4417988E1,2.5563803E1,3.8999999E0,7.279036E1,2.2087584E1,6.7E1,-4.1682086E0,6.9396663E0,9.7E1,7.7105007E0,2.5282071E2,2.5927118E2,1.7733418E1,4E-1,1.4637584E1,2.6999998E0,1.1000001E0,-1.126513E0,-2.3972455E-1,6.495917E0,1.6768833E1,1.7050192E1,5E-1,6.9396663E0,4.8E0,9.727166E0,7.7882485E0,2.2319885E2,2.4925081E1,4.025727E1,4.1E1,2.2362585E1,4.3025085E1,6.3639607E0,1.4925082E1,2.6467526E2,4.7E1,1.7782688E1,2.3795427E1,7.8E1,6.6480007E0,2.6532016E2,6.1E1,7.3E1,1.3057175E2,-5.3665843E0,9.4E1,2.2678353E-1,1.2381012E0,-1.2521882E-1,5.3211415E-1,1.7763809E0,-4.5149183E-1,-3.9237747E-1,7.95515E-1,-4.8499316E-1,2.7932131E0,-1.1639408E0,9.161138E-1,-2.0606365E0,1.5429935E0,-9.596148E-1,1.0939661E0,-2.4854648E-1,1.2754743E0,-4.0136094E0,8.069902E-1,-4.16745E0,-2.7698526E-1,-1.7620671E-1,-6.1087584E-1,-5.891431E-1,-1.4805685E0,9.576705E-2,-1.119305E0,6.775211E-1,2.3621404E0,1.3130705E0,-2.2103865E-2,-4.9130363E0,-1.0083485E0,1.8289438E0,4.2040544E0,-5.198155E-2,-2.3160229E0,-8.4954244E-1,-3.3217626E0,4.9953428E-1,-1.6685945E-1,2.038921E-3,2.6297817E0,3.2692903E-1,-2.1690903E0],"split_indices":[1,0,6,6,7,1,6,6,5,7,4,2,0,4,3,4,7,7,4,5,4,5,5,0,0,4,4,7,5,4,5,4,0,7,4,6,1,4,7,6,4,7,2,6,6,2,4,7,3,1,7,4,2,0,0,0,0,0,0,0,0,0,0,0,0,0,0,0,0,0,0,0,0,0,0,0,0,0,0,0,0,0,0,0,0,0,0,0,0,0,0,0,0,0,0,0,0,0,0],"split_type":[0,1,0,0,0,0,0,0,0,0,0,0,0,0,0,0,0,0,0,0,0,0,0,0,0,0,0,0,0,0,0,0,0,0,0,0,0,0,0,0,0,0,0,0,0,0,0,0,0,0,0,0,0,0,0,0,0,0,0,0,0,0,0,0,0,0,0,0,0,0,0,0,0,0,0,0,0,0,0,0,0,0,0,0,0,0,0,0,0,0,0,0,0,0,0,0,0,0,0],"sum_hessian":[1.1244E4,9.727E3,1.517E3,7.369E3,2.358E3,1.1E1,1.506E3,6.017E3,1.352E3,7.82E2,1.576E3,4E0,7E0,6.13E2,8.93E2,5.984E3,3.3E1,9.35E2,4.17E2,3E2,4.82E2,1.494E3,8.2E1,3E0,1E0,4.32E2,1.81E2,7.99E2,9.4E1,1.813E3,4.171E3,2.5E1,8E0,5.34E2,4.01E2,3.7E2,4.7E1,2.2E2,8E1,2.38E2,2.44E2,1.126E3,3.68E2,5.4E1,2.8E1,4.01E2,3.1E1,1.62E2,1.9E1,1E1,7.89E2,6.6E1,2.8E1,1.666E3,1.47E2,3.689E3,4.82E2,1.2E1,1.3E1,2.44E2,2.9E2,3.96E2,5E0,3.37E2,3.3E1,8E0,3.9E1,2.08E2,1.2E1,5E1,3E1,2E0,2.36E2,2E0,2.42E2,5.94E2,5.32E2,2.74E2,9.4E1,3.6E1,1.8E1,1.8E1,1E1,2.45E2,1.56E2,1.8E1,1.3E1,1.33E2,2.9E1,1.1E1,8E0,3E0,7E0,3.4E2,4.49E2,1E1,5.6E1,2E1,8E0],"tree_param":{"num_deleted":"0","num_feature":"8","num_nodes":"99","size_leaf_vector":"1"}},{"base_weights":[7.4462495E-3,6.3762397E-1,-3.464063E-1,-9.009568E0,7.119701E-1,3.2856965E-1,-8.028024E-1,-1.1042545E1,-1.784441E0,1.0146221E-1,1.7296863E0,2.1467347E0,4.5051053E-2,-1.0481614E-1,-1.1115775E0,-5.433189E0,-1.2232735E1,6.5510845E-1,-3.3791924E0,-4.7690424E-1,2.3538496E0,-9.7230956E-2,2.7699304E0,3.0210185E0,-1.1445272E0,-7.846354E0,1.24232136E-1,3.5935444E-1,-2.3512666E0,-1.235891E0,2.2694464E0,-1.4619084E-1,-1.8974717E0,-1.3839586E1,-8.293366E0,2.8670505E-1,-3.6992457E-2,-1.3507222E0,1.6704999E-1,-1.2465738E0,7.0405525E-1,5.144079E0,6.799497E-2,8.062436E0,-5.364107E-1,6.089618E0,1.7261841E0,4.355233E0,-5.619634E-1,2.356837E0,-4.9674144E0,4.717868E0,-1.04642E1,-2.69029E0,2.8412262E-1,1.9661584E0,-2.8136355E-1,-4.0861306E0,7.4515516E-1,-1.163696E0,-6.740033E0,-8.160677E-1,3.6754467E0,-1.03652E0,-4.340861E0,-1.0925932E0,-3.1067414E0,9.456023E-1,-5.160909E-1,-7.6958865E-1,4.1124204E-1,-1.1260678E0,1.7605323E0,8.8017446E-1,-5.733778E-1,2.5614839E0,9.218422E-1,-9.0040743E-1,4.2866912E-1,8.851591E0,1.5325452E0,-9.2181295E-1,6.645112E-1,4.2752975E-1,1.5538682E0,8.1720066E-1,-6.4158076E-1,-6.490725E-1,1.1787611E0,-2.0704181E0,7.3826694E-1,1.5710238E0,3.9635354E-1,-3.4201534E0,-1.5563706E0,-2.2076595E0,-4.3303922E-1,2.2328033E-1,-1.5769036E-1,2.3506725E-1,1.3286947E0,-1.2716033E0,4.8743777E-2,-2.5384855E0,-7.6901585E-1,1.1342304E0,-1.3112632E0,-6.3130736E-1,-2.1363631E-1,-1.3975908E0,-2.4828868E0,7.3131335E-1,-1.6915337E0,4.8948944E-1,2.1291218E0],"categories":[0,3,4,6,8,9,0,2,3,4,5,6,8,9,4,5,8,3,0,3,4,5,6,8,9,0,0,1,3,4,6,8,9,0,3,9],"categories_nodes":[2,7,8,17,33,43,51,60],"categories_segments":[0,6,14,17,18,25,26,33],"categories_sizes":[6,8,3,1,7,1,7,3],"default_left":[0,0,1,0,0,0,0,1,1,0,0,0,0,0,0,0,0,1,0,0,0,0,0,0,0,0,0,0,0,0,0,0,0,1,0,0,0,0,0,0,0,0,0,1,0,0,0,0,0,0,0,1,0,0,0,0,0,0,0,0,1,0,0,0,0,0,0,0,0,0,0,0,0,0,0,0,0,0,0,0,0,0,0,0,0,0,0,0,0,0,0,0,0,0,0,0,0,0,0,0,0,0,0,0,0,0,0,0,0,0,0,0,0,0,0],"id":10,"left_children":[1,3,5,7,9,11,13,15,17,19,21,23,25,27,29,31,33,35,37,39,41,43,45,47,49,51,53,55,57,59,61,-1,-1,63,65,-1,-1,-1,-1,67,69,71,73,75,77,79,81,83,85,87,89,91,93,95,97,99,101,103,105,107,109,111,113,-1,-1,-1,-1,-1,-1,-1,-1,-1,-1,-1,-1,-1,-1,-1,-1,-1,-1,-1,-1,-1,-1,-1,-1,-1,-1,-1,-1,-1,-1,-1,-1,-1,-1,-1,-1,-1,-1,-1,-1,-1,-1,-1,-1,-1,-1,-1,-1,-1,-1,-1,-1],"loss_changes":[2.5077437E3,2.9068982E3,2.2188857E3,4.356394E2,2.493818E3,1.4978987E3,9.259763E2,9.376587E1,3.3337532E1,3.2709128E3,2.8604312E3,1.1314363E3,1.5724725E3,1.376214E3,1.2548989E3,2.3379822E1,5.49292E0,1.0537336E0,2.4612099E1,1.8169568E3,3.271595E3,1.9645323E3,3.3123384E3,1.4843921E3,1.1226891E3,8.716487E2,1.1217523E3,1.1268352E3,1.2170876E3,1.1342007E3,4.628523E2,0E0,0E0,2.8507568E1,3.902997E1,0E0,0E0,0E0,0E0,2.5267437E3,1.7234137E3,1.5108477E3,1.6108921E3,4.0243286E1,2.5233662E3,5.1103057E3,1.7216992E3,5.384966E2,4.46192E2,3.2124194E2,5.9163086E2,1.8936615E0,4.460034E1,7.693784E2,8.789956E2,9.0524146E2,1.3759698E3,9.444087E2,1.2900094E3,1.2040251E3,7.975354E1,5.472371E2,4.9892163E2,0E0,0E0,0E0,0E0,0E0,0E0,0E0,0E0,0E0,0E0,0E0,0E0,0E0,0E0,0E0,0E0,0E0,0E0,0E0,0E0,0E0,0E0,0E0,0E0,0E0,0E0,0E0,0E0,0E0,0E0,0E0,0E0,0E0,0E0,0E0,0E0,0E0,0E0,0E0,0E0,0E0,0E0,0E0,0E0,0E0,0E0,0E0,0E0,0E0,0E0,0E0,0E0],"parents":[2147483647,0,0,1,1,2,2,3,3,4,4,5,5,6,6,7,7,8,8,9,9,10,10,11,11,12,12,13,13,14,14,15,15,16,16,17,17,18,18,19,19,20,20,21,21,22,22,23,23,24,24,25,25,26,26,27,27,28,28,29,29,30,30,33,33,34,34,39,39,40,40,41,41,42,42,43,43,44,44,45,45,46,46,47,47,48,48,49,49,50,50,51,51,52,52,53,53,54,54,55,55,56,56,57,57,58,58,59,59,60,60,61,61,62,62],"right_children":[2,4,6,8,10,12,14,16,18,20,22,24,26,28,30,32,34,36,38,40,42,44,46,48,50,52,54,56,58,60,62,-1,-1,64,66,-1,-1,-1,-1,68,70,72,74,76,78,80,82,84,86,88,90,92,94,96,98,100,102,104,106,108,110,112,114,-1,-1,-1,-1,-1,-1,-1,-1,-1,-1,-1,-1,-1,-1,-1,-1,-1,-1,-1,-1,-1,-1,-1,-1,-1,-1,-1,-1,-1,-1,-1,-1,-1,-1,-1,-1,-1,-1,-1,-1,-1,-1,-1,-1,-1,-1,-1,-1,-1,-1,-1,-1],"split_conditions":[1.637237E2,6.9550843E0,NaN,5.9E1,1E-1,1.2620554E1,1E-1,NaN,NaN,6.2E1,5.98908E1,3.0616385E2,1.2750811E1,3.0720966E2,2.2087584E1,5.3E1,4.9E1,NaN,6.5E1,1.1032982E2,4.0229993E0,1.0650465E1,4E-1,1E-1,1.0538843E1,2.7E1,1.8351184E2,1.2483748E1,4.6E1,9.7E1,1.1000001E0,-1.4619084E-1,-1.8974717E0,NaN,7E1,2.8670505E-1,-3.6992457E-2,-1.3507222E0,1.6704999E-1,2.250833E-1,2.0417502E0,1.2141157E1,1.4417988E1,NaN,7.0980015E0,2.5E1,6E-1,4E1,3.7E1,3.1704535E2,4E-1,NaN,3E-1,1.5517629E1,2.7047247E2,1.1212135E1,1.8351184E2,9.727166E0,1.4925082E1,2.3021768E2,NaN,1.7339897E1,2.3795427E1,-1.03652E0,-4.340861E0,-1.0925932E0,-3.1067414E0,9.456023E-1,-5.160909E-1,-7.6958865E-1,4.1124204E-1,-1.1260678E0,1.7605323E0,8.8017446E-1,-5.733778E-1,2.5614839E0,9.218422E-1,-9.0040743E-1,4.2866912E-1,8.851591E0,1.5325452E0,-9.2181295E-1,6.645112E-1,4.2752975E-1,1.5538682E0,8.1720066E-1,-6.4158076E-1,-6.490725E-1,1.1787611E0,-2.0704181E0,7.3826694E-1,1.5710238E0,3.9635354E-1,-3.4201534E0,-1.5563706E0,-2.2076595E0,-4.3303922E-1,2.2328033E-1,-1.5769036E-1,2.3506725E-1,1.3286947E0,-1.2716033E0,4.8743777E-2,-2.5384855E0,-7.6901585E-1,1.1342304E0,-1.3112632E0,-6.3130736E-1,-2.1363631E-1,-1.3975908E0,-2.4828868E0,7.3131335E-1,-1.6915337E0,4.8948944E-1,2.1291218E0],"split_indices":[7,6,0,3,5,6,5,0,0,3,7,7,6,7,4,1,3,0,3,7,4,6,5,5,6,2,7,6,3,2,5,0,0,0,1,0,0,0,0,4,4,7,6,0,4,1,5,1,3,7,5,0,5,6,7,6,7,4,4,7,0,6,6,0,0,0,0,0,0,0,0,0,0,0,0,0,0,0,0,0,0,0,0,0,0,0,0,0,0,0,0,0,0,0,0,0,0,0,0,0,0,0,0,0,0,0,0,0,0,0,0,0,0,0,0],"split_type":[0,0,1,0,0,0,0,1,1,0,0,0,0,0,0,0,0,1,0,0,0,0,0,0,0,0,0,0,0,0,0,0,0,1,0,0,0,0,0,0,0,0,0,1,0,0,0,0,0,0,0,1,0,0,0,0,0,0,0,0,1,0,0,0,0,0,0,0,0,0,0,0,0,0,0,0,0,0,0,0,0,0,0,0,0,0,0,0,0,0,0,0,0,0,0,0,0,0,0,0,0,0,0,0,0,0,0,0,0,0,0,0,0,0,0],"sum_hessian":[1.1244E4,4.043E3,7.201E3,3E1,4.013E3,2.905E3,4.296E3,2.3E1,7E0,2.509E3,1.504E3,3.91E2,2.514E3,1.318E3,2.978E3,5E0,1.8E1,3E0,4E0,1.997E3,5.12E2,5.46E2,9.58E2,3.09E2,8.2E1,2.4E1,2.49E3,1.093E3,2.25E2,2.873E3,1.05E2,1E0,4E0,1.1E1,7E0,2E0,1E0,3E0,1E0,1.209E3,7.88E2,2.3E2,2.82E2,2.7E1,5.19E2,2.28E2,7.3E2,2.25E2,8.4E1,4.3E1,3.9E1,4E0,2E1,1.33E2,2.357E3,3.11E2,7.82E2,1.44E2,8.1E1,2.837E3,3.6E1,3.3E1,7.2E1,1E0,1E1,3E0,4E0,1.17E2,1.092E3,1.33E2,6.55E2,1.7E1,2.13E2,1.15E2,1.67E2,2.4E1,3E0,2.3E2,2.89E2,8E0,2.2E2,6.7E1,6.63E2,5E1,1.75E2,2.7E1,5.7E1,1.1E1,3.2E1,3.1E1,8E0,3E0,1E0,1.6E1,4E0,2.7E1,1.06E2,1.503E3,8.54E2,2.11E2,1E2,7.8E1,7.04E2,3.6E1,1.08E2,5.1E1,3E1,9.19E2,1.918E3,1.7E1,1.9E1,2E1,1.3E1,4.6E1,2.6E1],"tree_param":{"num_deleted":"0","num_feature":"8","num_nodes":"115","size_leaf_vector":"1"}},{"base_weights":[4.4254432E-3,4.9791858E-1,-3.0142295E-1,2.696975E-1,1.8531904E0,3.5225686E-1,-5.5897605E-1,2.4846234E0,1.7759353E-1,-5.7008557E0,2.0116599E0,2.3547642E-1,8.717126E0,-2.8713439E0,-4.9347484E-1,4.628956E0,-1.5219252E0,9.374405E-1,-4.7642283E-2,-8.200373E0,-6.1553955E-2,2.7389479E0,3.0763602E-1,3.1552598E-1,-5.8993335E0,4.880672E0,7.3864164E0,-5.971923E0,-1.9462104E0,-2.0591535E-1,-1.1199703E0,1.627951E0,9.166595E0,-3.979621E0,2.956158E0,1.2140225E0,-7.4222845E-1,-2.8358655E0,4.08573E-2,-4.8605957E0,-2.970023E0,2.3461153E-1,-8.846283E-1,2.9709837E0,-5.5138717E0,3.9009264E0,-4.8704136E-2,-2.6203907E-1,1.4252036E0,-4.1158146E-1,-6.233371E0,5.6846814E0,2.2308388E0,-6.431106E0,-6.8938434E-1,3.659374E0,-2.6928039E0,1.9985348E-1,-7.777853E-1,-1.8469863E0,3.4633237E-1,1.9020897E0,-8.1878856E-2,7.5053234E0,1.9697816E0,-1.9086896E0,-4.5246735E-1,-9.898969E-1,3.0821075E0,3.985331E-1,-1.3339919E0,1.4129698E-1,-1.0939187E0,-1.3054203E0,-1.4374651E-1,-1.5417923E-1,1.3424446E-1,-1.8437348E-1,-1.7305367E0,-4.9041368E-2,-3.4904137E-1,3.6092331E0,7.944234E-1,-4.8858002E-1,-2.738313E0,-9.361566E-1,2.487918E-1,-1.751824E-1,7.686755E-1,1.0549325E0,1.7274153E-1,-1.356857E0,-2.3064654E0,1.7882749E0,7.225849E-1,9.489329E-1,-1.9967653E-2,-1.2233152E0,-2.072798E0,1.3596969E0,-2.2836915E-1,-3.398009E0,-5.631914E-1,2.8133348E-2,2.3183255E0,5.7710606E-1,-3.1886843E-1,9.272108E-1,-6.428295E-1,-3.0284187E-1,7.487606E-1],"categories":[0,3,4,6,7,9,1,8,5,8,1,0,7,9,1,2,3,5,8,1,2,3,4,5,8,0],"categories_nodes":[0,20,39,42,50,51,52,55],"categories_segments":[0,6,8,10,11,14,19,25],"categories_sizes":[6,2,2,1,3,5,6,1],"default_left":[1,0,0,0,0,0,0,0,0,0,0,0,0,0,0,0,0,0,0,0,1,0,0,0,0,0,0,0,0,0,0,0,0,0,0,0,0,0,0,1,0,0,1,0,0,0,0,0,0,0,1,1,1,0,0,1,0,0,0,0,0,0,0,0,0,0,0,0,0,0,0,0,0,0,0,0,0,0,0,0,0,0,0,0,0,0,0,0,0,0,0,0,0,0,0,0,0,0,0,0,0,0,0,0,0,0,0,0,0,0,0],"id":11,"left_children":[1,3,5,7,9,11,13,15,17,19,21,23,25,27,29,31,33,35,37,39,41,43,45,47,49,51,-1,53,55,57,59,61,63,65,67,69,71,73,75,77,-1,-1,79,81,83,-1,85,87,89,-1,91,93,95,97,-1,99,101,103,105,107,109,-1,-1,-1,-1,-1,-1,-1,-1,-1,-1,-1,-1,-1,-1,-1,-1,-1,-1,-1,-1,-1,-1,-1,-1,-1,-1,-1,-1,-1,-1,-1,-1,-1,-1,-1,-1,-1,-1,-1,-1,-1,-1,-1,-1,-1,-1,-1,-1,-1,-1],"loss_changes":[1.6974038E3,1.3304248E3,1.1691014E3,7.511074E2,7.536614E2,1.9155103E3,7.5301965E2,1.2699766E3,6.055549E2,1.8273715E2,7.526616E2,9.531001E2,1.5272622E3,3.8135498E2,8.72619E2,1.292355E3,5.840642E2,3.767351E2,6.737614E2,2.9693604E0,4.16351E0,8.3215015E2,8.285069E2,1.2264363E3,2.9256226E1,3.6319702E1,0E0,3.751953E1,4.57659E2,7.710156E2,1.6252622E3,5.302294E2,1.4022246E3,1.9061456E2,9.03665E2,4.5605835E2,4.0690714E2,2.979359E2,5.973673E2,1.5728775E1,0E0,0E0,4.1307425E-1,1.1822068E3,1.536235E2,0E0,4.853664E2,1.1461105E3,1.161448E3,0E0,2.2463623E1,1.0267334E0,1.5203114E1,2.2125244E0,0E0,5.3616653E1,6.4762494E2,1.5516113E3,1.0641713E3,1.4948337E3,1.4771818E3,0E0,0E0,0E0,0E0,0E0,0E0,0E0,0E0,0E0,0E0,0E0,0E0,0E0,0E0,0E0,0E0,0E0,0E0,0E0,0E0,0E0,0E0,0E0,0E0,0E0,0E0,0E0,0E0,0E0,0E0,0E0,0E0,0E0,0E0,0E0,0E0,0E0,0E0,0E0,0E0,0E0,0E0,0E0,0E0,0E0,0E0,0E0,0E0,0E0,0E0],"parents":[2147483647,0,0,1,1,2,2,3,3,4,4,5,5,6,6,7,7,8,8,9,9,10,10,11,11,12,12,13,13,14,14,15,15,16,16,17,17,18,18,19,19,20,20,21,21,22,22,23,23,24,24,25,25,27,27,28,28,29,29,30,30,31,31,32,32,33,33,34,34,35,35,36,36,37,37,38,38,39,39,42,42,43,43,44,44,46,46,47,47,48,48,50,50,51,51,52,52,53,53,55,55,56,56,57,57,58,58,59,59,60,60],"right_children":[2,4,6,8,10,12,14,16,18,20,22,24,26,28,30,32,34,36,38,40,42,44,46,48,50,52,-1,54,56,58,60,62,64,66,68,70,72,74,76,78,-1,-1,80,82,84,-1,86,88,90,-1,92,94,96,98,-1,100,102,104,106,108,110,-1,-1,-1,-1,-1,-1,-1,-1,-1,-1,-1,-1,-1,-1,-1,-1,-1,-1,-1,-1,-1,-1,-1,-1,-1,-1,-1,-1,-1,-1,-1,-1,-1,-1,-1,-1,-1,-1,-1,-1,-1,-1,-1,-1,-1,-1,-1,-1,-1,-1],"split_conditions":[NaN,7E1,1.3057175E2,2.6E1,7.8087645E0,1.2972067E2,1.4144742E2,2.235481E1,1.4417988E1,8E1,2.2319885E2,1.2880429E2,5.4E1,1.1165805E1,1.7000002E0,1.757744E1,1.0260501E1,2.9957227E2,1.4764389E1,7.4E1,NaN,1.9895916E1,8.107996E0,9.361467E1,3.4E1,1.2700084E1,7.3864164E0,9E1,1.2483748E1,2.6394492E2,1.3820916E1,4.4174996E-1,3.0984241E1,2.5982424E1,3E-1,9.7E1,5.8E1,5E1,4.2E1,NaN,-2.970023E0,2.3461153E-1,NaN,4.7E1,1.1854878E2,3.9009264E0,2.4872026E2,3.2E0,7.0980015E0,-4.1158146E-1,NaN,NaN,NaN,1.3155771E2,-6.8938434E-1,NaN,1.257426E1,2.6288025E2,1.0538843E1,8.479999E-1,2.6351324E2,1.9020897E0,-8.1878856E-2,7.5053234E0,1.9697816E0,-1.9086896E0,-4.5246735E-1,-9.898969E-1,3.0821075E0,3.985331E-1,-1.3339919E0,1.4129698E-1,-1.0939187E0,-1.3054203E0,-1.4374651E-1,-1.5417923E-1,1.3424446E-1,-1.8437348E-1,-1.7305367E0,-4.9041368E-2,-3.4904137E-1,3.6092331E0,7.944234E-1,-4.8858002E-1,-2.738313E0,-9.361566E-1,2.487918E-1,-1.751824E-1,7.686755E-1,1.0549325E0,1.7274153E-1,-1.356857E0,-2.3064654E0,1.7882749E0,7.225849E-1,9.489329E-1,-1.9967653E-2,-1.2233152E0,-2.072798E0,1.3596969E0,-2.2836915E-1,-3.398009E0,-5.631914E-1,2.8133348E-2,2.3183255E0,5.7710606E-1,-3.1886843E-1,9.272108E-1,-6.428295E-1,-3.0284187E-1,7.487606E-1],"split_indices":[0,1,7,3,6,7,7,6,6,1,7,7,2,6,5,6,4,7,6,1,0,4,6,7,1,4,0,1,6,7,4,4,7,6,5,3,2,2,1,0,0,0,0,2,7,0,7,5,4,0,0,0,0,7,0,0,6,7,6,4,7,0,0,0,0,0,0,0,0,0,0,0,0,0,0,0,0,0,0,0,0,0,0,0,0,0,0,0,0,0,0,0,0,0,0,0,0,0,0,0,0,0,0,0,0,0,0,0,0,0,0],"split_type":[1,0,0,0,0,0,0,0,0,0,0,0,0,0,0,0,0,0,0,0,1,0,0,0,0,0,0,0,0,0,0,0,0,0,0,0,0,0,0,1,0,0,1,0,0,0,0,0,0,0,1,1,1,0,0,1,0,0,0,0,0,0,0,0,0,0,0,0,0,0,0,0,0,0,0,0,0,0,0,0,0,0,0,0,0,0,0,0,0,0,0,0,0,0,0,0,0,0,0,0,0,0,0,0,0,0,0,0,0,0,0],"sum_hessian":[1.1244E4,4.302E3,6.942E3,3.683E3,6.19E2,1.962E3,4.98E3,1.46E2,3.537E3,1.2E1,6.07E2,1.936E3,2.6E1,1.36E2,4.844E3,9.5E1,5.1E1,8.08E2,2.729E3,8E0,4E0,4.25E2,1.82E2,1.912E3,2.4E1,2.2E1,4E0,3E1,1.06E2,3.321E3,1.523E3,5.8E1,3.7E1,3.3E1,1.8E1,6.94E2,1.14E2,8.3E1,2.646E3,4E0,4E0,2E0,2E0,4.14E2,1.1E1,4E0,1.78E2,1.258E3,6.54E2,2E0,2.2E1,1.6E1,6E0,2.6E1,4E0,1.2E1,9.4E1,1.943E3,1.378E3,1.018E3,5.05E2,1.6E1,4.2E1,4E0,3.3E1,1.6E1,1.7E1,1E1,8E0,6.81E2,1.3E1,8.1E1,3.3E1,5E1,3.3E1,1.119E3,1.527E3,1E0,3E0,1E0,1E0,1.3E1,4.01E2,6E0,5E0,3.9E1,1.39E2,1.13E3,1.28E2,1.88E2,4.66E2,1.2E1,1E1,1.4E1,2E0,4E0,2E0,6E0,2E1,1E1,2E0,7E0,8.7E1,1.917E3,2.6E1,1.31E2,1.247E3,5.7E1,9.61E2,3.1E2,1.95E2],"tree_param":{"num_deleted":"0","num_feature":"8","num_nodes":"111","size_leaf_vector":"1"}},{"base_weights":[4.1742073E-3,2.2595713E-1,-4.3283182E-1,9.6443444E-2,1.091372E0,-2.698523E-2,-6.8249214E-1,3.943285E-1,-3.4512404E-1,1.7933127E0,1.6622305E-1,7.1363246E-1,-7.841616E-1,-7.664534E-1,3.437199E0,1.3097663E0,5.6395333E-2,-2.4945016E-1,-4.9652567E0,2.7621658E0,-5.561621E-1,-2.706406E-1,5.6568875E0,3.8032454E-1,5.052141E0,-1.2158046E0,1.8476495E0,-6.4092624E-1,-2.4625747E0,1.7064342E0,1.1661373E1,-2.647546E0,1.6228759E0,1.7269573E-1,-3.296098E0,3.8899097E-1,-7.452527E-1,-5.808968E0,1.2888504E0,2.5954459E0,7.0378423E0,-2.3112676E0,2.1674566E0,2.5611696E-1,-2.860422E0,7.747072E0,1.1522723E0,7.2647196E-1,-2.8456578E0,7.0346203E0,-2.9766104E0,-1.0673615E0,-1.00750265E1,3.112784E0,-3.4317842E0,-8.180292E-1,6.3233507E-1,-1.6456311E0,-1.1448051E1,4.7784467E0,5.231486E-1,4.1083446E0,1.1124101E0,-3.5842478E0,-5.080082E-1,1.2474078E0,3.5691863E-1,-2.7318782E-1,1.20145686E-1,5.747078E-1,-1.2218072E0,-3.4218135E-1,3.2029632E-1,-1.1359574E0,-1.5770753E-1,-4.8319373E-1,-2.0139976E0,5.9677756E-1,2.3076382E0,-5.188583E-1,-2.1947398E0,1.2846736E0,-2.1134827E-1,6.8578618E-3,3.2548208E0,-1.5739319E0,6.450263E-1,-2.2792207E-1,2.6047537E0,6.8749523E-1,-4.2436582E-1,-3.6961475E-1,3.0919957E-1,-1.4795684E0,5.5791044E-1,4.4372888E0,1.4323711E0,-1.5000345E0,2.5887647E0,-2.175903E-1,-1.2486969E0,-1.188398E0,-3.332486E0,3.3540574E-1,2.4543538E0,-2.2770667E0,1.1263953E0,-2.694828E-1,8.1453294E-1,8.823715E-2,1.5601908E0,1.7534636E0,-6.7181426E-1,-3.6965463E0,-1.3284642E0,1.1726342E-1,2.5108821E0,1.4145997E0,-9.094849E-2],"categories":[0,7,9,1,4],"categories_nodes":[0,46],"categories_segments":[0,3],"categories_sizes":[3,2],"default_left":[1,0,0,0,0,0,0,0,0,0,0,0,0,0,0,0,0,0,0,0,0,0,0,0,0,0,0,0,0,0,0,0,0,0,0,0,0,0,0,0,0,0,0,0,0,0,1,0,0,0,0,0,0,0,0,0,0,0,0,0,0,0,0,0,0,0,0,0,0,0,0,0,0,0,0,0,0,0,0,0,0,0,0,0,0,0,0,0,0,0,0,0,0,0,0,0,0,0,0,0,0,0,0,0,0,0,0,0,0,0,0,0,0,0,0,0,0,0,0],"id":12,"left_children":[1,3,5,7,9,11,13,15,17,19,21,23,25,27,29,31,33,35,37,39,41,43,45,47,49,51,53,55,57,59,61,63,65,67,69,71,73,75,-1,77,-1,79,81,83,85,87,89,91,93,95,97,99,101,103,105,107,109,111,113,115,117,-1,-1,-1,-1,-1,-1,-1,-1,-1,-1,-1,-1,-1,-1,-1,-1,-1,-1,-1,-1,-1,-1,-1,-1,-1,-1,-1,-1,-1,-1,-1,-1,-1,-1,-1,-1,-1,-1,-1,-1,-1,-1,-1,-1,-1,-1,-1,-1,-1,-1,-1,-1,-1,-1,-1,-1,-1,-1],"loss_changes":[1.0899686E3,8.3603455E2,3.8359344E2,8.538071E2,6.302689E2,8.097626E2,8.1341113E2,1.1989929E3,1.1546594E3,1.2580515E3,1.00897314E3,1.0537017E3,8.133521E2,4.8768713E2,6.491038E2,1.2991277E3,1.1047555E3,8.115838E2,4.3909668E2,1.2883186E3,7.7940814E2,5.327654E2,2.829532E2,7.60283E2,8.4861475E2,7.967113E2,6.852808E2,4.8330927E2,1.14098E3,1.4290286E2,7.858032E1,6.6305695E2,1.0591052E3,6.7602026E2,3.923086E2,1.1649059E3,9.6156494E2,1.7522961E2,0E0,1.186531E3,0E0,2.7556927E2,3.9172516E2,8.0281476E2,8.0032104E2,1.737063E2,3.5412098E1,3.670718E2,6.570604E2,6.656277E2,3.0147586E2,6.3747296E2,1.916687E1,8.1989435E2,6.2618555E2,5.3546204E2,4.0327368E2,6.624223E2,2.517456E1,1.7004964E2,1.0535082E2,0E0,0E0,0E0,0E0,0E0,0E0,0E0,0E0,0E0,0E0,0E0,0E0,0E0,0E0,0E0,0E0,0E0,0E0,0E0,0E0,0E0,0E0,0E0,0E0,0E0,0E0,0E0,0E0,0E0,0E0,0E0,0E0,0E0,0E0,0E0,0E0,0E0,0E0,0E0,0E0,0E0,0E0,0E0,0E0,0E0,0E0,0E0,0E0,0E0,0E0,0E0,0E0,0E0,0E0,0E0,0E0,0E0,0E0],"parents":[2147483647,0,0,1,1,2,2,3,3,4,4,5,5,6,6,7,7,8,8,9,9,10,10,11,11,12,12,13,13,14,14,15,15,16,16,17,17,18,18,19,19,20,20,21,21,22,22,23,23,24,24,25,25,26,26,27,27,28,28,29,29,30,30,31,31,32,32,33,33,34,34,35,35,36,36,37,37,39,39,41,41,42,42,43,43,44,44,45,45,46,46,47,47,48,48,49,49,50,50,51,51,52,52,53,53,54,54,55,55,56,56,57,57,58,58,59,59,60,60],"right_children":[2,4,6,8,10,12,14,16,18,20,22,24,26,28,30,32,34,36,38,40,42,44,46,48,50,52,54,56,58,60,62,64,66,68,70,72,74,76,-1,78,-1,80,82,84,86,88,90,92,94,96,98,100,102,104,106,108,110,112,114,116,118,-1,-1,-1,-1,-1,-1,-1,-1,-1,-1,-1,-1,-1,-1,-1,-1,-1,-1,-1,-1,-1,-1,-1,-1,-1,-1,-1,-1,-1,-1,-1,-1,-1,-1,-1,-1,-1,-1,-1,-1,-1,-1,-1,-1,-1,-1,-1,-1,-1,-1,-1,-1,-1,-1,-1,-1,-1,-1],"split_conditions":[NaN,7E1,8.173E0,4.7E1,7.9E1,4.6E1,7.6E1,7.393833E0,3.3847656E1,1.9734436E1,1.27E2,5.9E1,6.827167E0,6E1,2.5766684E2,3.312627E1,3.276198E1,1.6919998E1,4.025727E1,1.9453327E1,6.2E1,2.6694403E2,1.24E2,2.9361365E2,2.571523E2,8.5E0,7.5E1,2.2087584E1,1.9352167E1,7.279036E1,1.3366749E1,4.2326455E0,1.0773061E2,3E1,2.1928937E2,4.6E1,1.749615E1,4.2E1,1.2888504E0,7.6E1,7.0378423E0,7.1000004E0,7.2E1,2.6394492E2,2.9806854E2,8.3E1,NaN,4.3025085E1,1E0,3.2E1,6E1,6.020916E0,2.9E1,6.3E1,2.9806854E2,6.2E1,5.2E0,2.5E1,7.6E1,7.9E1,5E1,4.1083446E0,1.1124101E0,-3.5842478E0,-5.080082E-1,1.2474078E0,3.5691863E-1,-2.7318782E-1,1.20145686E-1,5.747078E-1,-1.2218072E0,-3.4218135E-1,3.2029632E-1,-1.1359574E0,-1.5770753E-1,-4.8319373E-1,-2.0139976E0,5.9677756E-1,2.3076382E0,-5.188583E-1,-2.1947398E0,1.2846736E0,-2.1134827E-1,6.8578618E-3,3.2548208E0,-1.5739319E0,6.450263E-1,-2.2792207E-1,2.6047537E0,6.8749523E-1,-4.2436582E-1,-3.6961475E-1,3.0919957E-1,-1.4795684E0,5.5791044E-1,4.4372888E0,1.4323711E0,-1.5000345E0,2.5887647E0,-2.175903E-1,-1.2486969E0,-1.188398E0,-3.332486E0,3.3540574E-1,2.4543538E0,-2.2770667E0,1.1263953E0,-2.694828E-1,8.1453294E-1,8.823715E-2,1.5601908E0,1.7534636E0,-6.7181426E-1,-3.6965463E0,-1.3284642E0,1.1726342E-1,2.5108821E0,1.4145997E0,-9.094849E-2],"split_indices":[0,1,4,2,2,2,1,4,6,6,1,3,4,3,7,7,6,6,6,6,3,7,2,7,7,5,1,4,4,7,4,7,7,1,7,3,6,3,0,2,0,5,2,7,7,2,0,7,5,2,1,4,1,1,7,1,5,1,2,2,2,0,0,0,0,0,0,0,0,0,0,0,0,0,0,0,0,0,0,0,0,0,0,0,0,0,0,0,0,0,0,0,0,0,0,0,0,0,0,0,0,0,0,0,0,0,0,0,0,0,0,0,0,0,0,0,0,0,0],"split_type":[1,0,0,0,0,0,0,0,0,0,0,0,0,0,0,0,0,0,0,0,0,0,0,0,0,0,0,0,0,0,0,0,0,0,0,0,0,0,0,0,0,0,0,0,0,0,1,0,0,0,0,0,0,0,0,0,0,0,0,0,0,0,0,0,0,0,0,0,0,0,0,0,0,0,0,0,0,0,0,0,0,0,0,0,0,0,0,0,0,0,0,0,0,0,0,0,0,0,0,0,0,0,0,0,0,0,0,0,0,0,0,0,0,0,0,0,0,0,0],"sum_hessian":[1.1244E4,7.459E3,3.785E3,6.489E3,9.7E2,1.442E3,2.343E3,3.875E3,2.614E3,5.51E2,4.19E2,7.29E2,7.13E2,2.297E3,4.6E1,1.044E3,2.831E3,2.562E3,5.2E1,3.9E2,1.61E2,3.89E2,3E1,6.78E2,5.1E1,6.13E2,1E2,2.14E3,1.57E2,3.9E1,7E0,7.6E1,9.68E2,2.737E3,9.4E1,1.12E3,1.442E3,4.8E1,4E0,3.88E2,2E0,9.8E1,6.3E1,3.24E2,6.5E1,2E1,1E1,6.13E2,6.5E1,4.1E1,1E1,6.04E2,9E0,8.1E1,1.9E1,1.879E3,2.61E2,1.45E2,1.2E1,1E1,2.9E1,5E0,2E0,6E0,7E1,1.4E2,8.28E2,4.75E2,2.262E3,1.2E1,8.2E1,3.44E2,7.76E2,9.6E1,1.346E3,9E0,3.9E1,3.48E2,4E1,8.9E1,9E0,3.6E1,2.7E1,3.18E2,6E0,4.4E1,2.1E1,2E0,1.8E1,7E0,3E0,8.2E1,5.31E2,4.5E1,2E1,8E0,3.3E1,9E0,1E0,5.45E2,5.9E1,2E0,7E0,5.9E1,2.2E1,1.2E1,7E0,1.838E3,4.1E1,2.44E2,1.7E1,1E1,1.35E2,1E1,2E0,5E0,5E0,4E0,2.5E1],"tree_param":{"num_deleted":"0","num_feature":"8","num_nodes":"119","size_leaf_vector":"1"}},{"base_weights":[4.390607E-3,1.023108E-1,-6.6189104E-1,3.375361E-1,-2.3499347E-1,-4.1922975E0,-5.3460497E-1,2.4430166E-1,3.0194106E0,-2.7856004E-1,3.8100038E0,-7.921688E0,-2.5219321E0,3.609993E0,-5.915284E-1,5.3800064E-1,-4.338911E-1,7.092412E0,1.8883889E0,-1.9806376E-1,-6.0297112E0,-2.9075513E0,7.512535E0,-3.5541034E0,-4.774326E0,-1.017823E0,-6.921168E0,-5.1950026E0,6.304325E0,-2.4441824E0,-4.4575825E-1,4.0140197E-1,4.370982E0,-2.5611284E-1,-7.228986E0,3.5797948E-1,5.1506534E0,-2.446056E-1,7.08714E0,-3.2703922E0,-3.3651154E0,1.747992E-1,-5.324357E0,1.8606526E0,2.8769164E0,-4.3242076E-1,-2.0268123E0,-5.2509913E0,3.000989E0,1.214098E0,-3.3573453E0,-1.8546146E0,-1.8702279E-1,4.197909E0,5.3691235E0,3.8950453E0,-3.1918194E0,9.491871E0,-4.8450127E-1,2.902148E-1,-1.12681E-1,-1.6356872E0,1.9366666E0,-2.4022938E-1,4.053084E-1,-2.4842577E0,-8.789156E-1,1.3637993E0,-1.0744929E0,-2.8493157E-1,3.0982702E0,1.09876946E-1,-1.8508717E-1,3.7947805E0,9.5035934E-1,-1.2283728E0,-4.512576E-1,8.0769736E-1,-3.33929E-1,-2.5239402E-1,-1.733872E0,-7.740997E-1,-2.5145445E0,1.433429E0,-9.2417425E-1,6.8291324E-1,-2.9591104E-1,1.9504356E0,4.9727097E-1,-2.5440994E-1,2.0179572E0,-6.748234E-1,-1.913333E0,7.887314E-1,3.165086E0,9.7142047E-1,-1.6579905E-1],"categories":[0,0,1,2,3,4,6,7,9,1,2,4,5,6,7,8],"categories_nodes":[0,41,42],"categories_segments":[0,1,9],"categories_sizes":[1,8,7],"default_left":[1,0,0,0,0,0,0,0,0,0,0,0,0,0,0,0,0,0,0,0,0,0,0,0,0,0,0,0,0,0,0,0,0,0,0,0,0,0,0,0,0,1,1,0,0,0,0,0,0,0,0,0,0,0,0,0,0,0,0,0,0,0,0,0,0,0,0,0,0,0,0,0,0,0,0,0,0,0,0,0,0,0,0,0,0,0,0,0,0,0,0,0,0,0,0,0,0],"id":13,"left_children":[1,3,5,7,9,11,13,15,17,19,21,23,25,27,29,31,33,-1,35,37,39,41,43,-1,45,47,49,51,53,55,57,59,61,63,65,67,69,71,73,-1,75,77,79,-1,-1,-1,-1,81,83,85,-1,-1,-1,87,-1,89,91,93,95,-1,-1,-1,-1,-1,-1,-1,-1,-1,-1,-1,-1,-1,-1,-1,-1,-1,-1,-1,-1,-1,-1,-1,-1,-1,-1,-1,-1,-1,-1,-1,-1,-1,-1,-1,-1,-1,-1],"loss_changes":[7.337188E2,7.7803253E2,6.453032E2,1.4437612E3,7.1107837E2,2.9149426E2,3.3054245E2,1.1124797E3,4.48019E3,1.8445725E3,1.0913372E3,1.2875464E2,2.3116501E2,4.8349908E2,3.699752E2,2.0386381E3,2.0372859E3,0E0,9.217871E2,1.3352832E3,6.772616E2,1.20121765E2,1.6734985E1,0E0,5.6310913E1,4.921028E2,3.2622412E2,1.8707916E1,2.911571E2,4.863764E2,4.9549146E2,1.6556575E3,2.7791594E3,1.4418783E3,1.7019775E2,2.111682E3,1.87311E3,8.8934955E2,5.0491663E2,0E0,4.4067352E1,2.8935297E1,1.3504349E1,0E0,0E0,0E0,0E0,9.543121E1,1.7683336E2,1.1595398E1,0E0,0E0,0E0,7.114833E1,0E0,1.5343346E2,2.5587616E2,8.580444E0,3.242913E2,0E0,0E0,0E0,0E0,0E0,0E0,0E0,0E0,0E0,0E0,0E0,0E0,0E0,0E0,0E0,0E0,0E0,0E0,0E0,0E0,0E0,0E0,0E0,0E0,0E0,0E0,0E0,0E0,0E0,0E0,0E0,0E0,0E0,0E0,0E0,0E0,0E0,0E0],"parents":[2147483647,0,0,1,1,2,2,3,3,4,4,5,5,6,6,7,7,8,8,9,9,10,10,11,11,12,12,13,13,14,14,15,15,16,16,18,18,19,19,20,20,21,21,22,22,24,24,25,25,26,26,27,27,28,28,29,29,30,30,31,31,32,32,33,33,34,34,35,35,36,36,37,37,38,38,40,40,41,41,42,42,47,47,48,48,49,49,53,53,55,55,56,56,57,57,58,58],"right_children":[2,4,6,8,10,12,14,16,18,20,22,24,26,28,30,32,34,-1,36,38,40,42,44,-1,46,48,50,52,54,56,58,60,62,64,66,68,70,72,74,-1,76,78,80,-1,-1,-1,-1,82,84,86,-1,-1,-1,88,-1,90,92,94,96,-1,-1,-1,-1,-1,-1,-1,-1,-1,-1,-1,-1,-1,-1,-1,-1,-1,-1,-1,-1,-1,-1,-1,-1,-1,-1,-1,-1,-1,-1,-1,-1,-1,-1,-1,-1,-1,-1],"split_conditions":[NaN,1.9734436E1,9.19939E0,1.935314E1,3.562656E2,1.03545296E2,1.5E1,1.5966748E1,3.0984241E1,3.384173E2,7E-1,7.8087645E0,2.6926617E2,1.4764389E1,4.3025085E1,1.5525082E1,1.913426E1,7.092412E0,1.6E0,3.2391156E2,1.1220917E1,3.7E1,3.9E1,-3.5541034E0,3.5E1,4.1E1,3.6E1,1.2106512E2,1.5525082E1,1.0538843E1,4.6172737E1,2.0973038E2,1.16106926E2,6E-1,2.1252167E1,1.0773061E2,1.9980772E2,4E-1,6E-1,-3.2703922E0,3.8E1,NaN,NaN,1.8606526E0,2.8769164E0,-4.3242076E-1,-2.0268123E0,3.9E1,8.909545E0,2.3E1,-3.3573453E0,-1.8546146E0,-1.8702279E-1,1.913426E1,5.3691235E0,2.250833E-1,4.8E1,2.8E1,-2.3895E0,2.902148E-1,-1.12681E-1,-1.6356872E0,1.9366666E0,-2.4022938E-1,4.053084E-1,-2.4842577E0,-8.789156E-1,1.3637993E0,-1.0744929E0,-2.8493157E-1,3.0982702E0,1.09876946E-1,-1.8508717E-1,3.7947805E0,9.5035934E-1,-1.2283728E0,-4.512576E-1,8.0769736E-1,-3.33929E-1,-2.5239402E-1,-1.733872E0,-7.740997E-1,-2.5145445E0,1.433429E0,-9.2417425E-1,6.8291324E-1,-2.9591104E-1,1.9504356E0,4.9727097E-1,-2.5440994E-1,2.0179572E0,-6.748234E-1,-1.913333E0,7.887314E-1,3.165086E0,9.7142047E-1,-1.6579905E-1],"split_indices":[0,6,6,6,7,7,2,4,7,7,5,6,7,6,7,4,6,0,5,7,4,2,3,0,2,3,2,7,4,6,7,7,7,5,4,7,7,5,5,0,3,0,0,0,0,0,0,1,6,2,0,0,0,6,0,4,2,1,4,0,0,0,0,0,0,0,0,0,0,0,0,0,0,0,0,0,0,0,0,0,0,0,0,0,0,0,0,0,0,0,0,0,0,0,0,0,0],"split_type":[1,0,0,0,0,0,0,0,0,0,0,0,0,0,0,0,0,0,0,0,0,0,0,0,0,0,0,0,0,0,0,0,0,0,0,0,0,0,0,0,0,1,1,0,0,0,0,0,0,0,0,0,0,0,0,0,0,0,0,0,0,0,0,0,0,0,0,0,0,0,0,0,0,0,0,0,0,0,0,0,0,0,0,0,0,0,0,0,0,0,0,0,0,0,0,0,0],"sum_hessian":[1.1244E4,9.804E3,1.44E3,5.776E3,4.028E3,4.9E1,1.391E3,5.583E3,1.93E2,3.986E3,4.2E1,1.4E1,3.5E1,1.8E1,1.373E3,3.896E3,1.687E3,9E0,1.84E2,3.932E3,5.4E1,1.5E1,2.7E1,5E0,9E0,2.7E1,8E0,4E0,1.4E1,9.9E1,1.274E3,3.763E3,1.33E2,1.645E3,4.2E1,1.26E2,5.8E1,3.908E3,2.4E1,1.8E1,3.6E1,7E0,8E0,1.9E1,8E0,4E0,5E0,1.3E1,1.4E1,3E0,5E0,3E0,1E0,1.3E1,1E0,1E1,8.9E1,4E0,1.27E3,2.177E3,1.586E3,2.3E1,1.1E2,1.229E3,4.16E2,3.3E1,9E0,6.1E1,6.5E1,2.7E1,3.1E1,1.48E3,2.428E3,9E0,1.5E1,2.5E1,1.1E1,2E0,5E0,1E0,7E0,8E0,5E0,1.1E1,3E0,2E0,1E0,6E0,7E0,4E0,6E0,7E1,1.9E1,1E0,3E0,2.2E1,1.248E3],"tree_param":{"num_deleted":"0","num_feature":"8","num_nodes":"97","size_leaf_vector":"1"}},{"base_weights":[3.8172477E-3,7.83193E-1,-7.208252E-2,1.5612142E0,3.3015978E-1,6.490474E-2,-4.6748447E-1,1.8675168E0,-1.397641E0,2.2913499E-1,3.2585888E0,-4.105776E-2,2.0114298E0,-3.692982E0,-2.7283332E-1,-1.9474223E0,2.1568425E0,-1.8966568E0,1.3672241E0,3.416037E-1,-4.9793544E0,5.7956734E0,-1.1177178E-1,6.142049E-2,-1.2459193E0,4.4999294E0,8.2022816E-1,-1.0213575E1,-1.2885506E-1,2.3336852E0,-4.5897588E-1,-2.7931297E0,4.9035735E0,3.4977217E0,1.4122975E0,-2.8783035E-1,-3.80806E0,2.654565E-1,4.8077426E0,-5.993069E0,1.0777841E0,1.4034195E0,8.732509E0,-4.032917E0,2.14485E0,3.4283128E-1,-4.353705E-1,2.167337E0,-1.7878172E0,3.2186248E0,1.2080128E1,-3.5053942E0,2.824915E0,-6.998152E0,-1.1537578E1,-1.480025E0,1.563036E0,-9.364484E-1,2.7880626E0,-9.364486E-1,6.0750896E-1,-1.538056E0,1.5600711E-1,-1.6345654E-1,2.3700647E0,9.309295E-1,4.9614787E0,4.5797665E-2,6.783845E-1,-4.1316673E-1,9.113736E-1,-2.726374E-1,-1.5500445E0,5.652996E-2,9.0651137E-1,-3.2315558E-1,1.9240869E0,-5.751301E-1,-2.5891814E0,1.4150912E0,-1.0447365E0,2.8467143E0,6.289925E-1,-1.5818772E0,-4.693451E-2,1.1035137E0,-3.377945E-1,-3.2722008E-1,1.8075445E-1,-1.329568E0,-9.094994E-2,3.4221748E-1,2.710268E0,-9.392211E-1,4.070728E-2,2.9153729E-2,1.4022012E0,4.220818E0,1.7270097E0,-1.5042626E0,9.489854E-2,9.8562264E-1,-1.932904E0,-1.2298169E0,-2.5410442E0,-3.508392E0,-9.060591E-1,-6.840924E-1,7.0478356E-1,-1.06245745E-2,8.013055E-1,-1.3556902E0,1.3027052E0,1.4405843E0,7.117327E-1,1.0640097E0,-3.284465E-1,3.3945043E-2,1.0491761E0],"categories":[0,1,3,4,5,6,7,8,9,2,5,7,8,0,3,6,7,9],"categories_nodes":[0,50,53],"categories_segments":[0,9,13],"categories_sizes":[9,4,5],"default_left":[1,0,0,0,0,0,0,0,0,0,0,0,0,0,0,0,0,0,0,0,0,0,0,0,0,0,0,0,0,0,0,0,0,0,0,0,0,0,0,0,0,0,0,0,0,0,0,0,0,0,1,0,0,1,0,0,0,0,0,0,0,0,0,0,0,0,0,0,0,0,0,0,0,0,0,0,0,0,0,0,0,0,0,0,0,0,0,0,0,0,0,0,0,0,0,0,0,0,0,0,0,0,0,0,0,0,0,0,0,0,0,0,0,0,0,0,0,0,0],"id":14,"left_children":[1,3,5,7,9,11,13,15,17,19,21,23,25,27,29,31,33,35,-1,37,39,41,43,45,47,49,51,53,55,57,59,61,63,65,67,69,71,73,75,77,-1,79,81,83,85,87,89,91,93,95,97,99,101,103,105,107,109,111,113,115,117,-1,-1,-1,-1,-1,-1,-1,-1,-1,-1,-1,-1,-1,-1,-1,-1,-1,-1,-1,-1,-1,-1,-1,-1,-1,-1,-1,-1,-1,-1,-1,-1,-1,-1,-1,-1,-1,-1,-1,-1,-1,-1,-1,-1,-1,-1,-1,-1,-1,-1,-1,-1,-1,-1,-1,-1,-1,-1],"loss_changes":[6.652481E2,3.5124915E2,5.551136E2,3.3522382E2,1.8622668E2,1.5701235E3,1.6546249E3,3.717527E2,1.1265217E2,3.6020572E2,1.802165E2,8.9154517E2,1.1612808E3,3.484717E3,1.2082091E3,1.5275082E2,3.0454712E2,1.00382744E2,0E0,2.0277412E2,1.3449472E2,1.4253653E2,9.7135414E1,9.305338E2,1.050769E3,1.1946116E3,2.3251978E3,1.448916E2,2.2634451E2,2.4926605E2,1.1834807E3,1.7276976E2,5.328544E1,5.147516E2,2.1460678E2,7.302159E1,5.43954E1,1.2489714E2,1.01413574E2,1.1246039E2,0E0,1.1356419E2,1.5246826E1,1.8402443E1,3.9253193E1,1.5824458E3,1.2704105E3,5.395657E2,1.263569E3,4.992633E2,1.4542822E2,4.9171912E2,8.021798E2,4.2082947E1,1.2838867E1,1.7390604E2,7.8021065E1,4.167622E2,1.108114E2,1.1434489E3,1.0267467E3,0E0,0E0,0E0,0E0,0E0,0E0,0E0,0E0,0E0,0E0,0E0,0E0,0E0,0E0,0E0,0E0,0E0,0E0,0E0,0E0,0E0,0E0,0E0,0E0,0E0,0E0,0E0,0E0,0E0,0E0,0E0,0E0,0E0,0E0,0E0,0E0,0E0,0E0,0E0,0E0,0E0,0E0,0E0,0E0,0E0,0E0,0E0,0E0,0E0,0E0,0E0,0E0,0E0,0E0,0E0,0E0,0E0,0E0],"parents":[2147483647,0,0,1,1,2,2,3,3,4,4,5,5,6,6,7,7,8,8,9,9,10,10,11,11,12,12,13,13,14,14,15,15,16,16,17,17,19,19,20,20,21,21,22,22,23,23,24,24,25,25,26,26,27,27,28,28,29,29,30,30,31,31,32,32,33,33,34,34,35,35,36,36,37,37,38,38,39,39,41,41,42,42,43,43,44,44,45,45,46,46,47,47,48,48,49,49,50,50,51,51,52,52,53,53,54,54,55,55,56,56,57,57,58,58,59,59,60,60],"right_children":[2,4,6,8,10,12,14,16,18,20,22,24,26,28,30,32,34,36,-1,38,40,42,44,46,48,50,52,54,56,58,60,62,64,66,68,70,72,74,76,78,-1,80,82,84,86,88,90,92,94,96,98,100,102,104,106,108,110,112,114,116,118,-1,-1,-1,-1,-1,-1,-1,-1,-1,-1,-1,-1,-1,-1,-1,-1,-1,-1,-1,-1,-1,-1,-1,-1,-1,-1,-1,-1,-1,-1,-1,-1,-1,-1,-1,-1,-1,-1,-1,-1,-1,-1,-1,-1,-1,-1,-1,-1,-1,-1,-1,-1,-1,-1,-1,-1,-1,-1],"split_conditions":[NaN,7.393833E0,1.7000002E0,2.9177963E2,8.4E1,1.3000002E0,1.9000002E0,3.312627E1,6.299999E0,7.8E1,1.8532133E1,3.1220102E2,5.9604993E0,2.2271454E2,1.4584166E0,6.2209167E0,4.7E1,1.7238699E1,1.3672241E0,7.2E1,1.736675E1,8.766749E0,2.2104116E1,1.5060498E1,1.0538843E1,5.2896667E0,9.035501E0,2.2396667E0,4.6E1,2.4E0,1.5289669E1,4E-1,6.1E1,6.8E1,6.2E1,1E0,3.0616385E2,7.9E1,8.651792E1,1.3240211E2,1.0777841E0,1.2483748E1,9.9E1,1E2,7.5E1,5.98908E1,1.5433417E1,1.0365251E1,4.6E1,4.967344E1,NaN,6.3E1,6.5E1,NaN,8E1,1.5289669E1,5.5438333E0,5.6E1,2.6E1,2.0000002E0,3.0720966E2,-1.538056E0,1.5600711E-1,-1.6345654E-1,2.3700647E0,9.309295E-1,4.9614787E0,4.5797665E-2,6.783845E-1,-4.1316673E-1,9.113736E-1,-2.726374E-1,-1.5500445E0,5.652996E-2,9.0651137E-1,-3.2315558E-1,1.9240869E0,-5.751301E-1,-2.5891814E0,1.4150912E0,-1.0447365E0,2.8467143E0,6.289925E-1,-1.5818772E0,-4.693451E-2,1.1035137E0,-3.377945E-1,-3.2722008E-1,1.8075445E-1,-1.329568E0,-9.094994E-2,3.4221748E-1,2.710268E0,-9.392211E-1,4.070728E-2,2.9153729E-2,1.4022012E0,4.220818E0,1.7270097E0,-1.5042626E0,9.489854E-2,9.8562264E-1,-1.932904E0,-1.2298169E0,-2.5410442E0,-3.508392E0,-9.060591E-1,-6.840924E-1,7.0478356E-1,-1.06245745E-2,8.013055E-1,-1.3556902E0,1.3027052E0,1.4405843E0,7.117327E-1,1.0640097E0,-3.284465E-1,3.3945043E-2,1.0491761E0],"split_indices":[0,4,5,7,1,5,5,7,5,1,6,7,4,7,4,4,2,6,0,1,4,4,6,4,6,4,4,4,3,5,4,5,1,1,3,5,7,3,7,7,0,6,1,1,3,7,4,6,3,7,0,1,3,0,2,4,4,3,3,5,7,0,0,0,0,0,0,0,0,0,0,0,0,0,0,0,0,0,0,0,0,0,0,0,0,0,0,0,0,0,0,0,0,0,0,0,0,0,0,0,0,0,0,0,0,0,0,0,0,0,0,0,0,0,0,0,0,0,0],"split_type":[1,0,0,0,0,0,0,0,0,0,0,0,0,0,0,0,0,0,0,0,0,0,0,0,0,0,0,0,0,0,0,0,0,0,0,0,0,0,0,0,0,0,0,0,0,0,0,0,0,0,1,0,0,1,0,0,0,0,0,0,0,0,0,0,0,0,0,0,0,0,0,0,0,0,0,0,0,0,0,0,0,0,0,0,0,0,0,0,0,0,0,0,0,0,0,0,0,0,0,0,0,0,0,0,0,0,0,0,0,0,0,0,0,0,0,0,0,0,0],"sum_hessian":[1.1244E4,9.97E2,1.0247E4,3.66E2,6.31E2,7.611E3,2.636E3,3.32E2,3.4E1,6.11E2,2E1,7.219E3,3.92E2,1.49E2,2.487E3,2.3E1,3.09E2,3.2E1,2E0,5.99E2,1.2E1,1.1E1,9E0,6.654E3,5.65E2,1.26E2,2.66E2,5.2E1,9.7E1,1.65E2,2.322E3,2.1E1,2E0,1.09E2,2E2,1.8E1,1.4E1,5.9E2,9E0,1.1E1,1E0,5E0,6E0,3E0,6E0,4.248E3,2.406E3,7.7E1,4.88E2,1.09E2,1.7E1,8.4E1,1.82E2,1.7E1,3.5E1,5.4E1,4.3E1,2E1,1.45E2,1.604E3,7.18E2,1.2E1,9E0,1E0,1E0,1.07E2,2E0,8.1E1,1.19E2,1.4E1,4E0,5E0,9E0,5.75E2,1.5E1,2E0,7E0,5E0,6E0,3E0,2E0,5E0,1E0,2E0,1E0,4E0,2E0,6.51E2,3.597E3,7.6E1,2.33E3,6.8E1,9E0,2.87E2,2.01E2,3.5E1,7.4E1,1.2E1,5E0,6E1,2.4E1,1.74E2,8E0,7E0,1E1,3.4E1,1E0,4.5E1,9E0,1.8E1,2.5E1,1.2E1,8E0,2.3E1,1.22E2,5.4E1,1.55E3,6.14E2,1.04E2],"tree_param":{"num_deleted":"0","num_feature":"8","num_nodes":"119","size_leaf_vector":"1"}},{"base_weights":[3.8366008E-3,-2.3508024E0,2.3044877E-2,-6.317399E0,-2.964532E-1,-7.692574E-1,7.632771E-2,-1.9875648E0,-8.284579E0,2.2985504E0,-5.3487716E0,-1.7008735E0,-2.671902E-1,8.5528135E-1,8.524808E-3,4.4492975E-1,-4.0887985E0,-8.493316E0,-6.1647725E-1,3.2298613E0,-5.350123E-1,-2.8331704E0,-7.378121E0,-1.1209067E0,-5.284169E0,-1.0626028E0,1.3410918E0,3.4913208E0,3.832247E-1,-1.8461617E0,5.7815917E-2,1.9885483E-1,6.0602822E-3,-4.8398516E-1,-1.4769706E0,-1.3811637E0,-2.7533798E0,2.474089E0,5.9665647E0,1.2068729E0,-1.3390784E0,-3.3651495E0,-2.9284286E-1,-5.2537537E-1,-7.765683E0,-2.2958682E0,2.5611062E0,-6.6539197E0,-2.559656E0,-1.2250332E0,2.7050576E0,1.0058402E1,3.1322268E-1,1.833052E0,6.008394E0,-3.0689743E0,5.49218E-1,-3.8858402E-1,-5.222561E0,3.369152E0,2.713596E-2,3.971901E-2,-3.6991883E-2,1.2146273E0,2.505528E-1,2.073374E0,1.8647347E-1,4.4659883E-1,5.422554E-2,-1.1507264E-1,-4.2623472E-1,-1.8806726E-1,-1.217386E0,3.431454E-2,-1.6609383E-1,-2.5383215E0,-9.968259E-1,-6.193527E-1,-2.3901377E0,1.2635818E0,-2.3733896E-1,-2.1137671E0,2.366189E-1,-1.0935729E0,2.3826757E-1,-4.377813E-1,5.2439266E-1,-1.9116956E-1,9.110054E-1,6.1466336E0,-9.919269E-2,2.2440292E-1,-1.1674547E0,9.0976484E-2,1.2427919E0,3.853156E0,6.2936664E-1,-3.65999E-3,6.2437123E-1,2.5492582E-1,-1.7846867E0,-8.617683E-1,-2.6553278E0,1.5212821E0,-1.011256E-1,8.2024075E-2,-7.5789236E-2],"categories":[0,4,6,8,9,0,3,4,8,9,0,4,5,6,7,8,9,0,4,6,0,2,3,4,5,6,8,9,1,2,4,5,6,7,8,7,1,2,4,5,6,9,1,2,3,4,5,6,7,8,1,4,5,6,7,8,2],"categories_nodes":[7,10,15,16,17,20,32,37,39,40,42],"categories_segments":[0,5,10,17,20,28,35,36,42,50,56],"categories_sizes":[5,5,7,3,8,7,1,6,8,6,1],"default_left":[0,0,0,0,0,0,0,1,0,0,1,0,0,0,0,1,1,1,0,0,1,0,0,0,0,0,0,0,0,0,0,0,1,0,0,0,0,1,0,1,1,0,1,0,0,0,0,0,0,0,0,0,0,0,0,0,0,0,0,0,0,0,0,0,0,0,0,0,0,0,0,0,0,0,0,0,0,0,0,0,0,0,0,0,0,0,0,0,0,0,0,0,0,0,0,0,0,0,0,0,0,0,0,0,0,0,0],"id":15,"left_children":[1,3,5,7,9,11,13,15,17,19,21,23,25,27,29,31,33,35,-1,37,39,41,43,45,47,49,51,53,55,57,59,-1,61,-1,-1,-1,-1,63,65,67,69,71,73,-1,75,77,79,81,83,85,87,89,91,93,95,-1,97,99,101,103,105,-1,-1,-1,-1,-1,-1,-1,-1,-1,-1,-1,-1,-1,-1,-1,-1,-1,-1,-1,-1,-1,-1,-1,-1,-1,-1,-1,-1,-1,-1,-1,-1,-1,-1,-1,-1,-1,-1,-1,-1,-1,-1,-1,-1,-1,-1],"loss_changes":[5.0864923E2,7.3966565E2,4.709795E2,2.4757837E2,8.1205225E2,3.283625E2,5.520713E2,5.8042862E1,9.85437E0,1.0992407E2,8.6302246E1,5.0531238E2,5.8732043E2,1.0401914E3,8.792886E2,5.6981254E-1,4.4513855E0,1.1001465E1,0E0,4.935623E1,1.7022596E1,1.38799515E1,1.0388672E1,9.273655E2,1.09852905E2,1.9119247E2,1.358808E3,5.1908215E2,1.2581941E3,1.2233904E3,9.5172076E2,0E0,6.535646E-2,0E0,0E0,0E0,