{"learner":{"attributes":{"scikit_learn":"{\"_estimator_type\": \"regressor\"}"},"feature_names":["pm25_lagged_1","temperature_2m_mean","precipitation_sum","wind_speed_10m_max","wind_direction_10m_dominant"],"feature_types":["float","float","float","float","float"],"gradient_booster":{"model":{"gbtree_model_param":{"num_parallel_tree":"1","num_trees":"100"},"iteration_indptr":[0,1,2,3,4,5,6,7,8,9,10,11,12,13,14,15,16,17,18,19,20,21,22,23,24,25,26,27,28,29,30,31,32,33,34,35,36,37,38,39,40,41,42,43,44,45,46,47,48,49,50,51,52,53,54,55,56,57,58,59,60,61,62,63,64,65,66,67,68,69,70,71,72,73,74,75,76,77,78,79,80,81,82,83,84,85,86,87,88,89,90,91,92,93,94,95,96,97,98,99,100],"tree_info":[0,0,0,0,0,0,0,0,0,0,0,0,0,0,0,0,0,0,0,0,0,0,0,0,0,0,0,0,0,0,0,0,0,0,0,0,0,0,0,0,0,0,0,0,0,0,0,0,0,0,0,0,0,0,0,0,0,0,0,0,0,0,0,0,0,0,0,0,0,0,0,0,0,0,0,0,0,0,0,0,0,0,0,0,0,0,0,0,0,0,0,0,0,0,0,0,0,0,0,0],"trees":[{"base_weights":[6.724755E-7,-4.0245333E0,7.301146E0,-6.379478E0,-1.6718059E0,5.468189E0,1.73125E1,-5.238289E0,-7.602034E0,1.8718851E0,-2.4981244E0,7.2496347E0,1.3370662E0,1.8630253E1,-3.1580877E0,-6.2246494E0,-3.3623219E0,-3.5204597E0,-8.297793E0,-3.175068E-2,6.98989E0,-1.5536325E0,-3.9325602E0,7.755592E0,-3.1897054E0,1.2497738E1,-5.895891E-1,1.6667974E1,3.2564705E1,-5.0294113E0,3.6838245E-1,-6.7012463E0,-2.6481087E0,-3.9844284E0,1.0238976E0,-2.1938503E0,-4.072336E-2,-6.5922713E0,-9.361089E0,3.5012262E0,-1.3155074E0,1.0232621E1,-1.2009748E-1,-3.6093223E0,-4.5952177E-1,-4.967609E0,1.4846003E-1,3.3037221E0,9.216606E0,-4.039215E0,6.6838247E-1,4.215241E0,7.911767E-1,-3.0322883E0,3.0540802E0,6.372554E-1,1.739877E1,1.1183825E0,1.1652574E1,-3.8161758E-1,-1.8816177E0,-2.0591538E0,-4.2242634E-1,1.1525737E0,-1.4302138E0,-7.8625906E-1,-1.7900735E0,7.600842E-1,-1.4316176E0,5.882355E-1,-1.0905881E0,-2.0799706E0,1.5683825E0,-2.901671E0,-1.8117646E0,1.9172271E0,-1.3602924E-1,-5.1438403E-1,1.7183825E0,7.775737E-1,3.8321693E0,3.4941196E-1,-9.8161757E-1,-1.4053386E0,9.0716934E-1,2.663971E0,-3.1153473E-1,-8.983192E-1,-1.6757227E0,2.4911766E0,-3.4411746E-1,1.9422063E0,-4.8507336E-1,3.4514234E0,1.4841348E0,-4.0882343E-1,-1.3827729E0,-3.2883388E-1,-1.7178017E0,1.5916883E0,-9.1176456E-1,5.183825E-1,-2.3161756E-1,1.2683825E0,5.2835093E0],"categories":[],"categories_nodes":[],"categories_segments":[],"categories_sizes":[],"default_left":[0,0,0,0,0,0,0,0,0,0,0,0,0,0,0,0,0,0,0,0,0,0,0,0,0,0,0,0,0,0,0,0,0,0,0,0,0,0,0,0,0,0,0,0,0,0,0,0,0,0,0,0,0,0,0,0,0,0,0,0,0,0,0,0,0,0,0,0,0,0,0,0,0,0,0,0,0,0,0,0,0,0,0,0,0,0,0,0,0,0,0,0,0,0,0,0,0,0,0,0,0,0,0,0,0],"id":0,"left_children":[1,3,5,7,9,11,13,15,17,19,21,23,25,27,29,31,33,35,37,39,41,43,45,47,49,51,53,55,57,59,-1,61,63,65,67,-1,69,71,73,75,77,79,81,83,85,87,89,91,93,95,-1,-1,-1,97,99,101,103,-1,-1,-1,-1,-1,-1,-1,-1,-1,-1,-1,-1,-1,-1,-1,-1,-1,-1,-1,-1,-1,-1,-1,-1,-1,-1,-1,-1,-1,-1,-1,-1,-1,-1,-1,-1,-1,-1,-1,-1,-1,-1,-1,-1,-1,-1,-1,-1],"loss_changes":[2.8032055E4,3.3967695E3,6.1261113E3,3.8849414E2,9.094956E2,2.1098066E3,1.4615459E3,2.7883203E2,3.8539746E2,5.750482E2,3.3394824E2,1.0863906E3,1.8996122E3,7.970332E2,3.900654E1,1.6123413E2,1.6234406E2,3.0322076E2,1.6316016E2,2.0416713E2,3.7012134E2,3.424618E2,4.1891882E2,1.2183662E3,5.5022568E1,1.6202576E2,6.8569037E2,5.160947E2,7.60271E2,6.0287704E0,0E0,6.951611E1,2.1087338E2,1.2222699E2,8.209255E1,0E0,1.0065733E2,2.417898E2,1.8073242E1,1.4002303E2,1.0258692E2,1.8047986E2,2.8108898E1,3.921422E2,5.553129E2,7.963098E1,2.3140163E2,7.748619E2,1.3498467E3,7.4497375E0,0E0,0E0,0E0,2.3363708E2,4.414245E2,5.9454293E0,4.612793E1,0E0,0E0,0E0,0E0,0E0,0E0,0E0,0E0,0E0,0E0,0E0,0E0,0E0,0E0,0E0,0E0,0E0,0E0,0E0,0E0,0E0,0E0,0E0,0E0,0E0,0E0,0E0,0E0,0E0,0E0,0E0,0E0,0E0,0E0,0E0,0E0,0E0,0E0,0E0,0E0,0E0,0E0,0E0,0E0,0E0,0E0,0E0,0E0],"parents":[2147483647,0,0,1,1,2,2,3,3,4,4,5,5,6,6,7,7,8,8,9,9,10,10,11,11,12,12,13,13,14,14,15,15,16,16,17,17,18,18,19,19,20,20,21,21,22,22,23,23,24,24,25,25,26,26,27,27,28,28,29,29,31,31,32,32,33,33,34,34,36,36,37,37,38,38,39,39,40,40,41,41,42,42,43,43,44,44,45,45,46,46,47,47,48,48,49,49,53,53,54,54,55,55,56,56],"right_children":[2,4,6,8,10,12,14,16,18,20,22,24,26,28,30,32,34,36,38,40,42,44,46,48,50,52,54,56,58,60,-1,62,64,66,68,-1,70,72,74,76,78,80,82,84,86,88,90,92,94,96,-1,-1,-1,98,100,102,104,-1,-1,-1,-1,-1,-1,-1,-1,-1,-1,-1,-1,-1,-1,-1,-1,-1,-1,-1,-1,-1,-1,-1,-1,-1,-1,-1,-1,-1,-1,-1,-1,-1,-1,-1,-1,-1,-1,-1,-1,-1,-1,-1,-1,-1,-1,-1,-1],"split_conditions":[2E1,1.3E1,3.8E1,2.3751088E2,1.2397806E1,2.3819313E2,2.5223133E1,1.8884389E2,1.3443481E1,1.8E1,2.3819313E2,1.0599999E1,1.1620809E1,6.2E1,4.2E1,1.6972418E1,5.5E0,1E1,3.6932497E0,-4.0049997E-1,2.2967117E2,1.1801405E2,3.233463E2,8.452542E1,1.3516166E1,3.1E1,2.6E1,-4.710917E0,2.4265833E0,3.9E1,3.6838245E-1,1.4900002E1,1.0597093E2,1.3016167E1,1.17E1,-2.1938503E0,1.2E1,3.2890835E0,1.7553667E1,9.931042E0,1.8999498E1,-6.192498E-1,1.3282833E1,1.5336999E1,1.2184044E2,1.5141414E1,1.3443481E1,1.5827721E1,2.0238351E2,3.1390831E0,6.6838247E-1,4.215241E0,7.911767E-1,4E-1,5E-1,3.9E1,4.085564E0,1.1183825E0,1.1652574E1,-3.8161758E-1,-1.8816177E0,-2.0591538E0,-4.2242634E-1,1.1525737E0,-1.4302138E0,-7.8625906E-1,-1.7900735E0,7.600842E-1,-1.4316176E0,5.882355E-1,-1.0905881E0,-2.0799706E0,1.5683825E0,-2.901671E0,-1.8117646E0,1.9172271E0,-1.3602924E-1,-5.1438403E-1,1.7183825E0,7.775737E-1,3.8321693E0,3.4941196E-1,-9.8161757E-1,-1.4053386E0,9.0716934E-1,2.663971E0,-3.1153473E-1,-8.983192E-1,-1.6757227E0,2.4911766E0,-3.4411746E-1,1.9422063E0,-4.8507336E-1,3.4514234E0,1.4841348E0,-4.0882343E-1,-1.3827729E0,-3.2883388E-1,-1.7178017E0,1.5916883E0,-9.1176456E-1,5.183825E-1,-2.3161756E-1,1.2683825E0,5.2835093E0],"split_indices":[0,0,0,4,3,4,3,4,3,0,4,2,3,0,0,1,2,0,1,1,4,4,4,4,1,0,0,1,1,0,0,2,4,1,2,0,0,1,1,3,1,1,1,1,4,3,3,3,4,1,0,0,0,2,2,0,4,0,0,0,0,0,0,0,0,0,0,0,0,0,0,0,0,0,0,0,0,0,0,0,0,0,0,0,0,0,0,0,0,0,0,0,0,0,0,0,0,0,0,0,0,0,0,0,0],"split_type":[0,0,0,0,0,0,0,0,0,0,0,0,0,0,0,0,0,0,0,0,0,0,0,0,0,0,0,0,0,0,0,0,0,0,0,0,0,0,0,0,0,0,0,0,0,0,0,0,0,0,0,0,0,0,0,0,0,0,0,0,0,0,0,0,0,0,0,0,0,0,0,0,0,0,0,0,0,0,0,0,0,0,0,0,0,0,0,0,0,0,0,0,0,0,0,0,0,0,0,0,0,0,0,0,0],"sum_hessian":[9.52E2,6.14E2,3.38E2,3.06E2,3.08E2,2.87E2,5.1E1,1.61E2,1.45E2,5.8E1,2.5E2,2E2,8.7E1,4.8E1,3E0,1.04E2,5.7E1,2.2E1,1.23E2,4.3E1,1.5E1,1.52E2,9.8E1,1.91E2,9E0,1.2E1,7.5E1,4.4E1,4E0,2E0,1E0,9.1E1,1.3E1,5E1,7E0,1E1,1.2E1,5E1,7.3E1,1.1E1,3.2E1,1E1,5E0,5.2E1,1E2,7.8E1,2E1,4.8E1,1.43E2,8E0,1E0,1E1,2E0,4.5E1,3E1,2E0,4.2E1,1E0,3E0,1E0,1E0,8.8E1,3E0,3E0,1E1,3.1E1,1.9E1,6E0,1E0,8E0,4E0,4.9E1,1E0,6.5E1,8E0,6E0,5E0,3.1E1,1E0,3E0,7E0,4E0,1E0,4.5E1,7E0,5E0,9.5E1,2E1,5.8E1,2E0,1.8E1,2.9E1,1.9E1,9.2E1,5.1E1,2E0,6E0,2.7E1,1.8E1,2.2E1,8E0,1E0,1E0,1E0,4.1E1],"tree_param":{"num_deleted":"0","num_feature":"5","num_nodes":"105","size_leaf_vector":"1"}},{"base_weights":[2.2126073E-2,-2.5227427E0,5.9364305E0,-4.3091164E0,-4.886041E-1,4.835109E0,1.5950971E1,-3.759735E0,-5.9088435E0,6.342369E-1,-2.2051458E0,5.7336864E0,2.9360083E-1,1.7367798E1,3.1080627E0,-6.9053764E0,-3.4062376E0,-2.4400375E0,-6.635705E0,1.5859998E0,-1.8559052E0,-6.736288E-1,-4.1779714E0,4.341674E0,8.85266E0,-1.0862412E0,9.213641E0,1.9076263E1,3.629281E0,1.5258563E0,7.532921E-1,-7.4567237E0,1.0317464E0,-3.4989493E0,2.984839E0,-6.530064E-1,-4.368822E0,-5.5063505E0,-7.910617E0,-1.4868776E0,2.565922E0,-2.3733046E0,5.0755634E0,2.271666E0,-1.8731889E0,-4.43584E0,1.5435314E-1,5.885813E0,2.497151E0,4.980689E0,1.1752835E1,2.3518138E0,-1.7805823E0,3.489195E0,8.759249E-1,1.8387843E0,2.079793E1,8.44825E0,-1.6241438E0,2.585621E-2,3.1312525E-1,-8.949109E-1,-2.314813E0,-1.0943007E0,2.120891E-1,1.2403502E0,-6.962185E-2,1.3301471E0,-5.132571E-1,-6.80294E-2,-1.4784448E0,-1.0244809E0,-1.9290287E0,-2.4886448E0,-9.4280535E-1,1.1907096E0,-7.0399E-1,4.4997013E-1,2.106456E0,-3.4752476E-1,-1.3990428E0,2.1534836E0,-1.8488732E-1,9.896532E-2,1.6157478E0,-8.953745E-1,9.905227E-2,-5.806934E-1,-1.49953E0,5.031304E-1,-2.73679E-1,1.381352E-2,1.9290735E0,1.3487903E0,-5.6093055E-1,2.0271578E0,-9.754573E-1,3.7434914E0,7.944439E-1,-1.2445241E0,2.847787E-1,6.9885793E0,3.4513502E0,3.1758564E0,6.258562E-1],"categories":[],"categories_nodes":[],"categories_segments":[],"categories_sizes":[],"default_left":[0,0,0,0,0,0,0,0,0,0,0,0,0,0,0,0,0,0,0,0,0,0,0,0,0,0,0,0,0,0,0,0,0,0,0,0,0,0,0,0,0,0,0,0,0,0,0,0,0,0,0,0,0,0,0,0,0,0,0,0,0,0,0,0,0,0,0,0,0,0,0,0,0,0,0,0,0,0,0,0,0,0,0,0,0,0,0,0,0,0,0,0,0,0,0,0,0,0,0,0,0,0,0,0,0],"id":1,"left_children":[1,3,5,7,9,11,13,15,17,19,21,23,25,27,29,31,33,35,37,39,41,43,45,47,49,51,53,55,57,-1,59,61,-1,63,65,67,69,71,73,75,77,79,81,83,85,87,89,91,93,95,97,-1,99,-1,-1,-1,101,103,-1,-1,-1,-1,-1,-1,-1,-1,-1,-1,-1,-1,-1,-1,-1,-1,-1,-1,-1,-1,-1,-1,-1,-1,-1,-1,-1,-1,-1,-1,-1,-1,-1,-1,-1,-1,-1,-1,-1,-1,-1,-1,-1,-1,-1,-1,-1],"loss_changes":[1.4358703E4,2.4215938E3,3.0882627E3,2.897793E2,6.046758E2,1.0593496E3,4.555122E2,2.7337646E2,2.0820801E2,4.5324823E2,3.7184113E2,9.037031E2,5.515711E2,5.175615E2,1.4800735E1,1.7393396E2,1.538352E2,5.5742706E1,6.154883E1,4.1935822E2,2.0212175E2,2.5510236E2,6.1012024E1,4.1822876E2,6.8260254E2,2.5565823E2,5.7315796E1,3.629126E2,2.200508E2,0E0,4.91341E-1,5.985718E0,0E0,1.5207397E2,1.5752945E1,6.1396687E1,1.7416595E1,5.9182983E1,3.265027E1,1.6879932E2,4.881936E2,1.3371292E2,5.2297302E1,1.25210686E2,1.258743E2,6.2061035E1,8.02671E0,2.6041064E2,6.281419E2,4.607079E2,2.1134717E2,0E0,2.4309898E2,0E0,0E0,0E0,1.729668E2,1.8720306E1,0E0,0E0,0E0,0E0,0E0,0E0,0E0,0E0,0E0,0E0,0E0,0E0,0E0,0E0,0E0,0E0,0E0,0E0,0E0,0E0,0E0,0E0,0E0,0E0,0E0,0E0,0E0,0E0,0E0,0E0,0E0,0E0,0E0,0E0,0E0,0E0,0E0,0E0,0E0,0E0,0E0,0E0,0E0,0E0,0E0,0E0,0E0],"parents":[2147483647,0,0,1,1,2,2,3,3,4,4,5,5,6,6,7,7,8,8,9,9,10,10,11,11,12,12,13,13,14,14,15,15,16,16,17,17,18,18,19,19,20,20,21,21,22,22,23,23,24,24,25,25,26,26,27,27,28,28,30,30,31,31,33,33,34,34,35,35,36,36,37,37,38,38,39,39,40,40,41,41,42,42,43,43,44,44,45,45,46,46,47,47,48,48,49,49,50,50,52,52,56,56,57,57],"right_children":[2,4,6,8,10,12,14,16,18,20,22,24,26,28,30,32,34,36,38,40,42,44,46,48,50,52,54,56,58,-1,60,62,-1,64,66,68,70,72,74,76,78,80,82,84,86,88,90,92,94,96,98,-1,100,-1,-1,-1,102,104,-1,-1,-1,-1,-1,-1,-1,-1,-1,-1,-1,-1,-1,-1,-1,-1,-1,-1,-1,-1,-1,-1,-1,-1,-1,-1,-1,-1,-1,-1,-1,-1,-1,-1,-1,-1,-1,-1,-1,-1,-1,-1,-1,-1,-1,-1,-1],"split_conditions":[2.2E1,1.4E1,4.2E1,2.8130988E2,2.3777567E2,3E0,4.2E0,7E0,1.3661038E1,1.9453327E1,4.8869996E0,3.2E1,1.5936999E1,2.5369774E2,4.6E1,4E0,2.7860022E2,1.07995E1,1.8847641E1,7.229951E1,2.328247E2,1.3443481E1,8.9E0,2.1597694E2,5.1619997E0,1.14862E1,1.8578665E1,1.3908328E-1,8.94325E0,1.5258563E0,5.1E1,-5.192167E0,1.0317464E0,2.9957972E1,1.1E1,1.0495713E1,3.176779E2,1.462E0,3.4675946E2,8.748075E0,2E1,4.3999996E0,1.7E1,1.8E1,3.1857022E2,1.26462E1,1.5E1,-1.3171667E0,8.395333E0,1.8374111E1,2.7273386E2,2.3518138E0,6.5E0,3.489195E0,8.759249E-1,1.8387843E0,2.0746122E1,4.4E1,-1.6241438E0,2.585621E-2,3.1312525E-1,-8.949109E-1,-2.314813E0,-1.0943007E0,2.120891E-1,1.2403502E0,-6.962185E-2,1.3301471E0,-5.132571E-1,-6.80294E-2,-1.4784448E0,-1.0244809E0,-1.9290287E0,-2.4886448E0,-9.4280535E-1,1.1907096E0,-7.0399E-1,4.4997013E-1,2.106456E0,-3.4752476E-1,-1.3990428E0,2.1534836E0,-1.8488732E-1,9.896532E-2,1.6157478E0,-8.953745E-1,9.905227E-2,-5.806934E-1,-1.49953E0,5.031304E-1,-2.73679E-1,1.381352E-2,1.9290735E0,1.3487903E0,-5.6093055E-1,2.0271578E0,-9.754573E-1,3.7434914E0,7.944439E-1,-1.2445241E0,2.847787E-1,6.9885793E0,3.4513502E0,3.1758564E0,6.258562E-1],"split_indices":[0,0,0,4,4,2,2,0,3,3,1,0,1,4,0,2,4,1,3,4,4,3,2,4,1,3,1,1,1,0,0,1,0,3,0,3,4,1,4,3,0,2,0,0,4,3,0,1,1,3,4,0,2,0,0,0,3,0,0,0,0,0,0,0,0,0,0,0,0,0,0,0,0,0,0,0,0,0,0,0,0,0,0,0,0,0,0,0,0,0,0,0,0,0,0,0,0,0,0,0,0,0,0,0,0],"split_type":[0,0,0,0,0,0,0,0,0,0,0,0,0,0,0,0,0,0,0,0,0,0,0,0,0,0,0,0,0,0,0,0,0,0,0,0,0,0,0,0,0,0,0,0,0,0,0,0,0,0,0,0,0,0,0,0,0,0,0,0,0,0,0,0,0,0,0,0,0,0,0,0,0,0,0,0,0,0,0,0,0,0,0,0,0,0,0,0,0,0,0,0,0,0,0,0,0,0,0,0,0,0,0,0,0],"sum_hessian":[9.52E2,6.66E2,2.86E2,3.54E2,3.12E2,2.59E2,2.7E1,2.66E2,8.8E1,1.89E2,1.23E2,2.16E2,4.3E1,2.4E1,3E0,2.5E1,2.41E2,1.6E1,7.2E1,1.37E2,5.2E1,7E1,5.3E1,1.51E2,6.5E1,3.8E1,5E0,2.1E1,3E0,1E0,2E0,2.4E1,1E0,2.38E2,3E0,9E0,7E0,4.1E1,3.1E1,3.3E1,1.04E2,4.9E1,3E0,2E1,5E1,5E1,3E0,8.1E1,7E1,2.9E1,3.6E1,2E0,3.6E1,3E0,2E0,3E0,1.8E1,2E0,1E0,1E0,1E0,2E0,2.2E1,2.3E2,8E0,2E0,1E0,1E0,8E0,1E0,6E0,1.4E1,2.7E1,2.8E1,3E0,4E0,2.9E1,8.5E1,1.9E1,3.3E1,1.6E1,2E0,1E0,1.3E1,7E0,3.3E1,1.7E1,1E1,4E1,1E0,2E0,7E0,7.4E1,4.8E1,2.2E1,2.4E1,5E0,3.3E1,3E0,1.9E1,1.7E1,1.3E1,5E0,1E0,1E0],"tree_param":{"num_deleted":"0","num_feature":"5","num_nodes":"105","size_leaf_vector":"1"}},{"base_weights":[4.0385947E-2,-1.4282914E0,5.4062347E0,-2.8995702E0,2.4825697E-1,4.378191E0,1.1748576E1,-3.8154044E0,-2.2704954E0,1.3712217E0,-9.6920335E-1,5.2526584E0,6.5529025E-1,9.442908E0,2.0466068E1,-3.1334567E0,-5.310194E0,-1.5221791E-1,-2.6454005E0,-1.1316121E0,2.1247723E0,3.475472E0,-1.5891294E0,1.0420511E1,4.7039104E0,7.6170373E0,-2.3540598E-1,1.0319795E1,7.435583E-1,4.3292257E-1,7.4583154E0,1.5945234E0,-3.256346E0,-5.7859173E0,-3.8461595E0,-1.0454125E0,3.216289E0,-1.9765258E0,-3.4799535E0,6.920621E-1,-2.7475054E0,-1.4340286E-1,3.8066723E0,6.870542E0,-2.3555027E-1,2.452344E0,-1.7103328E0,6.876907E-1,1.0906837E1,6.4571697E-1,5.554302E0,2.6372328E0,6.143735E-1,-2.6826885E0,2.7170267E0,1.1452682E1,2.6418533E0,-1.0989413E0,-4.4146117E-2,-1.8215355E0,-8.569078E-1,2.3405029E-1,-1.2697012E0,-6.127501E-1,2.5875357E-1,1.4066098E0,-2.401884E-1,-1.1687002E0,-1.6304226E-1,-7.118532E-1,-1.2269955E0,6.4208776E-1,-5.786547E-1,8.7559724E-1,-1.0278372E0,-1.3032512E-1,2.5976171E0,2.6510737E0,8.145163E-1,1.8793832E-1,2.4565527E0,4.361383E-1,-1.0666056E0,-3.689626E-1,-1.2424355E0,3.720218E0,1.9005742E0,1.422099E0,-7.8528047E-1,2.0178E0,7.9560846E-1,-1.8011412E-2,-1.4324416E0,1.816445E0,-5.887692E-1,1.7577894E0,4.1283298E0,1.2969779E0,1.9208947E-1],"categories":[],"categories_nodes":[],"categories_segments":[],"categories_sizes":[],"default_left":[0,0,0,0,0,0,0,0,0,0,0,0,0,0,0,0,0,0,0,0,0,0,0,0,0,0,0,0,0,0,0,0,0,0,0,0,0,0,0,0,0,0,0,0,0,0,0,0,0,0,0,0,0,0,0,0,0,0,0,0,0,0,0,0,0,0,0,0,0,0,0,0,0,0,0,0,0,0,0,0,0,0,0,0,0,0,0,0,0,0,0,0,0,0,0,0,0,0,0],"id":2,"left_children":[1,3,5,7,9,11,13,15,17,19,21,23,25,27,29,31,33,35,37,39,41,43,45,47,49,51,53,55,-1,-1,-1,-1,57,59,61,63,65,67,69,71,73,75,77,79,81,-1,83,-1,85,87,89,-1,-1,91,93,95,97,-1,-1,-1,-1,-1,-1,-1,-1,-1,-1,-1,-1,-1,-1,-1,-1,-1,-1,-1,-1,-1,-1,-1,-1,-1,-1,-1,-1,-1,-1,-1,-1,-1,-1,-1,-1,-1,-1,-1,-1,-1,-1],"loss_changes":[7.51803E3,1.8482555E3,1.2852046E3,2.212124E2,4.812039E2,5.760469E2,3.69531E2,1.47479E2,1.893999E2,3.475446E2,4.7118048E2,3.593452E2,2.1882115E2,1.20989746E2,3.8215186E2,1.346283E2,1.1873779E1,1.1468544E2,1.0643872E2,1.2861655E2,5.3843884E2,2.6620117E2,1.9030496E2,2.6386719E1,4.5195288E2,8.144043E0,2.385029E2,1.524065E2,0E0,0E0,0E0,0E0,1.411178E2,1.1968018E1,3.0100723E1,5.883273E1,5.1070312E1,3.1415912E2,5.04032E1,8.383764E1,9.8438385E1,1.6001566E2,4.207865E2,8.539465E1,6.6859924E1,0E0,1.677778E2,0E0,3.3916016E0,3.330969E2,3.5282666E2,0E0,0E0,9.8477356E1,2.4617531E2,1.517832E2,1.0693531E1,0E0,0E0,0E0,0E0,0E0,0E0,0E0,0E0,0E0,0E0,0E0,0E0,0E0,0E0,0E0,0E0,0E0,0E0,0E0,0E0,0E0,0E0,0E0,0E0,0E0,0E0,0E0,0E0,0E0,0E0,0E0,0E0,0E0,0E0,0E0,0E0,0E0,0E0,0E0,0E0,0E0,0E0],"parents":[2147483647,0,0,1,1,2,2,3,3,4,4,5,5,6,6,7,7,8,8,9,9,10,10,11,11,12,12,13,13,14,14,15,15,16,16,17,17,18,18,19,19,20,20,21,21,22,22,23,23,24,24,25,25,26,26,27,27,32,32,33,33,34,34,35,35,36,36,37,37,38,38,39,39,40,40,41,41,42,42,43,43,44,44,46,46,48,48,49,49,50,50,53,53,54,54,55,55,56,56],"right_children":[2,4,6,8,10,12,14,16,18,20,22,24,26,28,30,32,34,36,38,40,42,44,46,48,50,52,54,56,-1,-1,-1,-1,58,60,62,64,66,68,70,72,74,76,78,80,82,-1,84,-1,86,88,90,-1,-1,92,94,96,98,-1,-1,-1,-1,-1,-1,-1,-1,-1,-1,-1,-1,-1,-1,-1,-1,-1,-1,-1,-1,-1,-1,-1,-1,-1,-1,-1,-1,-1,-1,-1,-1,-1,-1,-1,-1,-1,-1,-1,-1,-1,-1],"split_conditions":[2.6E1,1.5E1,4.2E1,1E1,2.166738E2,2.9999998E0,6.2E1,2.7027878E2,1.2181625E1,6.049269E1,1.1620809E1,1.0495713E1,1.1841756E1,5.7E1,2.4265833E0,-1.1210918E1,3.275081E2,1.1874544E1,2.3819313E2,2.1389902E1,1.8E1,2.4265833E0,-9.504666E0,3.1148548E1,8.452542E1,1.1889083E1,7.2E0,4.2E0,7.435583E-1,4.3292257E-1,7.4583154E0,1.5945234E0,1.692658E1,1.6472416E1,7E0,5E-1,2.8130988E2,1.4827646E2,1.6443172E1,2.12522E1,8.161764E0,2.1434138E2,1.0806399E2,8.161764E0,2E1,2.452344E0,1.5000002E0,6.876907E-1,1E-1,1.5815435E1,2.3819313E2,2.6372328E0,6.143735E-1,1.4890834E0,1.0599999E1,1.375558E1,4.6E1,-1.0989413E0,-4.4146117E-2,-1.8215355E0,-8.569078E-1,2.3405029E-1,-1.2697012E0,-6.127501E-1,2.5875357E-1,1.4066098E0,-2.401884E-1,-1.1687002E0,-1.6304226E-1,-7.118532E-1,-1.2269955E0,6.4208776E-1,-5.786547E-1,8.7559724E-1,-1.0278372E0,-1.3032512E-1,2.5976171E0,2.6510737E0,8.145163E-1,1.8793832E-1,2.4565527E0,4.361383E-1,-1.0666056E0,-3.689626E-1,-1.2424355E0,3.720218E0,1.9005742E0,1.422099E0,-7.8528047E-1,2.0178E0,7.9560846E-1,-1.8011412E-2,-1.4324416E0,1.816445E0,-5.887692E-1,1.7577894E0,4.1283298E0,1.2969779E0,1.9208947E-1],"split_indices":[0,0,0,0,4,2,0,4,3,4,3,3,3,0,1,1,4,3,4,4,0,1,1,4,4,1,2,2,0,0,0,0,1,1,0,2,4,4,3,3,3,4,4,3,0,0,2,0,2,3,4,0,0,1,2,3,0,0,0,0,0,0,0,0,0,0,0,0,0,0,0,0,0,0,0,0,0,0,0,0,0,0,0,0,0,0,0,0,0,0,0,0,0,0,0,0,0,0,0],"split_type":[0,0,0,0,0,0,0,0,0,0,0,0,0,0,0,0,0,0,0,0,0,0,0,0,0,0,0,0,0,0,0,0,0,0,0,0,0,0,0,0,0,0,0,0,0,0,0,0,0,0,0,0,0,0,0,0,0,0,0,0,0,0,0,0,0,0,0,0,0,0,0,0,0,0,0,0,0,0,0,0,0,0,0,0,0,0,0,0,0,0,0,0,0,0,0,0,0,0,0],"sum_hessian":[9.52E2,7.48E2,2.04E2,3.98E2,3.5E2,1.77E2,2.7E1,1.6E2,2.38E2,1.82E2,1.68E2,1.43E2,3.4E1,2.3E1,4E0,1.12E2,4.8E1,3.6E1,2.02E2,4.2E1,1.4E2,2E1,1.48E2,1.2E1,1.31E2,3E0,3.1E1,2E1,3E0,1E0,3E0,1E0,1.11E2,3.4E1,1.4E1,2.9E1,7E0,1.14E2,8.8E1,2E1,2.2E1,6E1,8E1,1E1,1E1,1E0,1.47E2,1E0,1.1E1,2.3E1,1.08E2,2E0,1E0,1.7E1,1.4E1,1.7E1,3E0,9.8E1,1.3E1,3E1,4E0,1E0,1.3E1,1.9E1,1E1,5E0,2E0,4.8E1,6.6E1,3.3E1,5.5E1,1.3E1,7E0,2E0,2E1,5.9E1,1E0,1.3E1,6.7E1,2E0,8E0,7E0,3E0,1.24E2,2.3E1,7E0,4E0,1E1,1.3E1,7.6E1,3.2E1,8E0,9E0,8E0,6E0,6E0,1.1E1,1E0,2E0],"tree_param":{"num_deleted":"0","num_feature":"5","num_nodes":"99","size_leaf_vector":"1"}},{"base_weights":[6.1613176E-2,-9.958276E-1,3.9248402E0,-2.0440369E0,1.9856371E-1,3.136574E0,8.795788E0,-2.9351835E0,-1.6816777E0,9.049758E-1,-8.853524E-1,2.4861257E0,7.6358376E0,6.948316E0,1.5904494E1,-3.1973326E0,4.7848353E-1,-8.892085E-1,-2.4354892E0,1.3184934E0,-1.5653043E0,3.105138E0,-1.3931144E0,3.4363039E0,2.5683996E-1,4.1240115E0,1.2250252E1,7.669034E0,1.4274693E0,3.679842E-1,5.7801933E0,2.429311E0,-3.328896E0,4.0905166E0,-2.0092857E0,-2.9468322E-1,-1.7105033E0,-1.9546218E0,-3.6609223E0,1.1274768E0,5.4125233E0,-4.095526E0,7.5932133E-1,5.0497875E0,-9.7757596E-1,-1.9627491E0,1.1936619E0,2.5079563E0,7.251303E0,-4.992444E0,1.274826E0,5.565129E0,-3.0151298E0,1.59466E1,3.6431665E0,8.606684E0,1.5323524E0,5.5570493E0,-1.6441908E0,-2.6215497E-1,1.355345E0,-1.0276537E0,3.19706E-1,1.4653786E0,2.562421E-1,8.373977E-1,-1.058302E0,-1.6636613E-1,2.0460148E0,-8.207075E-1,2.3298915E-1,-1.1174098E0,-4.5146847E-1,-1.4084587E0,-7.176718E-1,-1.3905199E-1,4.6099457E-1,5.858846E-2,-1.324789E0,1.7933213E0,-5.739491E-1,1.5035057E-1,1.8014721E0,1.7223358E-2,-3.588167E-1,-3.459749E-1,-9.8873043E-1,2.4966526E0,3.553855E-2,1.125266E-1,1.1388642E0,2.8666928E0,6.93689E-1,-1.9587113E0,-7.653256E-2,1.0211294E0,-4.903746E-1,-5.91362E-1,1.9288354E0,-1.2555726E0,-1.01235874E-1,5.1843276E0,1.3911215E0,-8.833752E-2,1.5161585E0,2.8132467E0,4.8804745E-1,-6.835556E-3,6.1749804E-1,2.0802283E0,4.2044392E-1],"categories":[],"categories_nodes":[],"categories_segments":[],"categories_sizes":[],"default_left":[0,0,0,0,0,0,0,0,0,0,0,0,0,0,0,0,0,0,0,0,0,0,0,0,0,0,0,0,0,0,0,0,0,0,0,0,0,0,0,0,0,0,0,0,0,0,0,0,0,0,0,0,0,0,0,0,0,0,0,0,0,0,0,0,0,0,0,0,0,0,0,0,0,0,0,0,0,0,0,0,0,0,0,0,0,0,0,0,0,0,0,0,0,0,0,0,0,0,0,0,0,0,0,0,0,0,0,0,0,0,0],"id":3,"left_children":[1,3,5,7,9,11,13,15,17,19,21,23,25,27,29,31,33,35,37,39,41,43,45,47,49,51,53,55,57,-1,-1,59,61,63,65,67,69,71,73,75,-1,77,79,81,83,85,87,89,91,93,95,97,99,101,103,105,107,109,-1,-1,-1,-1,-1,-1,-1,-1,-1,-1,-1,-1,-1,-1,-1,-1,-1,-1,-1,-1,-1,-1,-1,-1,-1,-1,-1,-1,-1,-1,-1,-1,-1,-1,-1,-1,-1,-1,-1,-1,-1,-1,-1,-1,-1,-1,-1,-1,-1,-1,-1,-1,-1],"loss_changes":[3.897041E3,9.381331E2,7.595298E2,1.23907104E2,2.6955893E2,5.019402E2,2.572185E2,1.0354736E2,1.686828E2,2.1964421E2,2.8597034E2,3.316776E2,3.0599036E2,8.454797E1,2.231615E2,8.655469E1,8.909216E1,6.83435E1,7.887787E1,5.642365E2,1.854462E2,1.3196771E2,1.8505905E2,3.7139514E2,2.62862E2,1.6081636E2,2.2823694E2,1.0764673E2,1.4456645E2,0E0,0E0,2.46439E1,4.7807617E1,6.1076202E0,5.3582016E1,1.5724155E2,1.5256165E2,7.9572235E1,4.1238403E1,1.19191574E2,0E0,2.148648E1,2.4852072E2,4.4779724E1,1.4254093E0,1.0626514E2,1.7529944E2,2.4586755E2,2.1690869E2,5.6569244E1,2.5951566E2,9.08396E1,7.9872227E0,1.0421143E1,2.3707294E1,8.158655E1,3.3187485E0,7.4492264E0,0E0,0E0,0E0,0E0,0E0,0E0,0E0,0E0,0E0,0E0,0E0,0E0,0E0,0E0,0E0,0E0,0E0,0E0,0E0,0E0,0E0,0E0,0E0,0E0,0E0,0E0,0E0,0E0,0E0,0E0,0E0,0E0,0E0,0E0,0E0,0E0,0E0,0E0,0E0,0E0,0E0,0E0,0E0,0E0,0E0,0E0,0E0,0E0,0E0,0E0,0E0,0E0,0E0],"parents":[2147483647,0,0,1,1,2,2,3,3,4,4,5,5,6,6,7,7,8,8,9,9,10,10,11,11,12,12,13,13,14,14,15,15,16,16,17,17,18,18,19,19,20,20,21,21,22,22,23,23,24,24,25,25,26,26,27,27,28,28,31,31,32,32,33,33,34,34,35,35,36,36,37,37,38,38,39,39,41,41,42,42,43,43,44,44,45,45,46,46,47,47,48,48,49,49,50,50,51,51,52,52,53,53,54,54,55,55,56,56,57,57],"right_children":[2,4,6,8,10,12,14,16,18,20,22,24,26,28,30,32,34,36,38,40,42,44,46,48,50,52,54,56,58,-1,-1,60,62,64,66,68,70,72,74,76,-1,78,80,82,84,86,88,90,92,94,96,98,100,102,104,106,108,110,-1,-1,-1,-1,-1,-1,-1,-1,-1,-1,-1,-1,-1,-1,-1,-1,-1,-1,-1,-1,-1,-1,-1,-1,-1,-1,-1,-1,-1,-1,-1,-1,-1,-1,-1,-1,-1,-1,-1,-1,-1,-1,-1,-1,-1,-1,-1,-1,-1,-1,-1,-1,-1],"split_conditions":[2.6E1,1.5E1,4.2E1,9E0,2.3751088E2,1.7764082E1,6.2E1,5.7999997E0,1.6854767E1,4.700001E0,1.1620809E1,8.137E0,3.5E1,2.5369774E2,2.4265833E0,-1.1210918E1,1.1458806E2,1.07995E1,2.7616098E2,4.6E0,7.2999997E0,2.4265833E0,3.2801047E2,5.1619997E0,9.093249E0,2.3595181E2,3.9E1,2.4014996E1,8.94325E0,3.679842E-1,5.7801933E0,6E0,2.9522196E1,7.6807504E0,8E0,1.0484917E1,1.7907831E1,1.22630936E2,3.176779E2,6.3311497E1,5.4125233E0,-3.7317502E0,8.9E0,8.161764E0,8.748075E0,4E-1,3.3240836E2,1.2184044E2,1.9477463E1,2.0326454E1,1.6607864E1,2.7E1,3E1,1.9586996E1,4E1,5.7E1,1.1003667E1,4.4E1,-1.6441908E0,-2.6215497E-1,1.355345E0,-1.0276537E0,3.19706E-1,1.4653786E0,2.562421E-1,8.373977E-1,-1.058302E0,-1.6636613E-1,2.0460148E0,-8.207075E-1,2.3298915E-1,-1.1174098E0,-4.5146847E-1,-1.4084587E0,-7.176718E-1,-1.3905199E-1,4.6099457E-1,5.858846E-2,-1.324789E0,1.7933213E0,-5.739491E-1,1.5035057E-1,1.8014721E0,1.7223358E-2,-3.588167E-1,-3.459749E-1,-9.8873043E-1,2.4966526E0,3.553855E-2,1.125266E-1,1.1388642E0,2.8666928E0,6.93689E-1,-1.9587113E0,-7.653256E-2,1.0211294E0,-4.903746E-1,-5.91362E-1,1.9288354E0,-1.2555726E0,-1.01235874E-1,5.1843276E0,1.3911215E0,-8.833752E-2,1.5161585E0,2.8132467E0,4.8804745E-1,-6.835556E-3,6.1749804E-1,2.0802283E0,4.2044392E-1],"split_indices":[0,0,0,0,4,1,0,2,3,2,3,1,0,4,1,1,4,1,4,2,2,1,4,1,1,4,0,3,1,0,0,0,3,1,0,1,1,4,4,4,0,1,2,3,3,2,4,4,3,3,3,0,0,1,0,0,1,0,0,0,0,0,0,0,0,0,0,0,0,0,0,0,0,0,0,0,0,0,0,0,0,0,0,0,0,0,0,0,0,0,0,0,0,0,0,0,0,0,0,0,0,0,0,0,0,0,0,0,0,0,0],"split_type":[0,0,0,0,0,0,0,0,0,0,0,0,0,0,0,0,0,0,0,0,0,0,0,0,0,0,0,0,0,0,0,0,0,0,0,0,0,0,0,0,0,0,0,0,0,0,0,0,0,0,0,0,0,0,0,0,0,0,0,0,0,0,0,0,0,0,0,0,0,0,0,0,0,0,0,0,0,0,0,0,0,0,0,0,0,0,0,0,0,0,0,0,0,0,0,0,0,0,0,0,0,0,0,0,0,0,0,0,0,0,0],"sum_hessian":[9.52E2,7.48E2,2.04E2,3.98E2,3.5E2,1.77E2,2.7E1,1.13E2,2.85E2,2.12E2,1.38E2,1.56E2,2.1E1,2.3E1,4E0,1.05E2,8E0,1.4E2,1.45E2,1.82E2,3E1,1.5E1,1.23E2,1.09E2,4.7E1,1.3E1,8E0,2E1,3E0,1E0,3E0,2E0,1.03E2,3E0,5E0,8.2E1,5.8E1,1.06E2,3.9E1,1.81E2,1E0,1.4E1,1.6E1,1E1,5E0,1.01E2,2.2E1,8.9E1,2E1,7E0,4E1,1.1E1,2E0,5E0,3E0,1.7E1,3E0,2E0,1E0,1E0,1E0,1.01E2,2E0,2E0,1E0,1E0,4E0,8E1,2E0,4.1E1,1.7E1,2E1,8.6E1,2E1,1.9E1,3.7E1,1.44E2,1E0,1.3E1,5E0,1.1E1,2E0,8E0,1E0,4E0,6.4E1,3.7E1,2E0,2E1,3.4E1,5.5E1,1.3E1,7E0,5E0,2E0,2.3E1,1.7E1,1E0,1E1,1E0,1E0,4E0,1E0,1E0,2E0,1.5E1,2E0,1E0,2E0,1E0,1E0],"tree_param":{"num_deleted":"0","num_feature":"5","num_nodes":"111","size_leaf_vector":"1"}},{"base_weights":[7.480399E-2,-1.0813082E0,1.9237497E0,-1.6522539E0,-4.5368677E-1,1.5373591E0,6.5469303E0,-1.4044707E0,-2.8403358E0,-7.1004316E-2,-1.6284357E0,1.9723476E0,-1.5959489E0,5.1230545E0,1.3809422E1,-1.7156653E-1,-1.7332095E0,-5.937465E-1,-3.4285977E0,-4.224551E-1,2.0869272E0,-2.8213408E0,-7.515397E-2,1.8508135E0,1.0472786E1,-1.0244976E0,-4.853907E0,7.292805E-1,5.6890564E0,3.127865E-1,5.3152447E0,1.6555029E0,-1.1818393E0,-2.5745552E0,-1.1719018E0,-2.1324859E0,1.41999E0,-3.820945E0,-1.3325472E0,6.584915E-1,-1.2420101E0,4.145402E0,2.667433E-2,-9.6999E-1,-3.8192976E0,-8.054475E-1,3.8834622E0,1.2340231E0,3.3425806E0,-6.758601E-1,6.587809E0,-4.7333207E0,-5.5803317E-1,-1.7767954E-1,-1.6763347E0,7.143831E-1,-1.8454322E-1,1.0049519E1,4.1617584E0,6.106027E-1,-8.3421683E-1,-1.761679E-1,-7.4395454E-1,-9.0962374E-1,-4.5230848E-1,-4.5077628E-1,2.5217277E-1,7.163676E-1,-1.06832E0,-1.2209355E0,-5.9441894E-1,4.599331E-1,-7.629854E-1,6.6888916E-1,-8.358585E-2,-2.1086575E-2,-5.6355923E-1,3.364725E-2,1.8452426E0,1.5380601E0,-3.2043883E-1,-5.362732E-1,1.5714346E0,-1.8953718E0,-8.0932266E-1,9.3276316E-1,-4.2729908E-1,2.4631998E-1,1.6954112E0,6.4103234E-1,4.5308787E-2,7.18217E-1,2.41491E0,5.8201677E-1,-8.861538E-1,-4.3029786E-4,-1.8930415E0,-7.4000883E-1,1.3861598E-1,3.47043E0,5.9627956E-1,2.1400065E0,1.19270004E-1],"categories":[],"categories_nodes":[],"categories_segments":[],"categories_sizes":[],"default_left":[0,0,0,0,0,0,0,0,0,0,0,0,0,0,0,0,0,0,0,0,0,0,0,0,0,0,0,0,0,0,0,0,0,0,0,0,0,0,0,0,0,0,0,0,0,0,0,0,0,0,0,0,0,0,0,0,0,0,0,0,0,0,0,0,0,0,0,0,0,0,0,0,0,0,0,0,0,0,0,0,0,0,0,0,0,0,0,0,0,0,0,0,0,0,0,0,0,0,0,0,0,0,0],"id":4,"left_children":[1,3,5,7,9,11,13,15,17,19,21,23,25,27,29,31,33,35,37,39,41,43,45,47,49,51,53,55,57,-1,-1,59,61,63,65,67,-1,69,71,73,75,77,79,81,83,85,87,89,91,93,-1,95,97,-1,-1,-1,-1,99,101,-1,-1,-1,-1,-1,-1,-1,-1,-1,-1,-1,-1,-1,-1,-1,-1,-1,-1,-1,-1,-1,-1,-1,-1,-1,-1,-1,-1,-1,-1,-1,-1,-1,-1,-1,-1,-1,-1,-1,-1,-1,-1,-1,-1],"loss_changes":[2.0392023E3,2.095946E2,6.4552686E2,8.6387634E1,1.26209564E2,4.6655176E2,2.1879822E2,1.0346039E2,6.6686615E1,1.6242227E2,1.2763925E2,2.8951172E2,7.32213E1,5.8023193E1,1.8110101E2,1.0347767E2,9.237811E1,1.0845692E2,2.8625946E1,1.6382254E2,1.2711876E2,6.8350525E1,9.274743E1,2.682271E2,5.2708057E2,6.1369907E1,1.5455627E1,1.0348768E1,1.0469025E2,0E0,0E0,3.9360783E1,2.6329037E1,3.447766E1,8.311926E1,7.30807E1,0E0,7.499756E0,3.165561E1,1.1840775E2,7.817961E1,1.2063455E2,9.481551E1,8.549854E1,5.30141E1,6.984182E1,2.243003E1,2.0596649E2,3.6470276E2,2.3607685E1,0E0,2.9836235E1,6.733778E1,0E0,0E0,0E0,0E0,3.8220642E1,1.9850586E2,0E0,0E0,0E0,0E0,0E0,0E0,0E0,0E0,0E0,0E0,0E0,0E0,0E0,0E0,0E0,0E0,0E0,0E0,0E0,0E0,0E0,0E0,0E0,0E0,0E0,0E0,0E0,0E0,0E0,0E0,0E0,0E0,0E0,0E0,0E0,0E0,0E0,0E0,0E0,0E0,0E0,0E0,0E0,0E0],"parents":[2147483647,0,0,1,1,2,2,3,3,4,4,5,5,6,6,7,7,8,8,9,9,10,10,11,11,12,12,13,13,14,14,15,15,16,16,17,17,18,18,19,19,20,20,21,21,22,22,23,23,24,24,25,25,26,26,27,27,28,28,31,31,32,32,33,33,34,34,35,35,37,37,38,38,39,39,40,40,41,41,42,42,43,43,44,44,45,45,46,46,47,47,48,48,49,49,51,51,52,52,57,57,58,58],"right_children":[2,4,6,8,10,12,14,16,18,20,22,24,26,28,30,32,34,36,38,40,42,44,46,48,50,52,54,56,58,-1,-1,60,62,64,66,68,-1,70,72,74,76,78,80,82,84,86,88,90,92,94,-1,96,98,-1,-1,-1,-1,100,102,-1,-1,-1,-1,-1,-1,-1,-1,-1,-1,-1,-1,-1,-1,-1,-1,-1,-1,-1,-1,-1,-1,-1,-1,-1,-1,-1,-1,-1,-1,-1,-1,-1,-1,-1,-1,-1,-1,-1,-1,-1,-1,-1,-1],"split_conditions":[1.9E1,1.3E1,4.2E1,2.3157824E1,1.5000001E0,2.4569832E1,7.1E1,1.1495E0,8E0,2.167487E1,8.395333E0,2.4491245E1,3.3E1,1.3908328E-1,2.4265833E0,1.5956163E1,9E0,2.9522196E1,1.139325E1,1.3896187E1,2.3795427E1,-3.13E-1,2.413477E1,3.1E1,2.4E1,2.4766848E1,1E-1,-2.838E0,4.4E1,3.127865E-1,5.3152447E0,3.4675946E2,2.953922E2,1.7429354E1,1.7826584E1,2.472495E1,1.41999E0,3.155174E2,2.2653258E2,1.4890834E0,1.8493115E2,1.5E1,1.4E1,-6.671667E-1,2.1000001E0,1.1624499E1,2.6000001E0,5.7994995E0,1.7764082E1,2.1E1,6.587809E0,2.2E1,2.2E1,-1.7767954E-1,-1.6763347E0,7.143831E-1,-1.8454322E-1,8.94325E0,1.8350954E2,6.106027E-1,-8.3421683E-1,-1.761679E-1,-7.4395454E-1,-9.0962374E-1,-4.5230848E-1,-4.5077628E-1,2.5217277E-1,7.163676E-1,-1.06832E0,-1.2209355E0,-5.9441894E-1,4.599331E-1,-7.629854E-1,6.6888916E-1,-8.358585E-2,-2.1086575E-2,-5.6355923E-1,3.364725E-2,1.8452426E0,1.5380601E0,-3.2043883E-1,-5.362732E-1,1.5714346E0,-1.8953718E0,-8.0932266E-1,9.3276316E-1,-4.2729908E-1,2.4631998E-1,1.6954112E0,6.4103234E-1,4.5308787E-2,7.18217E-1,2.41491E0,5.8201677E-1,-8.861538E-1,-4.3029786E-4,-1.8930415E0,-7.4000883E-1,1.3861598E-1,3.47043E0,5.9627956E-1,2.1400065E0,1.19270004E-1],"split_indices":[0,0,0,3,2,3,0,1,0,3,1,3,0,1,1,3,0,3,1,3,3,1,3,0,0,3,2,1,0,0,0,4,4,3,1,3,0,4,4,1,4,0,0,1,2,1,2,1,1,0,0,0,0,0,0,0,0,1,4,0,0,0,0,0,0,0,0,0,0,0,0,0,0,0,0,0,0,0,0,0,0,0,0,0,0,0,0,0,0,0,0,0,0,0,0,0,0,0,0,0,0,0,0],"split_type":[0,0,0,0,0,0,0,0,0,0,0,0,0,0,0,0,0,0,0,0,0,0,0,0,0,0,0,0,0,0,0,0,0,0,0,0,0,0,0,0,0,0,0,0,0,0,0,0,0,0,0,0,0,0,0,0,0,0,0,0,0,0,0,0,0,0,0,0,0,0,0,0,0,0,0,0,0,0,0,0,0,0,0,0,0,0,0,0,0,0,0,0,0,0,0,0,0,0,0,0,0,0,0],"sum_hessian":[9.52E2,5.86E2,3.66E2,3.06E2,2.8E2,3.39E2,2.7E1,2.55E2,5.1E1,2.12E2,6.8E1,2.98E2,4.1E1,2.4E1,3E0,5.4E1,2.01E2,1.1E1,4E1,1.83E2,2.9E1,3.8E1,3E1,2.95E2,3E0,3.6E1,5E0,3E0,2.1E1,1E0,2E0,1.9E1,3.5E1,7.9E1,1.22E2,9E0,2E0,3.3E1,7E0,7.9E1,1.04E2,1.4E1,1.5E1,1.4E1,2.4E1,2.6E1,4E0,2.1E2,8.5E1,2E0,1E0,3E0,3.3E1,1E0,4E0,1E0,2E0,4E0,1.7E1,1.8E1,1E0,2.5E1,1E1,5.4E1,2.5E1,1.05E2,1.7E1,2E0,7E0,2.8E1,5E0,2E0,5E0,2.9E1,5E1,3.7E1,6.7E1,5E0,9E0,2E0,1.3E1,1.3E1,1E0,6E0,1.8E1,3E0,2.3E1,2E0,2E0,1.14E2,9.6E1,7.2E1,1.3E1,1E0,1E0,1E0,2E0,1.1E1,2.2E1,3E0,1E0,9E0,8E0],"tree_param":{"num_deleted":"0","num_feature":"5","num_nodes":"103","size_leaf_vector":"1"}},{"base_weights":[7.162626E-2,-4.5029804E-1,2.2407515E0,-9.686647E-1,2.6464587E-1,2.034311E0,1.1073604E1,-2.407883E0,-8.5160464E-1,7.7654594E-1,-9.7747684E-1,1.6570978E0,5.598022E0,2.6586857E-1,4.252196E0,-2.6319966E0,7.1456397E-1,-5.4412454E-1,-1.2522398E0,1.4112318E0,-3.227563E-1,-4.393384E0,-6.1287177E-1,5.2723374E0,1.3411548E0,8.686346E0,2.5675611E0,-9.327574E-1,-3.0704734E0,-7.229949E-1,3.1803148E0,2.8205413E-1,-1.4579501E0,-8.6777455E-1,1.9356095E0,1.1441456E0,-2.0016246E0,-5.306261E0,4.364448E-1,5.1750355E0,-8.099406E-1,3.6588187E0,2.136661E0,-1.5787537E0,2.0025532E0,7.9064626E-1,1.02640505E1,2.6416826E0,8.960438E-1,-5.7984024E-1,1.6514583E-1,-9.560857E-1,-4.1247226E-2,-3.9490354E-1,-3.218885E-2,-4.1506436E-2,1.7906797E0,3.3061713E-1,-4.897596E-1,-8.49564E-1,-3.6446226E-1,1.6487564E-1,-1.3439618E0,8.7810725E-1,7.207143E-2,8.907175E-2,9.815977E-1,-8.440238E-1,-2.2134846E-1,-1.6846784E0,-4.7113925E-1,2.7022915E0,-3.7352544E-1,-1.7305449E-1,-1.1348544E0,1.382592E0,-5.9096265E-1,-3.3014977E-1,-1.6070383E0,4.250982E0,4.7717547E-1,3.3347976E0,9.006515E-1,-3.0160677E-1,4.7487694E-1],"categories":[],"categories_nodes":[],"categories_segments":[],"categories_sizes":[],"default_left":[0,0,0,0,0,0,0,0,0,0,0,0,0,0,0,0,0,0,0,0,0,0,0,0,0,0,0,0,0,0,0,0,0,0,0,0,0,0,0,0,0,0,0,0,0,0,0,0,0,0,0,0,0,0,0,0,0,0,0,0,0,0,0,0,0,0,0,0,0,0,0,0,0,0,0,0,0,0,0,0,0,0,0,0,0],"id":5,"left_children":[1,3,5,7,9,11,13,15,17,19,21,23,25,-1,-1,27,-1,29,31,33,35,37,39,41,43,45,47,49,51,53,55,57,59,61,63,65,67,69,-1,71,73,75,-1,77,79,-1,81,-1,83,-1,-1,-1,-1,-1,-1,-1,-1,-1,-1,-1,-1,-1,-1,-1,-1,-1,-1,-1,-1,-1,-1,-1,-1,-1,-1,-1,-1,-1,-1,-1,-1,-1,-1,-1,-1],"loss_changes":[1.0799186E3,2.8525012E2,3.148125E2,7.3089294E1,2.0677208E2,2.3538232E2,1.1377765E2,4.1693024E1,5.0318176E1,1.6092915E2,1.1562585E2,1.825358E2,1.3680103E2,0E0,0E0,2.097847E1,0E0,1.5952066E2,5.6907227E1,1.7615842E2,2.1162262E2,5.5767822E1,1.0342508E2,1.2743469E1,3.0056985E2,4.9321045E1,9.637983E1,1.2930441E1,8.102585E0,8.242219E1,1.02625336E2,3.63384E1,4.932675E1,1.4581209E2,1.9931396E2,8.195715E1,3.896158E1,4.2575073E-1,0E0,8.5032585E1,5.671963E1,5.7194725E1,0E0,4.6503937E1,6.0904626E2,0E0,3.7479858E0,0E0,1.3345689E1,0E0,0E0,0E0,0E0,0E0,0E0,0E0,0E0,0E0,0E0,0E0,0E0,0E0,0E0,0E0,0E0,0E0,0E0,0E0,0E0,0E0,0E0,0E0,0E0,0E0,0E0,0E0,0E0,0E0,0E0,0E0,0E0,0E0,0E0,0E0,0E0],"parents":[2147483647,0,0,1,1,2,2,3,3,4,4,5,5,6,6,7,7,8,8,9,9,10,10,11,11,12,12,15,15,17,17,18,18,19,19,20,20,21,21,22,22,23,23,24,24,25,25,26,26,27,27,28,28,29,29,30,30,31,31,32,32,33,33,34,34,35,35,36,36,37,37,39,39,40,40,41,41,43,43,44,44,46,46,48,48],"right_children":[2,4,6,8,10,12,14,16,18,20,22,24,26,-1,-1,28,-1,30,32,34,36,38,40,42,44,46,48,50,52,54,56,58,60,62,64,66,68,70,-1,72,74,76,-1,78,80,-1,82,-1,84,-1,-1,-1,-1,-1,-1,-1,-1,-1,-1,-1,-1,-1,-1,-1,-1,-1,-1,-1,-1,-1,-1,-1,-1,-1,-1,-1,-1,-1,-1,-1,-1,-1,-1,-1,-1],"split_conditions":[2.7E1,1.6E1,7.1E1,7E0,2.0188908E1,1.84745E1,2.4265833E0,4E0,2.3819313E2,2.3433409E2,2.0598795E1,1.0464798E1,1.5191035E2,2.6586857E-1,4.252196E0,2.6161668E0,7.1456397E-1,2.3168883E2,1.2245293E1,6.049269E1,3.1390831E0,1.6882833E1,2.0656126E1,2.6968604E2,5.4325E-1,3.1E1,1.8641165E1,6E0,1.8345331E1,1.5000421E2,6E-1,1.4E1,2.5290634E2,4.3311802E1,1.0387001E1,2.2E1,1.3474499E1,2.5716965E2,4.364448E-1,2.4E1,1.7334917E1,1.22630936E2,2.136661E0,4.899999E0,1.0370001E0,7.9064626E-1,1.9586996E1,2.6416826E0,1.6728572E2,-5.7984024E-1,1.6514583E-1,-9.560857E-1,-4.1247226E-2,-3.9490354E-1,-3.218885E-2,-4.1506436E-2,1.7906797E0,3.3061713E-1,-4.897596E-1,-8.49564E-1,-3.6446226E-1,1.6487564E-1,-1.3439618E0,8.7810725E-1,7.207143E-2,8.907175E-2,9.815977E-1,-8.440238E-1,-2.2134846E-1,-1.6846784E0,-4.7113925E-1,2.7022915E0,-3.7352544E-1,-1.7305449E-1,-1.1348544E0,1.382592E0,-5.9096265E-1,-3.3014977E-1,-1.6070383E0,4.250982E0,4.7717547E-1,3.3347976E0,9.006515E-1,-3.0160677E-1,4.7487694E-1],"split_indices":[0,0,0,0,3,1,1,2,4,4,3,3,4,0,0,1,0,4,3,4,1,1,3,4,1,0,1,0,1,4,2,0,4,4,1,0,1,4,0,0,1,4,0,2,1,0,1,0,4,0,0,0,0,0,0,0,0,0,0,0,0,0,0,0,0,0,0,0,0,0,0,0,0,0,0,0,0,0,0,0,0,0,0,0,0],"split_type":[0,0,0,0,0,0,0,0,0,0,0,0,0,0,0,0,0,0,0,0,0,0,0,0,0,0,0,0,0,0,0,0,0,0,0,0,0,0,0,0,0,0,0,0,0,0,0,0,0,0,0,0,0,0,0,0,0,0,0,0,0,0,0,0,0,0,0,0,0,0,0,0,0,0,0,0,0,0,0,0,0,0,0,0,0],"sum_hessian":[9.52E2,7.68E2,1.84E2,4.45E2,3.23E2,1.81E2,3E0,3.2E1,4.13E2,2.29E2,9.4E1,1.65E2,1.6E1,1E0,2E0,3.1E1,1E0,2.35E2,1.78E2,1.45E2,8.4E1,8E0,8.6E1,1.2E1,1.53E2,7E0,9E0,7E0,2.4E1,2.25E2,1E1,2.1E1,1.57E2,2.7E1,1.18E2,4.5E1,3.9E1,7E0,1E0,2E0,8.4E1,8E0,4E0,2.8E1,1.25E2,2E0,5E0,1E0,8E0,4E0,3E0,2.3E1,1E0,1.14E2,1.11E2,5E0,5E0,1.5E1,6E0,2.2E1,1.35E2,2E1,7E0,7.4E1,4.4E1,3.3E1,1.2E1,2.3E1,1.6E1,6E0,1E0,1E0,1E0,7.9E1,5E0,7E0,1E0,2.6E1,2E0,3E0,1.22E2,4E0,1E0,2E0,6E0],"tree_param":{"num_deleted":"0","num_feature":"5","num_nodes":"85","size_leaf_vector":"1"}},{"base_weights":[6.735523E-2,-2.1831098E-1,2.2813058E0,-5.901198E-1,4.768922E-1,2.5809264E0,-4.46699E0,4.798283E-1,-7.002141E-1,1.1445717E0,-2.1234617E-1,-2.2649293E0,3.0588183E0,-2.2532974E-1,-5.208188E0,3.1105072E0,1.489173E-3,-4.504423E-1,-1.2091951E0,3.6647537E-1,7.6382227E0,7.986865E-1,-1.6748044E0,-6.342373E-1,-1.7575396E0,3.9582403E0,1.3781618E0,-4.716817E-1,-1.7688208E0,5.4581946E-1,1.6616222E0,-7.566728E-1,1.4229498E0,-1.247704E0,-1.8917502E-1,-6.626193E-1,-1.8649951E0,1.6355957E0,-8.711701E-1,1.6072569E1,2.3432863E0,5.269454E0,5.1974046E-1,-2.9356396E-1,-2.874216E0,9.385564E-1,-1.0705236E0,4.252314E0,-9.7279304E-1,-2.7816076E0,2.5174472E0,-1.0380497E-1,3.7671474E-1,1.06667675E-1,-7.363951E-1,1.2301186E0,1.4689885E-1,3.242846E-1,-4.4292244E-1,1.401286E-1,-3.0937865E-1,-1.0120666E-1,-6.1758876E-1,-6.915599E-1,-2.3659912E-1,2.003913E-1,1.5753103E0,-1.1991755E0,4.439173E-2,5.610468E0,4.39143E-1,1.1917787E0,-4.503459E-1,2.1681204E0,-3.8414985E-1,6.770681E-1,-9.367195E-2,-7.489442E-1,6.735072E-1,-3.1357193E-1,-1.2211825E0,-5.154259E-1,5.4405063E-1,5.225758E-1,1.4728849E0,-1.8663172E0,6.6393185E-1,1.750546E-1,1.4112065E0],"categories":[],"categories_nodes":[],"categories_segments":[],"categories_sizes":[],"default_left":[0,0,0,0,0,0,0,0,0,0,0,0,0,0,0,0,0,0,0,0,0,0,0,0,0,0,0,0,0,0,0,0,0,0,0,0,0,0,0,0,0,0,0,0,0,0,0,0,0,0,0,0,0,0,0,0,0,0,0,0,0,0,0,0,0,0,0,0,0,0,0,0,0,0,0,0,0,0,0,0,0,0,0,0,0,0,0,0,0],"id":6,"left_children":[1,3,5,7,9,11,13,15,17,19,21,23,25,-1,27,29,31,33,35,37,39,41,43,45,-1,47,49,-1,-1,51,-1,53,55,57,59,61,63,65,67,69,71,73,75,77,79,81,-1,83,-1,85,87,-1,-1,-1,-1,-1,-1,-1,-1,-1,-1,-1,-1,-1,-1,-1,-1,-1,-1,-1,-1,-1,-1,-1,-1,-1,-1,-1,-1,-1,-1,-1,-1,-1,-1,-1,-1,-1,-1],"loss_changes":[6.0322375E2,2.1869925E2,2.3191925E2,6.5241165E1,1.3599918E2,2.5008655E2,9.859192E0,6.542992E1,6.3019897E1,7.5510364E2,2.1721223E2,5.4883846E1,1.3966034E2,0E0,7.3407745E-1,4.679812E1,4.9573093E1,6.9960526E1,5.7549103E1,2.134722E2,6.7688666E2,1.0575923E2,9.855679E1,4.0267967E1,0E0,1.4507928E2,1.7287332E2,0E0,0E0,3.6000533E0,0E0,5.7529114E1,3.7973385E1,4.579944E1,1.4140408E2,4.0626E1,3.324362E1,2.3088443E2,2.2042014E2,2.0306213E2,7.486504E1,7.336563E1,1.206627E2,1.677813E2,6.5766754E1,1.7062263E1,0E0,9.0453125E1,0E0,1.512004E2,1.15658356E2,0E0,0E0,0E0,0E0,0E0,0E0,0E0,0E0,0E0,0E0,0E0,0E0,0E0,0E0,0E0,0E0,0E0,0E0,0E0,0E0,0E0,0E0,0E0,0E0,0E0,0E0,0E0,0E0,0E0,0E0,0E0,0E0,0E0,0E0,0E0,0E0,0E0,0E0],"parents":[2147483647,0,0,1,1,2,2,3,3,4,4,5,5,6,6,7,7,8,8,9,9,10,10,11,11,12,12,14,14,15,15,16,16,17,17,18,18,19,19,20,20,21,21,22,22,23,23,25,25,26,26,29,29,31,31,32,32,33,33,34,34,35,35,36,36,37,37,38,38,39,39,40,40,41,41,42,42,43,43,44,44,45,45,47,47,49,49,50,50],"right_children":[2,4,6,8,10,12,14,16,18,20,22,24,26,-1,28,30,32,34,36,38,40,42,44,46,-1,48,50,-1,-1,52,-1,54,56,58,60,62,64,66,68,70,72,74,76,78,80,82,-1,84,-1,86,88,-1,-1,-1,-1,-1,-1,-1,-1,-1,-1,-1,-1,-1,-1,-1,-1,-1,-1,-1,-1,-1,-1,-1,-1,-1,-1,-1,-1,-1,-1,-1,-1,-1,-1,-1,-1,-1,-1],"split_conditions":[3.2E1,1.8E1,2.6882141E1,1.1212135E1,2.0415854E2,3.1811514E1,5.4325E-1,-4.0049997E-1,2.6470956E2,1.9470409E2,8.089084E0,1.3E0,2.2184477E2,-2.2532974E-1,9.000001E-1,8.905908E0,1.0163227E1,1.02197685E2,4.8869996E0,1.5192682E1,1.9934985E2,-8.646334E0,3E-1,1.7566378E1,-1.7575396E0,1.0700001E1,2.2967117E2,-4.716817E-1,-1.7688208E0,1.6E1,1.6616222E0,9.3876505E0,1.0594036E1,6.2856364E0,1.1747415E1,9E-1,1.3474499E1,1.5369553E2,1.6766108E1,9.2161665E0,1.6391863E1,1.3443481E1,2.4314958E2,1.8129137E1,2.3E1,-1.4004999E0,-1.0705236E0,1.1726277E1,-9.7279304E-1,1.8511143E1,3.8E1,-1.0380497E-1,3.7671474E-1,1.06667675E-1,-7.363951E-1,1.2301186E0,1.4689885E-1,3.242846E-1,-4.4292244E-1,1.401286E-1,-3.0937865E-1,-1.0120666E-1,-6.1758876E-1,-6.915599E-1,-2.3659912E-1,2.003913E-1,1.5753103E0,-1.1991755E0,4.439173E-2,5.610468E0,4.39143E-1,1.1917787E0,-4.503459E-1,2.1681204E0,-3.8414985E-1,6.770681E-1,-9.367195E-2,-7.489442E-1,6.735072E-1,-3.1357193E-1,-1.2211825E0,-5.154259E-1,5.4405063E-1,5.225758E-1,1.4728849E0,-1.8663172E0,6.6393185E-1,1.750546E-1,1.4112065E0],"split_indices":[0,0,3,3,4,4,1,1,4,4,1,2,4,0,2,3,3,4,1,3,4,1,2,3,0,2,4,0,0,0,0,3,3,4,1,2,1,4,3,1,3,3,4,3,0,1,0,3,0,3,0,0,0,0,0,0,0,0,0,0,0,0,0,0,0,0,0,0,0,0,0,0,0,0,0,0,0,0,0,0,0,0,0,0,0,0,0,0,0],"split_type":[0,0,0,0,0,0,0,0,0,0,0,0,0,0,0,0,0,0,0,0,0,0,0,0,0,0,0,0,0,0,0,0,0,0,0,0,0,0,0,0,0,0,0,0,0,0,0,0,0,0,0,0,0,0,0,0,0,0,0,0,0,0,0,0,0,0,0,0,0,0,0,0,0,0,0,0,0,0,0,0,0,0,0,0,0,0,0,0,0],"sum_hessian":[9.52E2,8.44E2,1.08E2,5.5E2,2.94E2,1.04E2,4E0,5.1E1,4.99E2,1.49E2,1.45E2,9E0,9.5E1,1E0,3E0,7E0,4.4E1,3.36E2,1.63E2,1.34E2,1.5E1,8.6E1,5.9E1,7E0,2E0,6.1E1,3.4E1,1E0,2E0,4E0,3E0,2.9E1,1.5E1,8.2E1,2.54E2,9E1,7.3E1,6.6E1,6.8E1,5E0,1E1,4E0,8.2E1,2.8E1,3.1E1,5E0,2E0,5.9E1,2E0,7E0,2.7E1,2E0,2E0,1.8E1,1.1E1,3E0,1.2E1,7E0,7.5E1,1.43E2,1.11E2,7.4E1,1.6E1,5.1E1,2.2E1,5.3E1,1.3E1,1.6E1,5.2E1,4E0,1E0,7E0,3E0,3E0,1E0,2.6E1,5.6E1,1.5E1,1.3E1,1.3E1,1.8E1,1E0,4E0,1.3E1,4.6E1,4E0,3E0,1.5E1,1.2E1],"tree_param":{"num_deleted":"0","num_feature":"5","num_nodes":"89","size_leaf_vector":"1"}},{"base_weights":[5.245545E-2,-2.3039168E-1,1.2278986E0,-6.3890713E-1,4.097903E-2,1.0772294E0,7.776374E0,-1.1150258E-1,-9.007792E-1,-1.03427924E-1,6.662715E-1,7.6042026E-1,4.107411E0,5.0554276E-3,3.1071794E0,2.1257994E0,-4.5828843E-1,-2.209716E0,-7.3134565E-1,1.6335481E-1,-2.3551564E0,7.7962303E0,2.2872855E-1,1.4149182E0,-3.320908E-1,5.636253E0,1.1181723E0,3.1307487E0,-3.0925885E-1,-1.2840056E-1,-1.9759948E0,1.8495113E-1,-2.3662035E0,-1.3653035E-1,-1.0737258E0,-5.8327273E-2,2.2140024E0,-3.8177829E0,-1.5919671E0,4.0718958E-1,1.1636418E1,-6.02812E-1,2.1820152E0,7.4634063E-1,4.021851E0,-5.40983E0,1.1959998E-2,7.604243E0,2.7288873E0,-7.305956E-1,8.0621916E-1,-5.2310115E-1,1.1598276E0,-3.0566844E-1,1.5103903E-1,-3.9221624E-1,2.807693E-1,-8.0151933E-1,-1.1134372E-1,-2.1687414E-1,-8.421E-1,-7.65134E-2,7.5488836E-1,-4.7610894E-1,-1.9396918E-1,3.7655186E-2,-6.977616E-1,1.5760976E0,6.80645E-2,2.2193028E-1,-1.2777679E0,-7.884576E-1,-2.3006077E-1,4.550166E0,6.8622255E-1,1.5283565E-1,-7.9192203E-1,3.4073043E-1,2.217261E0,4.5651683E-1,-4.128808E-1,1.8598114E0,-8.746212E-2,-4.6374667E-1,-1.8547677E0,4.6576673E-1,-4.741163E-1,2.7536154E0,8.9105874E-1,-3.2574035E-2,1.6807646E0,2.9819727E-1,-4.9103642E-1],"categories":[],"categories_nodes":[],"categories_segments":[],"categories_sizes":[],"default_left":[0,0,0,0,0,0,0,0,0,0,0,0,0,0,0,0,0,0,0,0,0,0,0,0,0,0,0,0,0,0,0,0,0,0,0,0,0,0,0,0,0,0,0,0,0,0,0,0,0,0,0,0,0,0,0,0,0,0,0,0,0,0,0,0,0,0,0,0,0,0,0,0,0,0,0,0,0,0,0,0,0,0,0,0,0,0,0,0,0,0,0,0,0],"id":7,"left_children":[1,3,5,7,9,11,13,15,17,19,21,23,25,-1,-1,27,29,31,33,35,37,39,41,43,45,47,49,51,53,55,57,-1,59,61,63,65,67,69,71,-1,73,75,77,79,81,83,85,87,89,91,-1,-1,-1,-1,-1,-1,-1,-1,-1,-1,-1,-1,-1,-1,-1,-1,-1,-1,-1,-1,-1,-1,-1,-1,-1,-1,-1,-1,-1,-1,-1,-1,-1,-1,-1,-1,-1,-1,-1,-1,-1,-1,-1],"loss_changes":[3.1712753E2,8.5276855E1,1.7415399E2,4.2300087E1,4.187623E1,1.7159465E2,7.993138E1,8.088829E1,4.384839E1,2.2685701E2,2.6962747E2,1.19167534E2,7.138895E1,0E0,0E0,3.5227745E1,4.4806843E1,1.1630928E1,3.7121902E1,1.5378117E2,3.8572662E1,1.0783945E2,1.3612701E2,1.7826373E2,1.1012572E2,4.2187195E1,2.2271328E1,4.2584915E1,3.396661E0,9.533309E1,1.6873222E1,0E0,1.3906616E1,2.2020811E1,2.4408493E1,1.2785591E2,1.9813344E2,2.9305542E1,2.1924156E1,0E0,6.433484E1,1.3501535E2,1.2784942E2,1.4034433E2,1.9904984E2,2.386177E0,1.496435E2,1.6514557E1,4.953183E1,7.8781815E0,0E0,0E0,0E0,0E0,0E0,0E0,0E0,0E0,0E0,0E0,0E0,0E0,0E0,0E0,0E0,0E0,0E0,0E0,0E0,0E0,0E0,0E0,0E0,0E0,0E0,0E0,0E0,0E0,0E0,0E0,0E0,0E0,0E0,0E0,0E0,0E0,0E0,0E0,0E0,0E0,0E0,0E0,0E0],"parents":[2147483647,0,0,1,1,2,2,3,3,4,4,5,5,6,6,7,7,8,8,9,9,10,10,11,11,12,12,15,15,16,16,17,17,18,18,19,19,20,20,21,21,22,22,23,23,24,24,25,25,26,26,27,27,28,28,29,29,30,30,32,32,33,33,34,34,35,35,36,36,37,37,38,38,40,40,41,41,42,42,43,43,44,44,45,45,46,46,47,47,48,48,49,49],"right_children":[2,4,6,8,10,12,14,16,18,20,22,24,26,-1,-1,28,30,32,34,36,38,40,42,44,46,48,50,52,54,56,58,-1,60,62,64,66,68,70,72,-1,74,76,78,80,82,84,86,88,90,92,-1,-1,-1,-1,-1,-1,-1,-1,-1,-1,-1,-1,-1,-1,-1,-1,-1,-1,-1,-1,-1,-1,-1,-1,-1,-1,-1,-1,-1,-1,-1,-1,-1,-1,-1,-1,-1,-1,-1,-1,-1,-1,-1],"split_conditions":[2.7E1,1.3E1,7.1E1,1.5021105E1,1.4691166E1,1.84745E1,2.4265833E0,6.974166E-1,1.584409E1,1.2216167E1,1.4851585E1,8.137E0,1.9691166E1,5.0554276E-3,3.1071794E0,1.1E1,1.2E1,1.0261339E1,1.8556595E1,9.953666E0,1.2964082E1,1.8E1,1.3E0,5.1619997E0,4.3311802E1,1E-1,1.0000001E0,6E0,-6.0213337E0,9E0,3E-1,1.8495113E-1,8E0,1.8511143E1,3.6224165E0,4.700001E0,1.0641167E1,2.255091E1,1.4168641E1,4.0718958E-1,1.9E1,2E1,2.383624E1,2.3699493E2,1.9477463E1,8.451584E0,1.9977007E2,1.44E1,1.5956163E1,3.1E1,8.0621916E-1,-5.2310115E-1,1.1598276E0,-3.0566844E-1,1.5103903E-1,-3.9221624E-1,2.807693E-1,-8.0151933E-1,-1.1134372E-1,-2.1687414E-1,-8.421E-1,-7.65134E-2,7.5488836E-1,-4.7610894E-1,-1.9396918E-1,3.7655186E-2,-6.977616E-1,1.5760976E0,6.80645E-2,2.2193028E-1,-1.2777679E0,-7.884576E-1,-2.3006077E-1,4.550166E0,6.8622255E-1,1.5283565E-1,-7.9192203E-1,3.4073043E-1,2.217261E0,4.5651683E-1,-4.128808E-1,1.8598114E0,-8.746212E-2,-4.6374667E-1,-1.8547677E0,4.6576673E-1,-4.741163E-1,2.7536154E0,8.9105874E-1,-3.2574035E-2,1.6807646E0,2.9819727E-1,-4.9103642E-1],"split_indices":[0,0,0,3,1,1,1,1,3,1,1,1,1,0,0,0,0,4,3,1,1,0,2,1,4,2,2,0,1,0,2,0,0,3,1,2,1,4,3,0,0,0,3,4,3,1,4,3,3,0,0,0,0,0,0,0,0,0,0,0,0,0,0,0,0,0,0,0,0,0,0,0,0,0,0,0,0,0,0,0,0,0,0,0,0,0,0,0,0,0,0,0,0],"split_type":[0,0,0,0,0,0,0,0,0,0,0,0,0,0,0,0,0,0,0,0,0,0,0,0,0,0,0,0,0,0,0,0,0,0,0,0,0,0,0,0,0,0,0,0,0,0,0,0,0,0,0,0,0,0,0,0,0,0,0,0,0,0,0,0,0,0,0,0,0,0,0,0,0,0,0,0,0,0,0,0,0,0,0,0,0,0,0,0,0,0,0,0,0],"sum_hessian":[9.52E2,7.68E2,1.84E2,3.06E2,4.62E2,1.81E2,3E0,1.02E2,2.04E2,3.76E2,8.6E1,1.65E2,1.6E1,1E0,2E0,1.3E1,8.9E1,2.2E1,1.82E2,3.37E2,3.9E1,4E0,8.2E1,1.03E2,6.2E1,1E1,6E0,9E0,4E0,7.4E1,1.5E1,1E0,2.1E1,6.7E1,1.15E2,3.05E2,3.2E1,1.2E1,2.7E1,2E0,2E0,5.8E1,2.4E1,8.3E1,2E1,3E0,5.9E1,5E0,5E0,3E0,3E0,1E0,8E0,2E0,2E0,3.5E1,3.9E1,1E1,5E0,5E0,1.6E1,6.5E1,2E0,5.1E1,6.4E1,2.83E2,2.2E1,1.2E1,2E1,1E0,1.1E1,1.1E1,1.6E1,1E0,1E0,3.8E1,2E1,2.1E1,3E0,6.1E1,2.2E1,1.3E1,7E0,1E0,2E0,3E1,2.9E1,3E0,2E0,3E0,2E0,1E0,2E0],"tree_param":{"num_deleted":"0","num_feature":"5","num_nodes":"93","size_leaf_vector":"1"}},{"base_weights":[5.0960045E-2,-6.033721E-2,1.9805593E0,2.0823583E-1,-4.8649517E-1,1.2391841E0,4.9704165E0,7.121631E-2,2.2380047E0,1.2458848E0,-7.1478343E-1,2.0538416E0,-2.581672E0,1.4225497E0,3.832377E0,2.3286487E-1,-1.2459092E0,6.344697E-1,4.1025486E0,1.7241678E0,-6.462514E-1,2.2478244E0,-7.709047E-1,1.4864305E0,6.2215214E0,-4.29929E0,2.107687E-1,-1.3259665E0,1.9336197E0,-7.433664E-2,1.4268827E0,-3.2086506E0,-5.930844E-1,-4.96701E-1,4.127322E0,6.599808E0,7.803123E-1,1.0623217E0,3.659647E0,-1.1104344E0,4.6008196E-1,-1.7721748E-1,3.5046496E0,-9.0447354E-1,3.1639123E-1,-7.2718096E-1,2.1103714E0,4.2972565E-3,2.4857438E0,-1.7777398E0,-3.7190536E-1,5.8920795E-1,-3.0849782E-1,8.767602E-1,-4.18085E0,2.5401846E-2,-7.430961E-1,8.7010133E-1,2.9639177E-2,-5.2748066E-1,-1.6403054E0,-2.5683233E-1,1.6075376E0,-4.2799637E-1,7.949469E-1,1.5547968E0,-1.4101983E-2,2.6132333E0,5.3502107E-1,6.4585936E-1,-6.674689E-1,-3.4821942E-2,8.039327E-1,1.4935565E0,-5.9395317E-2,1.0188618E-1,-4.951169E-1,-6.363487E-2,-1.6112996E-2,-8.2772546E-2,1.4570416E0,-2.4962798E-1,-8.7572706E-1,1.4598359E0,-3.6009908E-2,3.9235744E-1,-4.8705113E-1,7.679114E-1,-6.5632546E-1,-1.7511144E0,1.18161395E-1],"categories":[],"categories_nodes":[],"categories_segments":[],"categories_sizes":[],"default_left":[0,0,0,0,0,0,0,0,0,0,0,0,0,0,0,0,0,0,0,0,0,0,0,0,0,0,0,0,0,0,0,0,0,0,0,0,0,0,0,0,0,0,0,0,0,0,0,0,0,0,0,0,0,0,0,0,0,0,0,0,0,0,0,0,0,0,0,0,0,0,0,0,0,0,0,0,0,0,0,0,0,0,0,0,0,0,0,0,0,0,0],"id":8,"left_children":[1,3,5,7,9,11,13,15,17,19,21,23,25,27,-1,29,31,33,35,37,39,41,43,45,47,49,51,53,-1,55,57,59,61,63,65,67,69,71,73,75,-1,77,79,81,83,85,87,-1,-1,-1,-1,-1,-1,-1,89,-1,-1,-1,-1,-1,-1,-1,-1,-1,-1,-1,-1,-1,-1,-1,-1,-1,-1,-1,-1,-1,-1,-1,-1,-1,-1,-1,-1,-1,-1,-1,-1,-1,-1,-1,-1],"loss_changes":[2.0478493E2,1.03339294E2,1.0910423E2,1.5391797E2,1.3891376E2,1.3914795E2,2.5870917E2,1.1100409E2,1.0204216E2,3.8218292E1,5.310884E1,7.5884476E1,3.9276936E1,1.18989456E2,0E0,1.7030318E2,7.113258E1,8.107029E1,1.2759387E2,3.838492E1,1.0809648E1,1.8908209E1,4.4435745E1,4.711299E1,5.1135147E1,1.7536255E1,1.070947E1,8.4992516E1,0E0,1.4156604E2,1.8561649E2,3.6256805E1,7.3464775E1,5.0598316E1,2.2270164E1,7.597073E1,3.778834E1,4.986704E1,4.168753E1,6.8242235E0,0E0,1.5380234E-3,2.1787647E1,3.708786E1,6.809489E1,1.6715727E1,5.5813515E1,0E0,0E0,0E0,0E0,0E0,0E0,0E0,3.2605614E1,0E0,0E0,0E0,0E0,0E0,0E0,0E0,0E0,0E0,0E0,0E0,0E0,0E0,0E0,0E0,0E0,0E0,0E0,0E0,0E0,0E0,0E0,0E0,0E0,0E0,0E0,0E0,0E0,0E0,0E0,0E0,0E0,0E0,0E0,0E0,0E0],"parents":[2147483647,0,0,1,1,2,2,3,3,4,4,5,5,6,6,7,7,8,8,9,9,10,10,11,11,12,12,13,13,15,15,16,16,17,17,18,18,19,19,20,20,21,21,22,22,23,23,24,24,25,25,26,26,27,27,29,29,30,30,31,31,32,32,33,33,34,34,35,35,36,36,37,37,38,38,39,39,41,41,42,42,43,43,44,44,45,45,46,46,54,54],"right_children":[2,4,6,8,10,12,14,16,18,20,22,24,26,28,-1,30,32,34,36,38,40,42,44,46,48,50,52,54,-1,56,58,60,62,64,66,68,70,72,74,76,-1,78,80,82,84,86,88,-1,-1,-1,-1,-1,-1,-1,90,-1,-1,-1,-1,-1,-1,-1,-1,-1,-1,-1,-1,-1,-1,-1,-1,-1,-1,-1,-1,-1,-1,-1,-1,-1,-1,-1,-1,-1,-1,-1,-1,-1,-1,-1,-1],"split_conditions":[3.8E1,2.3819313E2,2.399589E2,2.3168883E2,1.2015589E1,2.2184477E2,1.624394E1,2.166738E2,2E1,1E-1,-9.504666E0,7.1E1,1.933639E1,2.9704044E2,3.832377E0,1.9168721E2,2.2022968E2,2.2346113E1,1E-1,2.9892825E2,2.3E1,1.3229693E1,3.449968E2,1.1495E0,2.4265833E0,3.7786663E0,1E-1,2.70784E2,1.9336197E0,1.8493115E2,9.447417E0,2.1934377E2,2.7381308E1,8E-1,1.7E1,2.2979452E1,2.3699493E2,1.1525623E1,9.666167E0,9.3876505E0,4.6008196E-1,1.4E1,6E0,3.4E1,-4.888E0,4.655987E1,2.5223133E1,4.2972565E-3,2.4857438E0,-1.7777398E0,-3.7190536E-1,5.8920795E-1,-3.0849782E-1,8.767602E-1,4.6E1,2.5401846E-2,-7.430961E-1,8.7010133E-1,2.9639177E-2,-5.2748066E-1,-1.6403054E0,-2.5683233E-1,1.6075376E0,-4.2799637E-1,7.949469E-1,1.5547968E0,-1.4101983E-2,2.6132333E0,5.3502107E-1,6.4585936E-1,-6.674689E-1,-3.4821942E-2,8.039327E-1,1.4935565E0,-5.9395317E-2,1.0188618E-1,-4.951169E-1,-6.363487E-2,-1.6112996E-2,-8.2772546E-2,1.4570416E0,-2.4962798E-1,-8.7572706E-1,1.4598359E0,-3.6009908E-2,3.9235744E-1,-4.8705113E-1,7.679114E-1,-6.5632546E-1,-1.7511144E0,1.18161395E-1],"split_indices":[0,4,4,4,3,4,3,4,0,2,1,0,3,4,0,4,4,3,2,4,0,3,4,1,1,1,2,4,0,4,1,4,3,2,0,3,4,3,1,3,0,0,0,0,1,4,3,0,0,0,0,0,0,0,0,0,0,0,0,0,0,0,0,0,0,0,0,0,0,0,0,0,0,0,0,0,0,0,0,0,0,0,0,0,0,0,0,0,0,0,0],"split_type":[0,0,0,0,0,0,0,0,0,0,0,0,0,0,0,0,0,0,0,0,0,0,0,0,0,0,0,0,0,0,0,0,0,0,0,0,0,0,0,0,0,0,0,0,0,0,0,0,0,0,0,0,0,0,0,0,0,0,0,0,0,0,0,0,0,0,0,0,0,0,0,0,0,0,0,0,0,0,0,0,0,0,0,0,0,0,0,0,0,0,0],"sum_hessian":[9.52E2,9.01E2,5.1E1,5.53E2,3.48E2,4.2E1,9E0,5.19E2,3.4E1,4E1,3.08E2,3.5E1,7E0,7E0,2E0,4.63E2,5.6E1,1.9E1,1.5E1,3.2E1,8E0,5E0,3.03E2,3.2E1,3E0,4E0,3E0,5E0,2E0,3.69E2,9.4E1,1.3E1,4.3E1,1.5E1,4E0,8E0,7E0,2.5E1,7E0,7E0,1E0,2E0,3E0,2.7E2,3.3E1,7E0,2.5E1,1E0,2E0,2E0,2E0,1E0,2E0,2E0,3E0,3.47E2,2.2E1,4.4E1,5E1,9E0,4E0,4.2E1,1E0,1.2E1,3E0,3E0,1E0,5E0,3E0,5E0,2E0,1.5E1,1E1,5E0,2E0,2E0,5E0,1E0,1E0,1E0,2E0,2.62E2,8E0,2E0,3.1E1,2E0,5E0,2.3E1,2E0,2E0,1E0],"tree_param":{"num_deleted":"0","num_feature":"5","num_nodes":"91","size_leaf_vector":"1"}},{"base_weights":[5.0268225E-2,-4.845774E-2,1.3565319E0,1.3941832E0,-1.11124314E-1,2.263778E0,-3.6327478E-1,3.2079768E0,1.5065753E-1,-6.627459E-1,9.775866E-3,-8.9861494E-1,2.5855327E0,6.984697E-1,-2.5740724E0,1.9674685E0,6.1275077E0,-1.7415653E0,2.3732247E0,-1.0845163E0,1.3456835E0,3.7346777E-1,-3.9569873E-1,3.7183325E0,8.685592E-1,-3.2001514E0,1.7624708E0,-3.695429E0,-5.2885866E-1,2.2708538E0,-2.0546551E-1,2.6712456E-1,2.2729201E0,-3.527172E0,-5.5605435E-1,7.3333424E-1,3.6175778E0,7.472052E-1,-1.5407933E0,-1.5669047E0,2.8890278E0,7.5585556E-1,-2.2246817E-1,1.7892305E0,-4.3469834E-1,2.1872559E0,7.3429213E0,1.8812219E0,-6.2992615E-1,-1.1264966E0,-2.3034611E-1,2.9306626E0,-9.264072E-1,-1.65374E0,-6.4658195E-1,-5.653248E-2,-2.3251648E-1,9.408187E-1,1.8161727E-1,2.1097757E-2,-1.3332385E0,1.085031E-1,-4.0877247E-1,-3.498688E-2,3.5624057E-1,1.2784307E0,4.6597254E-1,-8.649115E-1,5.24651E-1,-6.8383776E-2,-7.152345E-1,-1.0266036E0,6.213777E-1,3.24715E-1,1.5036107E0,-1.2481517E-2,4.016806E-1,-9.2527634E-1,3.943889E-2,-4.519043E-2,8.390466E-1,1.5369353E-1,-1.576195E-1,8.647463E-1,-7.4444276E-1,2.7456734E0,5.639227E-1,4.400073E-2,-1.1355592E0,1.4273862E0,2.7584296E-1,-6.504931E-1,-2.2156192E-2,1.7608167E-3,-2.927227E-1],"categories":[],"categories_nodes":[],"categories_segments":[],"categories_sizes":[],"default_left":[0,0,0,0,0,0,0,0,0,0,0,0,0,0,0,0,0,0,0,0,0,0,0,0,0,0,0,0,0,0,0,0,0,0,0,0,0,0,0,0,0,0,0,0,0,0,0,0,0,0,0,0,0,0,0,0,0,0,0,0,0,0,0,0,0,0,0,0,0,0,0,0,0,0,0,0,0,0,0,0,0,0,0,0,0,0,0,0,0,0,0,0,0,0,0],"id":9,"left_children":[1,3,5,7,9,11,13,15,17,19,21,-1,23,25,27,29,31,33,35,37,39,41,43,45,47,49,51,53,55,57,-1,-1,-1,59,61,63,65,67,69,71,73,75,77,79,81,83,85,-1,87,-1,-1,89,91,-1,93,-1,-1,-1,-1,-1,-1,-1,-1,-1,-1,-1,-1,-1,-1,-1,-1,-1,-1,-1,-1,-1,-1,-1,-1,-1,-1,-1,-1,-1,-1,-1,-1,-1,-1,-1,-1,-1,-1,-1,-1],"loss_changes":[1.22966644E2,8.034448E1,1.05361664E2,8.297015E1,5.6760647E1,8.219975E1,5.813317E1,4.226985E1,1.00861755E2,1.3106512E2,1.0322779E2,0E0,7.845987E1,7.615851E1,1.6392956E1,1.1211494E1,2.3605804E1,2.555783E1,1.9793736E1,1.0729439E2,1.2589523E2,8.4255356E1,2.8982754E1,1.22677216E2,1.4966168E2,2.51503E0,4.6690746E1,2.4135078E1,1.8918502E-1,1.3952156E1,0E0,0E0,0E0,1.6806274E1,7.1543326E0,2.4544547E0,1.3557892E0,9.958227E1,1.1238612E2,7.4579704E1,6.3614426E1,1.0467688E2,1.4727237E2,1.2148848E1,2.827055E1,6.8823975E1,5.198874E1,0E0,3.73107E1,0E0,0E0,3.2375397E1,5.1338034E0,0E0,6.5001035E-1,0E0,0E0,0E0,0E0,0E0,0E0,0E0,0E0,0E0,0E0,0E0,0E0,0E0,0E0,0E0,0E0,0E0,0E0,0E0,0E0,0E0,0E0,0E0,0E0,0E0,0E0,0E0,0E0,0E0,0E0,0E0,0E0,0E0,0E0,0E0,0E0,0E0,0E0,0E0,0E0],"parents":[2147483647,0,0,1,1,2,2,3,3,4,4,5,5,6,6,7,7,8,8,9,9,10,10,12,12,13,13,14,14,15,15,16,16,17,17,18,18,19,19,20,20,21,21,22,22,23,23,24,24,25,25,26,26,27,27,28,28,29,29,33,33,34,34,35,35,36,36,37,37,38,38,39,39,40,40,41,41,42,42,43,43,44,44,45,45,46,46,48,48,51,51,52,52,54,54],"right_children":[2,4,6,8,10,12,14,16,18,20,22,-1,24,26,28,30,32,34,36,38,40,42,44,46,48,50,52,54,56,58,-1,-1,-1,60,62,64,66,68,70,72,74,76,78,80,82,84,86,-1,88,-1,-1,90,92,-1,94,-1,-1,-1,-1,-1,-1,-1,-1,-1,-1,-1,-1,-1,-1,-1,-1,-1,-1,-1,-1,-1,-1,-1,-1,-1,-1,-1,-1,-1,-1,-1,-1,-1,-1,-1,-1,-1,-1,-1,-1],"split_conditions":[3.6E1,9.19939E0,1.8678415E1,1.0317665E2,9.8260994E1,-4.710917E0,2.328247E2,2.2E1,2.6968604E2,1.2216167E1,2.3819313E2,-8.9861494E-1,9.578667E0,8.975673E1,3.7786663E0,2.6000001E0,-5.192167E0,8.311245E0,1.8E1,-1.6213335E0,1.3363711E1,1.254325E1,-9.504666E0,2.2967117E2,3.7E1,4.9E1,2.4014996E1,3.0430117E1,3.8E1,8.854829E0,-2.0546551E-1,2.6712456E-1,2.2729201E0,1.5E1,8.854829E0,1.6E1,2.9E1,-5.6400833E0,3.1148548E1,2E-1,1.8E1,1.8010269E2,1.3137E1,1.3229693E1,1.2015589E1,2.1733434E2,4.3E1,1.8812219E0,2.4468431E2,-1.1264966E0,-2.3034611E-1,1.875422E2,4.2E1,-1.65374E0,3.8E1,-5.653248E-2,-2.3251648E-1,9.408187E-1,1.8161727E-1,2.1097757E-2,-1.3332385E0,1.085031E-1,-4.0877247E-1,-3.498688E-2,3.5624057E-1,1.2784307E0,4.6597254E-1,-8.649115E-1,5.24651E-1,-6.8383776E-2,-7.152345E-1,-1.0266036E0,6.213777E-1,3.24715E-1,1.5036107E0,-1.2481517E-2,4.016806E-1,-9.2527634E-1,3.943889E-2,-4.519043E-2,8.390466E-1,1.5369353E-1,-1.576195E-1,8.647463E-1,-7.4444276E-1,2.7456734E0,5.639227E-1,4.400073E-2,-1.1355592E0,1.4273862E0,2.7584296E-1,-6.504931E-1,-2.2156192E-2,1.7608167E-3,-2.927227E-1],"split_indices":[0,3,3,4,4,1,4,0,4,1,4,0,1,4,1,2,1,3,0,1,3,1,1,4,0,0,3,3,0,3,0,0,0,0,3,0,0,1,4,2,0,4,1,3,3,4,0,0,4,0,0,4,0,0,0,0,0,0,0,0,0,0,0,0,0,0,0,0,0,0,0,0,0,0,0,0,0,0,0,0,0,0,0,0,0,0,0,0,0,0,0,0,0,0,0],"split_type":[0,0,0,0,0,0,0,0,0,0,0,0,0,0,0,0,0,0,0,0,0,0,0,0,0,0,0,0,0,0,0,0,0,0,0,0,0,0,0,0,0,0,0,0,0,0,0,0,0,0,0,0,0,0,0,0,0,0,0,0,0,0,0,0,0,0,0,0,0,0,0,0,0,0,0,0,0,0,0,0,0,0,0,0,0,0,0,0,0,0,0,0,0,0,0],"sum_hessian":[9.52E2,8.86E2,6.6E1,3.6E1,8.5E2,4.3E1,2.3E1,1.4E1,2.2E1,1.52E2,6.98E2,2E0,4.1E1,1.6E1,7E0,1.1E1,3E0,1.2E1,1E1,1.26E2,2.6E1,3.68E2,3.3E2,2.4E1,1.7E1,3E0,1.3E1,4E0,3E0,1E1,1E0,1E0,2E0,4E0,8E0,5E0,5E0,2.5E1,1.01E2,9E0,1.7E1,2.24E2,1.44E2,5E0,3.25E2,1.8E1,6E0,3E0,1.4E1,2E0,1E0,9E0,4E0,2E0,2E0,2E0,1E0,6E0,4E0,1E0,3E0,4E0,4E0,2E0,3E0,3E0,2E0,5E0,2E1,4E1,6.1E1,6E0,3E0,1E1,7E0,9.5E1,1.29E2,1.5E1,1.29E2,2E0,3E0,2.8E1,2.97E2,1.6E1,2E0,4E0,2E0,1.2E1,2E0,4E0,5E0,1E0,3E0,1E0,1E0],"tree_param":{"num_deleted":"0","num_feature":"5","num_nodes":"95","size_leaf_vector":"1"}},{"base_weights":[4.0711142E-2,-2.059177E-1,3.7781236E-1,-1.1017953E0,-1.4855763E-1,-2.7646554E0,4.4034246E-1,-1.2640425E0,6.135175E-1,4.3975934E-1,-2.0944718E-1,-1.4084255E0,-6.6764754E-1,8.801079E-1,-1.7467583E-2,-1.4567876E0,4.4937015E-1,7.6877767E-1,-9.2029E-1,-1.6402465E-1,-1.7971002E0,-1.079555E0,1.4699736E-1,5.3976834E-1,4.8028193E0,-3.5220194E0,1.9100559E-1,-2.6772958E-1,-1.6363277E0,3.2447362E-1,-1.21892296E-1,2.7012646E-1,4.205311E0,-2.616666E0,6.4673835E-1,-2.2837593E-1,1.7559983E0,-2.19994E0,4.5554653E-1,-3.8186666E-1,-7.493305E-2,3.2895822E-2,1.4471089E0,9.95207E0,1.5575172E0,9.7663E-1,-1.3575923E0,2.5458326E0,1.2949183E-2,-1.6777459E-1,3.39098E-2,-5.8151627E-1,-1.0702219E-1,4.7574237E-2,-1.0242577E-1,-8.0036804E-2,3.7217304E-1,2.5318766E-1,1.4503977E0,-1.1979214E0,-1.10411644E-1,3.3357963E-1,-2.5188446E-1,-2.737262E-1,-4.5881186E-2,1.3063358E0,6.397763E-3,-8.151113E-1,7.710962E-2,9.749966E-2,-1.2401053E0,-6.695404E-1,6.628817E-1,4.797309E0,8.8045025E-1,-6.298538E-1,9.5740277E-1,2.0798309E-1,1.61138E0,1.5831502E-1,-2.5514266E-1],"categories":[],"categories_nodes":[],"categories_segments":[],"categories_sizes":[],"default_left":[0,0,0,0,0,0,0,0,0,0,0,0,0,0,0,0,0,0,0,0,0,0,0,0,0,0,0,0,0,0,0,0,0,0,0,0,0,0,0,0,0,0,0,0,0,0,0,0,0,0,0,0,0,0,0,0,0,0,0,0,0,0,0,0,0,0,0,0,0,0,0,0,0,0,0,0,0,0,0,0,0],"id":10,"left_children":[1,3,5,7,9,11,13,15,-1,17,19,-1,21,23,25,27,29,31,33,35,37,39,-1,41,43,45,47,49,51,-1,53,55,57,59,61,63,65,67,-1,-1,-1,69,71,73,75,-1,-1,77,79,-1,-1,-1,-1,-1,-1,-1,-1,-1,-1,-1,-1,-1,-1,-1,-1,-1,-1,-1,-1,-1,-1,-1,-1,-1,-1,-1,-1,-1,-1,-1,-1],"loss_changes":[7.930916E1,2.8150888E1,8.040645E1,1.9433796E1,1.8683907E1,2.9244972E1,7.974167E1,1.1222698E1,0E0,2.2634079E1,3.3671486E1,0E0,2.913173E0,2.6708847E2,1.431407E2,5.7529335E0,1.5764643E0,6.740929E1,2.827499E1,5.7113197E1,2.0704048E1,3.2375813E-1,0E0,8.595482E1,2.518735E2,8.952898E1,7.753606E1,6.1821055E-1,8.971291E0,0E0,2.388567E-1,1.9088776E1,6.4970474E0,1.4005505E1,5.0822473E0,2.2823975E1,6.751914E1,1.594429E1,0E0,0E0,0E0,1.48609E2,1.9287689E2,2.0732971E2,7.242468E1,0E0,0E0,6.43218E1,7.7340904E1,0E0,0E0,0E0,0E0,0E0,0E0,0E0,0E0,0E0,0E0,0E0,0E0,0E0,0E0,0E0,0E0,0E0,0E0,0E0,0E0,0E0,0E0,0E0,0E0,0E0,0E0,0E0,0E0,0E0,0E0,0E0,0E0],"parents":[2147483647,0,0,1,1,2,2,3,3,4,4,5,5,6,6,7,7,9,9,10,10,12,12,13,13,14,14,15,15,16,16,17,17,18,18,19,19,20,20,21,21,23,23,24,24,25,25,26,26,27,27,28,28,30,30,31,31,32,32,33,33,34,34,35,35,36,36,37,37,41,41,42,42,43,43,44,44,47,47,48,48],"right_children":[2,4,6,8,10,12,14,16,-1,18,20,-1,22,24,26,28,30,32,34,36,38,40,-1,42,44,46,48,50,52,-1,54,56,58,60,62,64,66,68,-1,-1,-1,70,72,74,76,-1,-1,78,80,-1,-1,-1,-1,-1,-1,-1,-1,-1,-1,-1,-1,-1,-1,-1,-1,-1,-1,-1,-1,-1,-1,-1,-1,-1,-1,-1,-1,-1,-1,-1,-1],"split_conditions":[1.8E1,7E0,5.487488E0,4E0,1.1212135E1,-1.4004999E0,2.0238351E2,3.128403E2,6.135175E-1,1.7E1,1.8897419E1,-1.4084255E0,3.7E1,1.9470409E2,2.0883855E2,8.699493E0,1.1495E0,1.6E1,1.4228452E2,1.8276585E1,1.7429354E1,2E1,1.4699736E-1,9.447417E0,1.9893079E2,2E1,2.1434138E2,6E0,2.2346113E1,3.2447362E-1,6E0,1.0163227E1,-1.1210918E1,2E-1,1.4803668E1,1.2815443E1,1E1,2.0120335E1,4.5554653E-1,-3.8186666E-1,-7.493305E-2,8.137E0,1.143248E1,3.1390831E0,1.4654254E1,9.7663E-1,-1.3575923E0,2.12272E2,8.089084E0,-1.6777459E-1,3.39098E-2,-5.8151627E-1,-1.0702219E-1,4.7574237E-2,-1.0242577E-1,-8.0036804E-2,3.7217304E-1,2.5318766E-1,1.4503977E0,-1.1979214E0,-1.10411644E-1,3.3357963E-1,-2.5188446E-1,-2.737262E-1,-4.5881186E-2,1.3063358E0,6.397763E-3,-8.151113E-1,7.710962E-2,9.749966E-2,-1.2401053E0,-6.695404E-1,6.628817E-1,4.797309E0,8.8045025E-1,-6.298538E-1,9.5740277E-1,2.0798309E-1,1.61138E0,1.5831502E-1,-2.5514266E-1],"split_indices":[0,0,4,2,3,1,4,4,0,0,1,0,0,4,4,4,1,0,4,1,3,0,0,1,4,0,4,0,3,0,0,3,1,2,1,3,0,1,0,0,0,1,3,1,3,0,0,4,1,0,0,0,0,0,0,0,0,0,0,0,0,0,0,0,0,0,0,0,0,0,0,0,0,0,0,0,0,0,0,0,0],"split_type":[0,0,0,0,0,0,0,0,0,0,0,0,0,0,0,0,0,0,0,0,0,0,0,0,0,0,0,0,0,0,0,0,0,0,0,0,0,0,0,0,0,0,0,0,0,0,0,0,0,0,0,0,0,0,0,0,0,0,0,0,0,0,0,0,0,0,0,0,0,0,0,0,0,0,0,0,0,0,0,0,0],"sum_hessian":[9.52E2,5.5E2,4.02E2,3.2E1,5.18E2,7E0,3.95E2,3.1E1,1E0,4.8E1,4.7E2,3E0,4E0,2.01E2,1.94E2,2.8E1,3E0,3.9E1,9E0,4.58E2,1.2E1,3E0,1E0,1.86E2,1.5E1,1E1,1.84E2,4E0,2.4E1,1E0,2E0,3.5E1,4E0,4E0,5E0,4.44E2,1.4E1,1.1E1,1E0,2E0,1E0,1.2E2,6.6E1,5E0,1E1,1E0,9E0,1.2E1,1.72E2,2E0,2E0,1.9E1,5E0,1E0,1E0,2.3E1,1.2E1,1E0,3E0,2E0,2E0,4E0,1E0,4.3E1,4.01E2,5E0,9E0,9E0,2E0,1.13E2,7E0,1.1E1,5.5E1,2E0,3E0,3E0,7E0,8E0,4E0,1.08E2,6.4E1],"tree_param":{"num_deleted":"0","num_feature":"5","num_nodes":"81","size_leaf_vector":"1"}},{"base_weights":[3.4814507E-2,1.644902E-2,4.3879147E0,1.2324578E0,-3.556939E-2,-5.234871E-2,1.790065E0,2.5416214E0,1.053029E-1,5.8499705E-2,-4.747271E-1,1.5295049E0,4.8672237E0,-2.63696E-1,7.590584E-1,-2.041076E0,8.954665E-2,-3.9151537E0,-2.9292098E-1,3.8001338E-1,1.2924691E0,2.6802492E-1,1.6911966E0,1.2359852E0,-7.158654E-1,-5.802449E-1,-1.1034074E0,5.50772E-3,6.9830084E-1,-3.92385E-2,-4.4370914E0,-2.2235012E0,-9.9154726E-2,3.0284107E-1,-1.7316867E-1,8.416882E-2,5.338238E-1,-1.0596267E0,-1.8376699E-2,3.2732707E-1,-6.319556E-1,-1.3507973E-1,3.2375522E-2,-4.3024606E-1,3.9841843E-1,-1.5180842E0,-1.04693845E-1,-7.899067E-1,4.650407E-1,3.611508E-1,-1.13017224E-1],"categories":[],"categories_nodes":[],"categories_segments":[],"categories_sizes":[],"default_left":[0,0,0,0,0,0,0,0,0,0,0,0,0,0,0,0,0,0,0,0,0,0,0,0,0,0,0,0,0,0,0,0,0,0,0,0,0,0,0,0,0,0,0,0,0,0,0,0,0,0,0],"id":11,"left_children":[1,3,5,7,9,-1,-1,11,13,15,17,19,21,23,-1,25,27,29,31,33,-1,-1,-1,35,37,39,-1,41,43,-1,45,47,49,-1,-1,-1,-1,-1,-1,-1,-1,-1,-1,-1,-1,-1,-1,-1,-1,-1,-1],"loss_changes":[7.611714E1,6.0135937E1,2.9856804E1,5.7281933E1,3.7703552E1,0E0,0E0,3.49236E1,2.0352413E1,4.92022E1,9.955716E1,4.308051E1,1.0264633E1,1.4446996E1,0E0,2.4170204E1,3.795617E1,1.5221245E1,5.7388046E1,7.210666E0,0E0,0E0,0E0,2.0967765E0,2.9280077E1,2.0154808E1,0E0,3.0528067E1,1.2276884E2,0E0,1.6067719E1,2.5716904E1,5.1449024E1,0E0,0E0,0E0,0E0,0E0,0E0,0E0,0E0,0E0,0E0,0E0,0E0,0E0,0E0,0E0,0E0,0E0,0E0],"parents":[2147483647,0,0,1,1,2,2,3,3,4,4,7,7,8,8,9,9,10,10,11,11,12,12,13,13,15,15,16,16,17,17,18,18,19,19,23,23,24,24,25,25,27,27,28,28,30,30,31,31,32,32],"right_children":[2,4,6,8,10,-1,-1,12,14,16,18,20,22,24,-1,26,28,30,32,34,-1,-1,-1,36,38,40,-1,42,44,-1,46,48,50,-1,-1,-1,-1,-1,-1,-1,-1,-1,-1,-1,-1,-1,-1,-1,-1,-1,-1],"split_conditions":[7.1E1,9.19939E0,2.4265833E0,1.4224168E0,3.1E0,-5.234871E-2,1.790065E0,-1.888E0,1.8999498E1,9.726665E0,3.4E0,3.0264764E2,1.2E1,7.729527E0,7.590584E-1,9.47012E0,3.1E1,-2.46925E0,5.996965E1,-3.3421671E0,1.2924691E0,2.6802492E-1,1.6911966E0,6.9527545E0,8.311245E0,2.2290608E2,-1.1034074E0,1.0491128E2,2.0911667E0,-3.92385E-2,3.3E1,1.4012E1,1.1648613E2,3.0284107E-1,-1.7316867E-1,8.416882E-2,5.338238E-1,-1.0596267E0,-1.8376699E-2,3.2732707E-1,-6.319556E-1,-1.3507973E-1,3.2375522E-2,-4.3024606E-1,3.9841843E-1,-1.5180842E0,-1.04693845E-1,-7.899067E-1,4.650407E-1,3.611508E-1,-1.13017224E-1],"split_indices":[0,3,1,1,2,0,0,1,1,3,2,4,0,3,0,3,0,1,4,1,0,0,0,3,3,4,0,4,1,0,0,1,4,0,0,0,0,0,0,0,0,0,0,0,0,0,0,0,0,0,0],"split_type":[0,0,0,0,0,0,0,0,0,0,0,0,0,0,0,0,0,0,0,0,0,0,0,0,0,0,0,0,0,0,0,0,0,0,0,0,0,0,0,0,0,0,0,0,0,0,0,0,0,0,0],"sum_hessian":[9.52E2,9.49E2,3E0,3.8E1,9.11E2,1E0,2E0,1.7E1,2.1E1,7.51E2,1.6E2,1.3E1,4E0,1.9E1,2E0,1E1,7.41E2,7E0,1.53E2,1E1,3E0,1E0,3E0,4E0,1.5E1,6E0,4E0,6.52E2,8.9E1,1E0,6E0,1.3E1,1.4E2,6E0,4E0,2E0,2E0,2E0,1.3E1,3E0,3E0,1.19E2,5.33E2,2E1,6.9E1,5E0,1E0,1.2E1,1E0,2.4E1,1.16E2],"tree_param":{"num_deleted":"0","num_feature":"5","num_nodes":"51","size_leaf_vector":"1"}},{"base_weights":[2.6612505E-2,1.1934561E-2,3.505971E0,2.6982117E-1,-1.5450773E-1,-4.4496346E-2,1.4320526E0,8.569657E-2,1.1574588E0,-3.046602E0,-4.0000398E-2,7.610794E-1,-1.9405586E-1,3.097148E0,6.768951E-2,9.4558525E-1,-4.2763977E0,4.426131E0,-9.6666306E-2,5.276457E-1,4.6706095E0,-1.2869066E0,1.6048303E-1,1.5907328E0,1.8939406E0,2.626788E0,-6.117097E-1,-4.5743036E-1,7.5032336E-1,-1.7069728E0,-5.9042974E0,1.5406382E0,2.5522757E-2,-2.0656464E0,-4.8997644E-2,-2.3840833E-2,3.7289783E-1,3.9581585E-1,1.9394888E0,7.011786E-1,-5.9040207E-1,-1.10463046E-1,2.262204E-1,7.3290646E-1,-5.3698826E-1,2.672977E-1,1.7404145E0,-5.291429E-1,3.4804013E-1,-2.0637627E-1,3.5106182E-2,-6.397621E-1,1.907999E-1,-3.9475882E-1,-2.066077E0,6.600566E-1,-7.8134453E-1,-2.2850323E-1,2.3062836E-2],"categories":[],"categories_nodes":[],"categories_segments":[],"categories_sizes":[],"default_left":[0,0,0,0,0,0,0,0,0,0,0,0,0,0,0,0,0,0,0,0,0,0,0,0,0,0,0,0,0,0,0,0,0,0,0,0,0,0,0,0,0,0,0,0,0,0,0,0,0,0,0,0,0,0,0,0,0,0,0],"id":12,"left_children":[1,3,5,7,9,-1,-1,11,13,15,17,19,21,23,25,27,29,31,33,35,37,39,41,43,-1,45,47,49,-1,51,53,-1,-1,55,57,-1,-1,-1,-1,-1,-1,-1,-1,-1,-1,-1,-1,-1,-1,-1,-1,-1,-1,-1,-1,-1,-1,-1,-1],"loss_changes":[4.86277E1,4.0818768E1,1.9235825E1,6.086242E1,1.912921E2,0E0,0E0,5.8719086E1,1.3507443E2,1.12054306E2,1.4139195E2,8.0583626E1,8.54473E1,1.0138356E2,7.463012E1,1.423835E1,6.1028564E1,2.1117767E1,5.1614902E1,3.7882713E1,2.1536613E1,1.3789453E2,5.2686306E1,5.3355476E1,0E0,4.4425014E1,7.145184E1,6.1012286E-1,0E0,9.333038E0,3.6024902E1,0E0,0E0,3.561192E1,4.8410995E1,0E0,0E0,0E0,0E0,0E0,0E0,0E0,0E0,0E0,0E0,0E0,0E0,0E0,0E0,0E0,0E0,0E0,0E0,0E0,0E0,0E0,0E0,0E0,0E0],"parents":[2147483647,0,0,1,1,2,2,3,3,4,4,7,7,8,8,9,9,10,10,11,11,12,12,13,13,14,14,15,15,16,16,17,17,18,18,19,19,20,20,21,21,22,22,23,23,25,25,26,26,27,27,29,29,30,30,33,33,34,34],"right_children":[2,4,6,8,10,-1,-1,12,14,16,18,20,22,24,26,28,30,32,34,36,38,40,42,44,-1,46,48,50,-1,52,54,-1,-1,56,58,-1,-1,-1,-1,-1,-1,-1,-1,-1,-1,-1,-1,-1,-1,-1,-1,-1,-1,-1,-1,-1,-1,-1,-1],"split_conditions":[7.1E1,1.5192682E1,2.4265833E0,1.4248452E1,1.5463246E1,-4.4496346E-2,1.4320526E0,1.4890834E0,1.4512064E1,2.4950002E-1,1.5542662E1,1.2620002E0,5.632833E0,1.4E0,8.131034E1,9E-1,1.5E1,1.4691166E1,1.5646544E1,-1.3171667E0,1E-1,4.3311802E1,1.6E1,2E-1,1.8939406E0,1.5077082E1,8.189083E0,2.1E1,7.5032336E-1,1.539184E1,1.5277749E1,1.5406382E0,2.5522757E-2,1.4522734E2,9.3576225E1,-2.3840833E-2,3.7289783E-1,3.9581585E-1,1.9394888E0,7.011786E-1,-5.9040207E-1,-1.10463046E-1,2.262204E-1,7.3290646E-1,-5.3698826E-1,2.672977E-1,1.7404145E0,-5.291429E-1,3.4804013E-1,-2.0637627E-1,3.5106182E-2,-6.397621E-1,1.907999E-1,-3.9475882E-1,-2.066077E0,6.600566E-1,-7.8134453E-1,-2.2850323E-1,2.3062836E-2],"split_indices":[0,3,1,3,3,0,0,1,3,1,3,1,1,2,4,2,0,1,3,1,2,4,0,2,0,3,1,0,0,3,3,0,0,4,4,0,0,0,0,0,0,0,0,0,0,0,0,0,0,0,0,0,0,0,0,0,0,0,0],"split_type":[0,0,0,0,0,0,0,0,0,0,0,0,0,0,0,0,0,0,0,0,0,0,0,0,0,0,0,0,0,0,0,0,0,0,0,0,0,0,0,0,0,0,0,0,0,0,0,0,0,0,0,0,0,0,0,0,0,0,0],"sum_hessian":[9.52E2,9.49E2,3E0,3.72E2,5.77E2,1E0,2E0,3.09E2,6.3E1,2.1E1,5.56E2,9E1,2.19E2,2.2E1,4.1E1,5E0,1.6E1,6E0,5.5E2,8.6E1,4E0,5.3E1,1.66E2,1.6E1,6E0,8E0,3.3E1,3E0,2E0,7E0,9E0,5E0,1E0,1.2E1,5.38E2,4.7E1,3.9E1,2E0,2E0,8E0,4.5E1,8.8E1,7.8E1,1.3E1,3E0,6E0,2E0,2E1,1.3E1,2E0,1E0,6E0,1E0,2E0,7E0,1E0,1.1E1,8E1,4.58E2],"tree_param":{"num_deleted":"0","num_feature":"5","num_nodes":"59","size_leaf_vector":"1"}},{"base_weights":[2.6103482E-2,1.2887851E-2,2.5292096E0,8.722066E-1,-2.3913816E-2,-3.7821867E-2,3.2245483E0,3.077211E-1,2.281104E0,4.9662944E-2,-3.6697116E-1,2.1626587E-1,1.1456422E0,6.75395E-2,2.366782E0,1.422063E0,1.229358E0,2.6871902E-1,-1.4118105E-1,-2.836543E0,-2.3629878E-1,9.8370916E-1,-6.23809E-1,2.240782E-1,8.409737E-1,2.5617105E-1,2.3035424E0,-5.6875356E-2,8.2696116E-1,-2.741469E0,-6.101575E-2,-3.6812067E-2,-3.2067044E0,1.3323175E0,-2.9589626E-1,3.563522E-1,-1.8926068E-1,-7.084402E-1,-6.206877E-2,2.2387977E-1,-2.5563127E-1,8.364696E-1,5.4717638E-2,5.263783E-2,-6.224115E-1,-1.5049794E-1,5.022632E-1,-3.7733707E-1,-1.6183137E0,4.0897314E-2,-1.20136686E-1,-1.1041085E0,-5.471435E-2,-1.5687352E-1,2.8383E-1],"categories":[],"categories_nodes":[],"categories_segments":[],"categories_sizes":[],"default_left":[0,0,0,0,0,0,0,0,0,0,0,0,0,0,0,0,0,0,0,0,0,0,0,0,0,0,0,0,0,0,0,0,0,0,0,0,0,0,0,0,0,0,0,0,0,0,0,0,0,0,0,0,0,0,0],"id":13,"left_children":[1,3,5,7,9,-1,11,13,15,17,19,-1,-1,21,23,25,-1,27,29,31,33,35,37,-1,-1,39,41,43,45,47,49,-1,51,-1,53,-1,-1,-1,-1,-1,-1,-1,-1,-1,-1,-1,-1,-1,-1,-1,-1,-1,-1,-1,-1],"loss_changes":[3.1492762E1,3.0032377E1,9.638132E0,3.0314842E1,2.3012821E1,0E0,3.1983643E0,1.4182056E1,1.13399315E1,3.1433899E1,5.1285206E1,0E0,0E0,1.7715244E1,2.7202606E-2,8.659285E0,0E0,6.36632E1,8.363079E1,7.642975E0,4.4242935E1,4.7044067E0,1.1102661E1,0E0,0E0,3.3516963E0,4.6319447E0,1.0444029E2,1.4605176E2,4.0447792E1,2.6245768E1,0E0,9.356216E0,0E0,4.3633434E1,0E0,0E0,0E0,0E0,0E0,0E0,0E0,0E0,0E0,0E0,0E0,0E0,0E0,0E0,0E0,0E0,0E0,0E0,0E0,0E0],"parents":[2147483647,0,0,1,1,2,2,3,3,4,4,6,6,7,7,8,8,9,9,10,10,13,13,14,14,15,15,17,17,18,18,19,19,20,20,21,21,22,22,25,25,26,26,27,27,28,28,29,29,30,30,32,32,34,34],"right_children":[2,4,6,8,10,-1,12,14,16,18,20,-1,-1,22,24,26,-1,28,30,32,34,36,38,-1,-1,40,42,44,46,48,50,-1,52,-1,54,-1,-1,-1,-1,-1,-1,-1,-1,-1,-1,-1,-1,-1,-1,-1,-1,-1,-1,-1,-1],"split_conditions":[6.2E1,9.19939E0,2.4265833E0,2.4E1,3.1E0,-3.7821867E-2,7.1E1,2.953922E2,9.114471E0,2.166738E2,3.4E0,2.1626587E-1,1.1456422E0,1.0317665E2,2.2E1,2.6968604E2,1.229358E0,1.6766108E1,2.2022968E2,-2.46925E0,3.5E0,2.6000001E0,1.4282527E2,2.240782E-1,8.409737E-1,2.3595181E2,7.16617E0,1.5941944E1,8.975673E1,2.1934377E2,8.5807495E0,-3.6812067E-2,3.3E1,1.3323175E0,1.62745E1,3.563522E-1,-1.8926068E-1,-7.084402E-1,-6.206877E-2,2.2387977E-1,-2.5563127E-1,8.364696E-1,5.4717638E-2,5.263783E-2,-6.224115E-1,-1.5049794E-1,5.022632E-1,-3.7733707E-1,-1.6183137E0,4.0897314E-2,-1.20136686E-1,-1.1041085E0,-5.471435E-2,-1.5687352E-1,2.8383E-1],"split_indices":[0,3,1,0,2,0,0,4,3,4,2,0,0,4,0,4,0,3,4,1,2,2,4,0,0,4,3,3,4,4,1,0,0,0,1,0,0,0,0,0,0,0,0,0,0,0,0,0,0,0,0,0,0,0,0],"split_type":[0,0,0,0,0,0,0,0,0,0,0,0,0,0,0,0,0,0,0,0,0,0,0,0,0,0,0,0,0,0,0,0,0,0,0,0,0,0,0,0,0,0,0,0,0,0,0,0,0,0,0,0,0,0,0],"sum_hessian":[9.52E2,9.48E2,4E0,3.8E1,9.1E2,1E0,3E0,2.8E1,1E1,7.5E2,1.6E2,1E0,2E0,2.6E1,2E0,8E0,2E0,3.49E2,4.01E2,7E0,1.53E2,1.1E1,1.5E1,1E0,1E0,4E0,4E0,2.21E2,1.28E2,1.1E1,3.9E2,1E0,6E0,1E0,1.52E2,1E1,1E0,2E0,1.3E1,3E0,1E0,3E0,1E0,1.99E2,2.2E1,5E1,7.8E1,8E0,3E0,2.47E2,1.43E2,5E0,1E0,1.29E2,2.3E1],"tree_param":{"num_deleted":"0","num_feature":"5","num_nodes":"55","size_leaf_vector":"1"}},{"base_weights":[2.0208662E-2,-2.4095917E-2,6.0644674E-1,1.2387973E0,-4.2831365E-2,8.7593657E-1,-2.2793558E0,1.903185E0,-7.318711E-1,-1.0949491E0,-1.5677474E-2,-2.001744E0,1.163483E0,1.4773751E-2,-2.7549253E0,9.073569E-1,9.510264E-1,1.00076444E-1,-3.5946608E-1,-1.6681184E0,1.9013422E0,-7.0541E-1,1.115985E-2,1.2565441E-1,-2.569632E0,1.9741037E0,4.6849483E-1,-2.1761885E-1,-3.0809586E0,5.0523496E-1,2.598299E-1,-2.554711E0,2.167135E-1,9.382611E-2,6.979861E-1,-8.329799E-1,4.8738873E-1,1.0303331E-1,-2.219233E-1,-6.660576E-2,-9.303091E-1,2.8766334E-1,2.7076514E0,-5.4452085E-1,1.9909425E0,-1.057525E0,-2.6228774E-1,-6.273079E-3,2.0741859E-1,-4.7218338E-1,-1.0309844E0,3.7439954E-1,-4.7229978E-1,-3.0911285E-1,2.2711144E-1,4.3385737E-3,6.8692E-1,-1.03459805E-1,9.8368454E-1,-2.4954368E-1,4.048819E-1,1.1935622E0,4.6116555E-1,3.939194E-2,-6.430007E-1,1.2800773E0,-1.7083798E-1],"categories":[],"categories_nodes":[],"categories_segments":[],"categories_sizes":[],"default_left":[0,0,0,0,0,0,0,0,0,0,0,0,0,0,0,0,0,0,0,0,0,0,0,0,0,0,0,0,0,0,0,0,0,0,0,0,0,0,0,0,0,0,0,0,0,0,0,0,0,0,0,0,0,0,0,0,0,0,0,0,0,0,0,0,0,0,0],"id":14,"left_children":[1,3,5,7,9,11,13,15,17,19,21,23,25,-1,27,29,-1,-1,-1,31,33,35,37,-1,39,41,43,-1,45,-1,47,49,51,-1,-1,53,-1,55,57,-1,-1,59,61,63,65,-1,-1,-1,-1,-1,-1,-1,-1,-1,-1,-1,-1,-1,-1,-1,-1,-1,-1,-1,-1,-1,-1],"loss_changes":[2.476691E1,2.104025E1,5.4102097E1,1.8413626E1,2.4980787E1,5.363193E1,6.780138E0,9.739773E0,2.387216E0,4.095407E1,1.5815904E1,9.324038E0,3.1187332E1,0E0,1.073555E0,3.0832257E0,0E0,0E0,0E0,3.230412E1,1.9747095E0,1.0865057E1,1.7646715E1,0E0,5.549099E0,3.1385315E1,5.043653E1,0E0,8.381882E-1,0E0,6.2024593E-1,5.8351974E0,1.4894317E1,0E0,0E0,1.05098E1,0E0,1.1443121E2,1.01415535E2,0E0,0E0,1.1821993E1,2.0658936E1,2.1891888E1,7.818643E1,0E0,0E0,0E0,0E0,0E0,0E0,0E0,0E0,0E0,0E0,0E0,0E0,0E0,0E0,0E0,0E0,0E0,0E0,0E0,0E0,0E0,0E0],"parents":[2147483647,0,0,1,1,2,2,3,3,4,4,5,5,6,6,7,7,8,8,9,9,10,10,11,11,12,12,14,14,15,15,19,19,20,20,21,21,22,22,24,24,25,25,26,26,28,28,30,30,31,31,32,32,35,35,37,37,38,38,41,41,42,42,43,43,44,44],"right_children":[2,4,6,8,10,12,14,16,18,20,22,24,26,-1,28,30,-1,-1,-1,32,34,36,38,-1,40,42,44,-1,46,-1,48,50,52,-1,-1,54,-1,56,58,-1,-1,60,62,64,66,-1,-1,-1,-1,-1,-1,-1,-1,-1,-1,-1,-1,-1,-1,-1,-1,-1,-1,-1,-1,-1,-1],"split_conditions":[3.6E1,-8.646334E0,2.5223133E1,1.3896187E1,-5.6400833E0,2.1389902E1,5.4325E-1,1.8E1,1.7754031E0,2.6E0,7E0,1.2313893E1,1.875422E2,1.4773751E-2,9.000001E-1,-1.1210918E1,9.510264E-1,1.00076444E-1,-3.5946608E-1,1.7E1,-8.510917E0,4E0,1.4000001E0,1.2565441E-1,1.7754031E0,1.2287555E1,2.399589E2,-2.1761885E-1,4.2E1,5.0523496E-1,1E-1,2.0598795E1,1.5021105E1,9.382611E-2,6.979861E-1,3.128403E2,4.8738873E-1,1.2E0,1.8578665E1,-6.660576E-2,-9.303091E-1,1.22630936E2,1.5542662E1,2.2396718E2,8.94325E0,-1.057525E0,-2.6228774E-1,-6.273079E-3,2.0741859E-1,-4.7218338E-1,-1.0309844E0,3.7439954E-1,-4.7229978E-1,-3.0911285E-1,2.2711144E-1,4.3385737E-3,6.8692E-1,-1.03459805E-1,9.8368454E-1,-2.4954368E-1,4.048819E-1,1.1935622E0,4.6116555E-1,3.939194E-2,-6.430007E-1,1.2800773E0,-1.7083798E-1],"split_indices":[0,1,3,3,1,4,1,0,4,2,0,3,4,0,2,1,0,0,0,0,1,2,2,0,4,3,4,0,0,0,2,3,3,0,0,4,0,2,1,0,0,4,3,4,1,0,0,0,0,0,0,0,0,0,0,0,0,0,0,0,0,0,0,0,0,0,0],"split_type":[0,0,0,0,0,0,0,0,0,0,0,0,0,0,0,0,0,0,0,0,0,0,0,0,0,0,0,0,0,0,0,0,0,0,0,0,0,0,0,0,0,0,0,0,0,0,0,0,0,0,0,0,0,0,0,0,0,0,0,0,0,0,0,0,0,0,0],"sum_hessian":[9.52E2,8.86E2,6.6E1,1.2E1,8.74E2,6.1E1,5E0,9E0,3E0,2.1E1,8.53E2,5E0,5.6E1,1E0,4E0,6E0,3E0,1E0,2E0,1.8E1,3E0,3.1E1,8.22E2,1E0,4E0,2.5E1,3.1E1,1E0,3E0,2E0,4E0,1.2E1,6E0,1E0,2E0,3E1,1E0,5.9E2,2.32E2,1E0,3E0,8E0,1.7E1,1.9E1,1.2E1,2E0,1E0,3E0,1E0,7E0,5E0,4E0,2E0,2.7E1,3E0,5.68E2,2.2E1,2.25E2,7E0,4E0,4E0,7E0,1E1,1.4E1,5E0,6E0,6E0],"tree_param":{"num_deleted":"0","num_feature":"5","num_nodes":"67","size_leaf_vector":"1"}},{"base_weights":[1.6756041E-2,1.5947287E-1,-1.2186723E-1,2.950828E-1,-1.588204E0,-3.0173782E-1,3.267449E-1,5.4712193E-3,7.9643863E-1,1.6279294E0,-2.3355157E0,-1.0524766E0,-8.310445E-4,1.4456246E0,-4.4557902E-1,-2.2844091E-1,8.775932E-1,-2.800604E-1,1.5552578E0,8.1360924E-1,-7.2154903E-1,-3.3888783E0,-1.1966764E0,1.1189452E0,-1.3937258E0,8.1399685E-1,-2.4826133E-1,-1.4324669E0,2.0151098E0,1.8278627E0,-7.4677956E-1,1.6601305E0,-3.7472725E-1,6.016417E0,7.012811E-2,-5.046002E-1,1.0502765E0,3.6379886E0,6.1655396E-1,-5.2246287E-2,-2.724508E-1,-1.8270439E0,-1.7504314E0,-1.5259304E0,6.289832E-1,-2.2046328E-1,2.4898486E0,6.6737574E-1,-1.9491259E0,6.965756E-2,4.3798594E0,-3.496496E-1,1.6218312E0,-2.4991572E-1,-1.2325343E0,3.6093876E0,5.272831E-1,-3.6425343E-1,1.0049948E0,-2.444128E0,-3.7883905E-1,7.215672E-2,8.212636E-1,-3.3688563E-1,1.4553481E-3,3.7111466E0,1.002444E0,-3.9549193E-1,3.9218915E-1,7.101552E-2,-3.613165E-1,1.3959314E0,-1.296205E-1,1.5663226E0,1.7185211E-1,-6.1513203E-1,3.9282298E-1,-7.3251E-1,1.2631589E-1,5.843611E-2,-5.056668E-1,2.3142873E-1,5.1613715E-2,-2.28738E-1,1.5364452E-1,8.7706614E-1,-1.685729E-2,-8.1044234E-2,1.2751875E0,-7.001484E-1,1.21909855E-2,2.8803483E-1,-3.8085392E-1,5.548707E-1,1.9620711E0,1.1369179E-1,-1.932041E-1,5.799987E-1,-1.7724724E-1,-6.275992E-1,9.362865E-2,-3.438256E-2,1.5737398E0,5.1414704E-1,-8.814476E-1,-3.110843E-1,1.2895757E-1,-1.0059031E0,-9.579423E-2,-1.881918E-1,1.0142274E0],"categories":[],"categories_nodes":[],"categories_segments":[],"categories_sizes":[],"default_left":[0,0,0,0,0,0,0,0,0,0,0,0,0,0,0,0,0,0,0,0,0,0,0,0,0,0,0,0,0,0,0,0,0,0,0,0,0,0,0,0,0,0,0,0,0,0,0,0,0,0,0,0,0,0,0,0,0,0,0,0,0,0,0,0,0,0,0,0,0,0,0,0,0,0,0,0,0,0,0,0,0,0,0,0,0,0,0,0,0,0,0,0,0,0,0,0,0,0,0,0,0,0,0,0,0,0,0,0,0,0,0],"id":15,"left_children":[1,3,5,7,9,11,13,15,17,19,21,23,25,27,29,31,33,35,37,-1,39,41,43,45,47,49,51,53,55,57,59,61,63,65,67,69,71,73,75,-1,-1,77,-1,79,81,83,85,87,89,91,93,95,97,99,-1,101,103,105,-1,107,109,-1,-1,-1,-1,-1,-1,-1,-1,-1,-1,-1,-1,-1,-1,-1,-1,-1,-1,-1,-1,-1,-1,-1,-1,-1,-1,-1,-1,-1,-1,-1,-1,-1,-1,-1,-1,-1,-1,-1,-1,-1,-1,-1,-1,-1,-1,-1,-1,-1,-1],"loss_changes":[1.8873466E1,1.1185974E2,3.915358E1,6.344737E1,8.5519516E1,7.816135E1,1.2075926E2,5.6912457E1,1.3113446E2,1.9786367E1,2.9533707E1,7.491809E1,5.020213E1,9.631132E1,5.820025E1,6.140198E1,2.4439394E2,2.0543785E1,1.8153331E2,0E0,1.4830315E-1,4.2820724E1,9.97637E0,2.6255713E1,9.974808E1,1.5363919E2,3.6781708E1,3.0618078E1,1.1195325E2,3.4586884E1,4.5288784E1,2.3813663E1,5.82275E1,9.463815E1,9.104527E1,3.0373518E1,5.5416786E1,1.3772864E2,1.2464247E2,0E0,0E0,1.4846142E1,0E0,3.8990402E0,6.254554E-2,3.5670772E0,7.8938866E0,6.497649E1,5.2146515E1,5.96502E1,4.25672E1,3.927946E1,8.03463E0,8.935066E0,0E0,1.4076297E2,1.11944534E2,3.116713E0,0E0,2.4035011E1,6.003717E1,0E0,0E0,0E0,0E0,0E0,0E0,0E0,0E0,0E0,0E0,0E0,0E0,0E0,0E0,0E0,0E0,0E0,0E0,0E0,0E0,0E0,0E0,0E0,0E0,0E0,0E0,0E0,0E0,0E0,0E0,0E0,0E0,0E0,0E0,0E0,0E0,0E0,0E0,0E0,0E0,0E0,0E0,0E0,0E0,0E0,0E0,0E0,0E0,0E0,0E0],"parents":[2147483647,0,0,1,1,2,2,3,3,4,4,5,5,6,6,7,7,8,8,9,9,10,10,11,11,12,12,13,13,14,14,15,15,16,16,17,17,18,18,20,20,21,21,22,22,23,23,24,24,25,25,26,26,27,27,28,28,29,29,30,30,31,31,32,32,33,33,34,34,35,35,36,36,37,37,38,38,41,41,43,43,44,44,45,45,46,46,47,47,48,48,49,49,50,50,51,51,52,52,53,53,55,55,56,56,57,57,59,59,60,60],"right_children":[2,4,6,8,10,12,14,16,18,20,22,24,26,28,30,32,34,36,38,-1,40,42,44,46,48,50,52,54,56,58,60,62,64,66,68,70,72,74,76,-1,-1,78,-1,80,82,84,86,88,90,92,94,96,98,100,-1,102,104,106,-1,108,110,-1,-1,-1,-1,-1,-1,-1,-1,-1,-1,-1,-1,-1,-1,-1,-1,-1,-1,-1,-1,-1,-1,-1,-1,-1,-1,-1,-1,-1,-1,-1,-1,-1,-1,-1,-1,-1,-1,-1,-1,-1,-1,-1,-1,-1,-1,-1,-1,-1,-1],"split_conditions":[2E-1,2.3795427E1,2.167487E1,1.6263872E1,2.2653258E2,7.0000005E-1,1.5E0,1.4691166E1,1.4E1,1E-1,5.6432495E0,1.0739832E1,1.0806399E2,1.6479294E2,2.2910965E1,3.506244E1,1.5276581E1,2.0972897E1,1.7935081E1,8.1360924E-1,5E0,1.8E1,2.4E1,9.19939E0,4.245E-1,9.8260994E1,3.6E1,2E1,7.374499E0,3.8999994E0,2.383624E1,1.8714518E1,1.9168721E2,1.2397806E1,1.7907831E1,1.8079027E1,2.1479666E1,8.137E0,1.4282527E2,-5.2246287E-2,-2.724508E-1,3.372465E2,-1.7504314E0,5.7994995E0,2.8E1,5E-1,1.0216166E1,-4.9633336E-1,1.6712E1,2.9E0,1.433234E1,3.1390831E0,4.6E1,-6.442167E0,-1.2325343E0,1.2E1,2E1,6.1370006E0,1.0049948E0,4.7E0,1.6387E1,7.215672E-2,8.212636E-1,-3.3688563E-1,1.4553481E-3,3.7111466E0,1.002444E0,-3.9549193E-1,3.9218915E-1,7.101552E-2,-3.613165E-1,1.3959314E0,-1.296205E-1,1.5663226E0,1.7185211E-1,-6.1513203E-1,3.9282298E-1,-7.3251E-1,1.2631589E-1,5.843611E-2,-5.056668E-1,2.3142873E-1,5.1613715E-2,-2.28738E-1,1.5364452E-1,8.7706614E-1,-1.685729E-2,-8.1044234E-2,1.2751875E0,-7.001484E-1,1.21909855E-2,2.8803483E-1,-3.8085392E-1,5.548707E-1,1.9620711E0,1.1369179E-1,-1.932041E-1,5.799987E-1,-1.7724724E-1,-6.275992E-1,9.362865E-2,-3.438256E-2,1.5737398E0,5.1414704E-1,-8.814476E-1,-3.110843E-1,1.2895757E-1,-1.0059031E0,-9.579423E-2,-1.881918E-1,1.0142274E0],"split_indices":[2,3,3,3,4,2,2,1,0,2,1,3,4,4,3,4,1,3,3,0,0,0,0,3,1,4,0,0,1,2,3,4,4,3,1,3,3,1,4,0,0,4,0,1,0,2,1,1,1,2,3,1,0,1,0,0,0,1,0,2,1,0,0,0,0,0,0,0,0,0,0,0,0,0,0,0,0,0,0,0,0,0,0,0,0,0,0,0,0,0,0,0,0,0,0,0,0,0,0,0,0,0,0,0,0,0,0,0,0,0,0],"split_type":[0,0,0,0,0,0,0,0,0,0,0,0,0,0,0,0,0,0,0,0,0,0,0,0,0,0,0,0,0,0,0,0,0,0,0,0,0,0,0,0,0,0,0,0,0,0,0,0,0,0,0,0,0,0,0,0,0,0,0,0,0,0,0,0,0,0,0,0,0,0,0,0,0,0,0,0,0,0,0,0,0,0,0,0,0,0,0,0,0,0,0,0,0,0,0,0,0,0,0,0,0,0,0,0,0,0,0,0,0,0,0],"sum_hessian":[9.52E2,4.69E2,4.83E2,4.36E2,3.3E1,3.45E2,1.38E2,2.77E2,1.59E2,6E0,2.7E1,9.8E1,2.47E2,5.6E1,8.2E1,2.19E2,5.8E1,6.6E1,9.3E1,4E0,2E0,1.3E1,1.4E1,1.3E1,8.5E1,5.7E1,1.9E2,9E0,4.7E1,9E0,7.3E1,1.5E1,2.04E2,7E0,5.1E1,5.7E1,9E0,2.8E1,6.5E1,1E0,1E0,9E0,4E0,1.2E1,2E0,7E0,6E0,1.8E1,6.7E1,4.8E1,9E0,1.81E2,9E0,7E0,2E0,2.2E1,2.5E1,4E0,5E0,1.2E1,6.1E1,7E0,8E0,6.8E1,1.36E2,1E0,6E0,2.4E1,2.7E1,2.8E1,2.9E1,2E0,7E0,1.8E1,1E1,1.3E1,5.2E1,7E0,2E0,1E0,1.1E1,1E0,1E0,4E0,3E0,5E0,1E0,1.5E1,3E0,5.6E1,1.1E1,2.9E1,1.9E1,5E0,4E0,5.2E1,1.29E2,8E0,1E0,1E0,6E0,7E0,1.5E1,1.9E1,6E0,2E0,2E0,8E0,4E0,5.8E1,3E0],"tree_param":{"num_deleted":"0","num_feature":"5","num_nodes":"111","size_leaf_vector":"1"}},{"base_weights":[2.1928335E-2,1.2028269E-2,1.8965752E0,2.0569392E-2,-2.0109544E0,-9.698067E-2,2.5323534E0,8.917296E-3,1.8445781E0,-7.0394176E-1,-1.5066004E-1,1.736269E-1,8.9719015E-1,8.8840134E-2,-1.9316822E-1,2.1535444E-1,1.0206051E0,4.0577594E-2,1.1625307E0,-1.5433384E0,-3.4843504E-2,5.4280305E-1,-2.7572688E-1,8.2454786E-2,-5.8145795E-2,5.1300433E-2,7.658841E-1,-6.683953E-1,4.015082E-1,-2.1945794E-1,5.4349836E-2],"categories":[],"categories_nodes":[],"categories_segments":[],"categories_sizes":[],"default_left":[0,0,0,0,0,0,0,0,0,0,0,0,0,0,0,0,0,0,0,0,0,0,0,0,0,0,0,0,0,0,0],"id":16,"left_children":[1,3,5,7,9,-1,11,13,15,-1,-1,-1,-1,17,19,21,-1,23,25,27,29,-1,-1,-1,-1,-1,-1,-1,-1,-1,-1],"loss_changes":[1.7664036E1,1.6438704E1,7.8752728E0,2.0089384E1,8.464565E-1,0E0,1.8503304E0,1.5215486E1,1.4491856E1,0E0,0E0,0E0,0E0,3.493067E1,5.702156E1,8.896114E0,0E0,3.5581696E1,3.9543957E1,5.822426E1,3.625018E1,0E0,0E0,0E0,0E0,0E0,0E0,0E0,0E0,0E0,0E0],"parents":[2147483647,0,0,1,1,2,2,3,3,4,4,6,6,7,7,8,8,13,13,14,14,15,15,17,17,18,18,19,19,20,20],"right_children":[2,4,6,8,10,-1,12,14,16,-1,-1,-1,-1,18,20,22,-1,24,26,28,30,-1,-1,-1,-1,-1,-1,-1,-1,-1,-1],"split_conditions":[6.2E1,5.7E1,2.4265833E0,5.1E1,3.6224165E0,-9.698067E-2,7.1E1,2.0188908E1,1.6387E1,-7.0394176E-1,-1.5066004E-1,1.736269E-1,8.9719015E-1,1.9376562E1,2.0598795E1,2.3682501E0,1.0206051E0,1E-1,7.584917E0,1.7245333E1,1E-1,5.4280305E-1,-2.7572688E-1,8.2454786E-2,-5.8145795E-2,5.1300433E-2,7.658841E-1,-6.683953E-1,4.015082E-1,-2.1945794E-1,5.4349836E-2],"split_indices":[0,0,1,0,1,0,0,3,1,0,0,0,0,3,3,1,0,2,1,1,2,0,0,0,0,0,0,0,0,0,0],"split_type":[0,0,0,0,0,0,0,0,0,0,0,0,0,0,0,0,0,0,0,0,0,0,0,0,0,0,0,0,0,0,0],"sum_hessian":[9.52E2,9.48E2,4E0,9.45E2,3E0,1E0,3E0,9.4E2,5E0,2E0,1E0,1E0,2E0,6.74E2,2.66E2,3E0,2E0,6.46E2,2.8E1,2.7E1,2.39E2,1E0,2E0,3.23E2,3.23E2,1.7E1,1.1E1,2.2E1,5E0,5.6E1,1.83E2],"tree_param":{"num_deleted":"0","num_feature":"5","num_nodes":"31","size_leaf_vector":"1"}},{"base_weights":[1.72558E-2,1.4632286E-1,-9.657108E-2,1.4489207E-2,1.2952534E0,-2.0970573E0,-1.8645093E-2,1.21184126E-1,-1.1438906E0,3.2163308E0,-5.4593973E-2,-1.0509115E0,-3.4041438E0,1.4026729E0,-9.180601E-2,-2.1009305E-2,2.60351E0,1.3442063E-1,-2.1601584E0,-1.986174E-1,5.7179856E0,-1.1074611E0,1.4415172E0,5.384848E-2,-9.821682E-1,-1.4139357E0,-1.2946444E0,5.382689E-1,4.5797544E0,-6.8920386E-1,1.5535041E-2,6.9845654E-2,-1.6074744E0,5.704896E0,-4.526147E-1,8.5555524E-1,-9.827044E-1,6.604991E-1,-2.7303128E0,1.1076005E0,-1.1464449E0,8.249049E0,1.0309002E0,-1.8794999E0,2.6395145E-1,1.4962016E0,-2.9457188E-1,-5.5745703E-1,8.656009E-1,-1.2430659E-1,-4.8270324E-1,-1.9491807E0,2.0276017E0,1.6782919E0,7.82321E-2,8.719349E-1,-8.3554816E-1,1.3100054E0,-9.4148345E-2,-1.2389882E-2,3.6976385E-1,2.3426929E-1,-6.312301E-1,-1.2617827E-2,1.904436E0,7.6226884E-1,-7.578532E-1,1.7083995E-2,5.7326275E-1,2.0312881E-2,3.6583015E-1,-1.4935747E0,-2.6504794E-1,4.1340258E-2,-4.792481E-1,3.0013838E0,-3.4264928E-1,1.0222656E0,-5.068154E-1,-6.649251E-1,2.2345048E-1,1.5155488E-1,-1.7751561E-1,-2.8366938E-1,3.9678052E-1,5.381952E-1,-8.375473E-2,2.1901317E-1,-7.308657E-1,1.2674255E0,1.7450218E-1,-3.66947E-1,1.9241576E-1,-1.7288075E-1,5.973469E-1,1.615773E-1,-6.305611E-2],"categories":[],"categories_nodes":[],"categories_segments":[],"categories_sizes":[],"default_left":[0,0,0,0,0,0,0,0,0,0,0,0,0,0,0,0,0,0,0,0,0,0,0,0,0,0,0,0,0,0,0,0,0,0,0,0,0,0,0,0,0,0,0,0,0,0,0,0,0,0,0,0,0,0,0,0,0,0,0,0,0,0,0,0,0,0,0,0,0,0,0,0,0,0,0,0,0,0,0,0,0,0,0,0,0,0,0,0,0,0,0,0,0,0,0,0,0],"id":17,"left_children":[1,3,5,7,9,11,13,15,17,19,21,23,25,27,29,31,33,35,37,39,41,43,45,47,-1,49,-1,51,53,55,57,59,61,63,65,67,-1,69,71,-1,73,75,77,79,81,-1,83,-1,85,-1,-1,87,89,-1,-1,-1,91,93,95,-1,-1,-1,-1,-1,-1,-1,-1,-1,-1,-1,-1,-1,-1,-1,-1,-1,-1,-1,-1,-1,-1,-1,-1,-1,-1,-1,-1,-1,-1,-1,-1,-1,-1,-1,-1,-1,-1],"loss_changes":[1.401494E1,6.7687294E1,7.899706E1,4.98231E1,1.1946101E2,2.2403198E1,5.09774E1,1.3030078E2,4.4459988E1,1.634531E2,4.5702198E1,2.9646637E1,8.408203E0,6.3445625E1,2.9893105E1,5.0560654E1,1.9214658E2,4.2148808E1,3.2359375E1,3.7421394E1,1.2199246E2,1.8495419E1,7.533948E1,1.5577366E1,0E0,1.1327124E-1,0E0,7.8044975E1,2.0450302E1,3.9788918E1,5.6348167E1,4.295481E1,2.41795E1,3.7232758E1,7.4698296E1,1.1690213E1,0E0,1.2427548E0,6.2035843E1,0E0,4.8541956E0,1.2683496E2,3.8082504E1,1.1376881E1,1.743828E0,0E0,1.0725518E1,0E0,7.9404306E0,0E0,0E0,1.22176285E1,3.8842537E1,0E0,0E0,0E0,4.0285084E1,4.09774E1,2.6985746E1,0E0,0E0,0E0,0E0,0E0,0E0,0E0,0E0,0E0,0E0,0E0,0E0,0E0,0E0,0E0,0E0,0E0,0E0,0E0,0E0,0E0,0E0,0E0,0E0,0E0,0E0,0E0,0E0,0E0,0E0,0E0,0E0,0E0,0E0,0E0,0E0,0E0,0E0],"parents":[2147483647,0,0,1,1,2,2,3,3,4,4,5,5,6,6,7,7,8,8,9,9,10,10,11,11,12,12,13,13,14,14,15,15,16,16,17,17,18,18,19,19,20,20,21,21,22,22,23,23,25,25,27,27,28,28,29,29,30,30,31,31,32,32,33,33,34,34,35,35,37,37,38,38,40,40,41,41,42,42,43,43,44,44,46,46,48,48,51,51,52,52,56,56,57,57,58,58],"right_children":[2,4,6,8,10,12,14,16,18,20,22,24,26,28,30,32,34,36,38,40,42,44,46,48,-1,50,-1,52,54,56,58,60,62,64,66,68,-1,70,72,-1,74,76,78,80,82,-1,84,-1,86,-1,-1,88,90,-1,-1,-1,92,94,96,-1,-1,-1,-1,-1,-1,-1,-1,-1,-1,-1,-1,-1,-1,-1,-1,-1,-1,-1,-1,-1,-1,-1,-1,-1,-1,-1,-1,-1,-1,-1,-1,-1,-1,-1,-1,-1,-1],"split_conditions":[2.0540907E2,1.9470409E2,2.0907722E2,1.8493115E2,9.447417E0,1.6E1,2.1569115E2,1.8010269E2,1.5E1,8.5366654E-1,1.5534917E1,2.0883855E2,1.8E0,2.6000001E0,2.3168883E2,1.7268973E2,1.2134917E1,1.7047417E1,1.3896187E1,9.931042E0,2.0067015E2,1.8847641E1,1.6009918E1,1.1E1,-9.821682E-1,2.2E1,-1.2946444E0,8.726583E0,3.5E1,9.796366E0,2.3751088E2,1.8276585E1,1.1119281E1,1.3E1,1.8016191E1,3E-1,-9.827044E-1,2E-1,1.7682194E1,1.1076005E0,1.9977007E2,2.8E1,1.3E1,5.8000007E0,2.4E1,1.4962016E0,5.4999986E0,-5.5745703E-1,1.4E1,-1.2430659E-1,-4.8270324E-1,9E0,1.04349165E1,1.6782919E0,7.82321E-2,8.719349E-1,1.62745E1,1.3708391E1,1.2413476E1,-1.2389882E-2,3.6976385E-1,2.3426929E-1,-6.312301E-1,-1.2617827E-2,1.904436E0,7.6226884E-1,-7.578532E-1,1.7083995E-2,5.7326275E-1,2.0312881E-2,3.6583015E-1,-1.4935747E0,-2.6504794E-1,4.1340258E-2,-4.792481E-1,3.0013838E0,-3.4264928E-1,1.0222656E0,-5.068154E-1,-6.649251E-1,2.2345048E-1,1.5155488E-1,-1.7751561E-1,-2.8366938E-1,3.9678052E-1,5.381952E-1,-8.375473E-2,2.1901317E-1,-7.308657E-1,1.2674255E0,1.7450218E-1,-3.66947E-1,1.9241576E-1,-1.7288075E-1,5.973469E-1,1.615773E-1,-6.305611E-2],"split_indices":[4,4,4,4,1,0,4,4,0,1,1,4,2,2,4,4,1,1,3,3,4,3,1,0,0,0,0,1,0,3,4,1,3,0,3,2,0,2,3,0,4,0,0,2,0,0,2,0,0,0,0,0,1,0,0,0,1,3,3,0,0,0,0,0,0,0,0,0,0,0,0,0,0,0,0,0,0,0,0,0,0,0,0,0,0,0,0,0,0,0,0,0,0,0,0,0,0],"split_type":[0,0,0,0,0,0,0,0,0,0,0,0,0,0,0,0,0,0,0,0,0,0,0,0,0,0,0,0,0,0,0,0,0,0,0,0,0,0,0,0,0,0,0,0,0,0,0,0,0,0,0,0,0,0,0,0,0,0,0,0,0,0,0,0,0,0,0,0,0,0,0,0,0,0,0,0,0,0,0,0,0,0,0,0,0,0,0,0,0,0,0,0,0,0,0,0,0],"sum_hessian":[9.52E2,4.46E2,5.06E2,4.01E2,4.5E1,1.8E1,4.88E2,3.68E2,3.3E1,1.8E1,2.7E1,1.1E1,7E0,2.3E1,4.65E2,3.49E2,1.9E1,1.5E1,1.8E1,8E0,1E1,1.6E1,1.1E1,8E0,3E0,3E0,4E0,1.9E1,4E0,7E1,3.95E2,3.31E2,1.8E1,9E0,1E1,1.3E1,2E0,3E0,1.5E1,1E0,7E0,6E0,4E0,1E1,6E0,3E0,8E0,2E0,6E0,1E0,2E0,7E0,1.2E1,3E0,1E0,2E0,6.8E1,3E1,3.65E2,3.03E2,2.8E1,3E0,1.5E1,1E0,8E0,4E0,6E0,8E0,5E0,2E0,1E0,6E0,9E0,2E0,5E0,5E0,1E0,2E0,2E0,9E0,1E0,5E0,1E0,6E0,2E0,3E0,3E0,1E0,6E0,4E0,8E0,5.4E1,1.4E1,8E0,2.2E1,5.6E1,3.09E2],"tree_param":{"num_deleted":"0","num_feature":"5","num_nodes":"97","size_leaf_vector":"1"}},{"base_weights":[1.8372681E-2,1.4470366E-1,-6.529307E-2,-1.224784E-1,6.0360485E-1,-2.738069E0,1.13253705E-2,8.471964E-2,-1.9160583E0,1.0393281E0,-2.2680618E-1,-3.712762E0,-4.9478698E-1,2.9196389E0,-2.5509203E-2,-3.573788E-1,4.068493E-1,-3.704813E-1,-3.849476E0,6.112987E-1,2.6516886E0,1.1051464E-1,-2.2665188E0,-3.105046E-1,-4.4343185E0,2.3870252E-1,-9.1201437E-1,3.5089378E0,-9.242335E-2,-3.5273764E-1,1.281909E-1,-7.975914E-1,7.319326E-1,7.957126E0,2.2090027E-1,-7.565038E-1,5.5286443E-1,-1.5406392E0,-3.1513262E-1,1.1415896E0,-2.2236707E0,3.4709308E0,2.981758E-1,-2.4052863E0,4.3021953E-1,-3.3611727E0,3.1341043E-1,-2.7202737E-1,1.3230029E-1,1.4820386E-2,-5.000959E0,-3.1964394E-1,-4.472294E-2,5.7379335E-1,1.3403051E0,-1.9801155E-1,-1.7973355E0,9.8712784E-1,-5.059213E-2,-6.401282E-2,-5.8689696E-1,3.8108334E-1,-4.091965E-1,3.143965E0,4.3674174E-1,3.6806786E-1,-6.1003813E-3,-3.8762206E-1,4.3378375E-2,-9.63707E-3,2.1214272E-1,5.587123E-1,-4.9852794E-1,5.411483E-2,7.50757E-1,-9.997073E-1,2.4803753E-1,1.2918574E0,9.186974E-2,-8.175288E-1,4.343548E-1,-1.01815656E-1,-8.5107464E-1,7.191047E-4,6.2631965E-1,-1.1344566E0,-2.5196645E-1,-4.1361123E-1,5.5464596E-1,-1.6472765E0,-2.3568307E-1,-1.52364625E-2,-6.602957E-1,-2.897555E-1,-9.4822425E-1,-3.0384328E-2,5.768831E-1,-7.2532976E-1,1.0641939E-3],"categories":[],"categories_nodes":[],"categories_segments":[],"categories_sizes":[],"default_left":[0,0,0,0,0,0,0,0,0,0,0,0,0,0,0,0,0,0,0,0,0,0,0,0,0,0,0,0,0,0,0,0,0,0,0,0,0,0,0,0,0,0,0,0,0,0,0,0,0,0,0,0,0,0,0,0,0,0,0,0,0,0,0,0,0,0,0,0,0,0,0,0,0,0,0,0,0,0,0,0,0,0,0,0,0,0,0,0,0,0,0,0,0,0,0,0,0,0,0],"id":18,"left_children":[1,3,5,7,9,11,13,15,17,19,21,23,25,27,29,31,33,35,37,39,41,43,45,47,49,-1,51,53,-1,55,57,59,61,63,65,67,69,-1,71,73,75,77,79,81,83,85,87,-1,-1,-1,89,-1,-1,-1,-1,91,93,95,97,-1,-1,-1,-1,-1,-1,-1,-1,-1,-1,-1,-1,-1,-1,-1,-1,-1,-1,-1,-1,-1,-1,-1,-1,-1,-1,-1,-1,-1,-1,-1,-1,-1,-1,-1,-1,-1,-1,-1,-1],"loss_changes":[1.0082253E1,4.6665794E1,1.1757699E2,8.972425E1,5.0891838E1,3.3147163E1,5.9958183E1,3.1049026E1,7.3280014E1,6.187172E1,3.3964325E1,2.5627258E1,3.956164E0,1.439566E1,2.7858381E1,4.470041E1,1.7514207E2,5.764727E0,4.8377975E1,1.1378708E2,3.5598877E1,3.5620296E1,2.082233E1,1.7441438E0,2.311296E1,0E0,4.2658472E-1,6.375427E-1,0E0,3.9206608E1,5.794332E1,4.4261185E1,3.219752E1,3.3947067E1,3.0117329E1,5.4954386E0,4.7396946E-1,0E0,1.4823978E1,8.1961334E1,4.3339245E1,3.568814E1,2.4800179E1,3.4957047E0,2.765072E1,2.123043E0,1.034324E1,0E0,0E0,0E0,1.22091675E1,0E0,0E0,0E0,0E0,4.736463E1,1.6219318E1,6.640051E1,4.012186E1,0E0,0E0,0E0,0E0,0E0,0E0,0E0,0E0,0E0,0E0,0E0,0E0,0E0,0E0,0E0,0E0,0E0,0E0,0E0,0E0,0E0,0E0,0E0,0E0,0E0,0E0,0E0,0E0,0E0,0E0,0E0,0E0,0E0,0E0,0E0,0E0,0E0,0E0,0E0,0E0],"parents":[2147483647,0,0,1,1,2,2,3,3,4,4,5,5,6,6,7,7,8,8,9,9,10,10,11,11,12,12,13,13,14,14,15,15,16,16,17,17,18,18,19,19,20,20,21,21,22,22,23,23,24,24,26,26,27,27,29,29,30,30,31,31,32,32,33,33,34,34,35,35,36,36,38,38,39,39,40,40,41,41,42,42,43,43,44,44,45,45,46,46,50,50,55,55,56,56,57,57,58,58],"right_children":[2,4,6,8,10,12,14,16,18,20,22,24,26,28,30,32,34,36,38,40,42,44,46,48,50,-1,52,54,-1,56,58,60,62,64,66,68,70,-1,72,74,76,78,80,82,84,86,88,-1,-1,-1,90,-1,-1,-1,-1,92,94,96,98,-1,-1,-1,-1,-1,-1,-1,-1,-1,-1,-1,-1,-1,-1,-1,-1,-1,-1,-1,-1,-1,-1,-1,-1,-1,-1,-1,-1,-1,-1,-1,-1,-1,-1,-1,-1,-1,-1,-1,-1],"split_conditions":[1.5277749E1,1.3363711E1,1.5463246E1,1.3084402E1,2.4767128E2,2.691242E2,1.5542662E1,1.5191035E2,1.8E1,2.0628622E2,2.4E1,1.2E1,6E0,1.4691166E1,2.45575E0,5E-1,1.5695924E2,2.0907722E2,3.6E1,1.875422E2,1.3E0,2.5290634E2,3.233463E2,9E0,2.4950002E-1,2.3870252E-1,1.5349684E1,2.5E1,-9.242335E-2,3.1E1,4.7932496E0,1.0216166E1,1.3612787E2,1.9E1,1.9977007E2,6E-1,-9.504666E0,-1.5406392E0,-1.1692501E0,2E1,7E-1,1.4761098E1,1.9000001E0,9E0,1.484318E1,9.857834E0,3.1E1,-2.7202737E-1,1.3230029E-1,1.4820386E-2,3.6E1,-3.1964394E-1,-4.472294E-2,5.7379335E-1,1.3403051E0,2.0911667E0,2.328247E2,1.6E1,5.009917E0,-6.401282E-2,-5.8689696E-1,3.8108334E-1,-4.091965E-1,3.143965E0,4.3674174E-1,3.6806786E-1,-6.1003813E-3,-3.8762206E-1,4.3378375E-2,-9.63707E-3,2.1214272E-1,5.587123E-1,-4.9852794E-1,5.411483E-2,7.50757E-1,-9.997073E-1,2.4803753E-1,1.2918574E0,9.186974E-2,-8.175288E-1,4.343548E-1,-1.01815656E-1,-8.5107464E-1,7.191047E-4,6.2631965E-1,-1.1344566E0,-2.5196645E-1,-4.1361123E-1,5.5464596E-1,-1.6472765E0,-2.3568307E-1,-1.52364625E-2,-6.602957E-1,-2.897555E-1,-9.4822425E-1,-3.0384328E-2,5.768831E-1,-7.2532976E-1,1.0641939E-3],"split_indices":[3,3,3,3,4,4,3,4,0,4,0,0,0,1,1,2,4,4,0,4,2,4,4,0,1,0,3,0,0,0,1,1,4,0,4,2,1,0,1,0,2,3,2,0,3,1,0,0,0,0,0,0,0,0,0,1,4,0,1,0,0,0,0,0,0,0,0,0,0,0,0,0,0,0,0,0,0,0,0,0,0,0,0,0,0,0,0,0,0,0,0,0,0,0,0,0,0,0,0],"split_type":[0,0,0,0,0,0,0,0,0,0,0,0,0,0,0,0,0,0,0,0,0,0,0,0,0,0,0,0,0,0,0,0,0,0,0,0,0,0,0,0,0,0,0,0,0,0,0,0,0,0,0,0,0,0,0,0,0,0,0,0,0,0,0,0,0,0,0,0,0,0,0,0,0,0,0,0,0,0,0,0,0,0,0,0,0,0,0,0,0,0,0,0,0,0,0,0,0,0,0],"sum_hessian":[9.52E2,3.79E2,5.73E2,2.4E2,1.39E2,1.5E1,5.58E2,2.16E2,2.4E1,9.1E1,4.8E1,1E1,5E0,6E0,5.52E2,9.1E1,1.25E2,1.4E1,1E1,7.3E1,1.8E1,4.2E1,6E0,2E0,8E0,1E0,4E0,5E0,1E0,1.76E2,3.76E2,6.5E1,2.6E1,2E0,1.23E2,1E1,4E0,7E0,3E0,6.2E1,1.1E1,1.3E1,5E0,4E0,3.8E1,4E0,2E0,1E0,1E0,1E0,7E0,3E0,1E0,3E0,2E0,1.6E2,1.6E1,6.4E1,3.12E2,4.4E1,2.1E1,2.1E1,5E0,1E0,1E0,2.3E1,1E2,6E0,4E0,1E0,3E0,1E0,2E0,3.7E1,2.5E1,8E0,3E0,1E1,3E0,1E0,4E0,1E0,3E0,3.1E1,7E0,3E0,1E0,1E0,1E0,6E0,1E0,1.5E2,1E1,1.1E1,5E0,3E1,3.4E1,6E0,3.06E2],"tree_param":{"num_deleted":"0","num_feature":"5","num_nodes":"99","size_leaf_vector":"1"}},{"base_weights":[1.1518548E-2,-8.8534427E-1,2.3896549E-2,1.0408467E0,-2.2193193E0,1.9213463E0,7.6187174E-3,1.4566834E-1,1.4520187E0,-2.4823308E0,-5.6735948E-2,3.8856506E-2,3.043069E0,1.9664446E-2,-9.195335E-1,6.6188484E-2,-6.37722E-4,6.5813315E-1,1.4205208E-1,-8.256077E-1,-1.2962437E-1,1.9735019E-1,-6.549368E-2,1.0538539E0,1.7459393E-1,-4.286244E-3,6.2745017E-1,-1.5246902E0,8.605786E-1,-5.0862983E-2,1.3967057E-1,1.852228E-2,-1.1089944E0,1.3384056E0,-1.116142E-2,-2.2336776E0,-2.271696E-1,-3.3148826E-4,3.205946E-1,1.0487295E-1,-3.939493E-1,8.86713E-1,-1.3038048E-1,-4.4349004E-2,-7.6700425E-1,-2.0465463E-1,2.3893204E-1],"categories":[],"categories_nodes":[],"categories_segments":[],"categories_sizes":[],"default_left":[0,0,0,0,0,0,0,0,0,0,0,0,0,0,0,0,0,0,0,0,0,0,0,0,0,0,0,0,0,0,0,0,0,0,0,0,0,0,0,0,0,0,0,0,0,0,0],"id":19,"left_children":[1,3,5,7,9,11,13,15,17,19,-1,21,23,25,27,-1,-1,-1,-1,-1,-1,29,-1,-1,-1,31,33,35,-1,-1,-1,37,39,-1,41,43,45,-1,-1,-1,-1,-1,-1,-1,-1,-1,-1],"loss_changes":[1.0600761E1,3.5713352E1,2.9049435E1,1.9969211E0,3.802269E0,1.6774803E1,1.0449204E1,3.37049E-2,1.8645086E0,2.6814919E0,0E0,2.0612247E-1,3.7364197E0,1.3438696E1,3.1882656E1,0E0,0E0,0E0,0E0,0E0,0E0,3.7415668E-1,0E0,0E0,0E0,2.2420464E1,8.5742874E1,9.611759E0,0E0,0E0,0E0,1.7974047E1,5.8193836E0,0E0,4.0229626E1,4.338192E0,2.872093E0,0E0,0E0,0E0,0E0,0E0,0E0,0E0,0E0,0E0,0E0],"parents":[2147483647,0,0,1,1,2,2,3,3,4,4,5,5,6,6,7,7,8,8,9,9,11,11,12,12,13,13,14,14,21,21,25,25,26,26,27,27,31,31,32,32,34,34,35,35,36,36],"right_children":[2,4,6,8,10,12,14,16,18,20,-1,22,24,26,28,-1,-1,-1,-1,-1,-1,30,-1,-1,-1,32,34,36,-1,-1,-1,38,40,-1,42,44,46,-1,-1,-1,-1,-1,-1,-1,-1,-1,-1],"split_conditions":[5.487488E0,1.7072504E1,7.056273E0,1.3E1,2.9522196E1,8E0,3.1353085E1,1.2E1,1.6E1,5.632833E0,-5.6735948E-2,7E0,5.7036667E0,2.7900581E1,1.3137E1,6.6188484E-2,-6.37722E-4,6.5813315E-1,1.4205208E-1,-8.256077E-1,-1.2962437E-1,5E0,-6.549368E-2,1.0538539E0,1.7459393E-1,2.6398705E1,2.8438292E1,7.374499E0,8.605786E-1,-5.0862983E-2,1.3967057E-1,2.57041E1,-3.1984167E0,1.3384056E0,8E0,-1.888E0,1.9E1,-3.3148826E-4,3.205946E-1,1.0487295E-1,-3.939493E-1,8.86713E-1,-1.3038048E-1,-4.4349004E-2,-7.6700425E-1,-2.0465463E-1,2.3893204E-1],"split_indices":[4,3,4,0,3,0,3,0,0,1,0,0,1,3,1,0,0,0,0,0,0,0,0,0,0,3,3,1,0,0,0,3,1,0,0,1,0,0,0,0,0,0,0,0,0,0,0],"split_type":[0,0,0,0,0,0,0,0,0,0,0,0,0,0,0,0,0,0,0,0,0,0,0,0,0,0,0,0,0,0,0,0,0,0,0,0,0,0,0,0,0,0,0,0,0,0,0],"sum_hessian":[9.52E2,1.2E1,9.4E2,5E0,7E0,7E0,9.33E2,2E0,3E0,6E0,1E0,3E0,4E0,9.22E2,1.1E1,1E0,1E0,1E0,2E0,5E0,1E0,2E0,1E0,3E0,1E0,8.88E2,3.4E1,1E1,1E0,1E0,1E0,8.71E2,1.7E1,4E0,3E1,6E0,4E0,8.56E2,1.5E1,2E0,1.5E1,3E0,2.7E1,1E0,5E0,3E0,1E0],"tree_param":{"num_deleted":"0","num_feature":"5","num_nodes":"47","size_leaf_vector":"1"}},{"base_weights":[1.1541767E-2,-1.8962529E-2,3.7952453E-1,2.6038405E-2,-6.3515925E-1,2.5386043E0,1.1206751E-1,3.038799E-1,-4.6333864E-2,1.2793297E-1,-1.5118337E0,-2.9249954E-1,1.2887301E0,-2.520858E-2,6.7384475E-1,9.4981647E-1,1.354118E-1,-9.923949E-1,-1.1776434E-2,9.062379E-1,-8.664488E-1,1.1348624E0,-1.8748317E0,3.5282338E-1,-3.522154E-1,1.635264E-1,-2.2472396E0,5.2107465E-1,2.5903447E0,7.448894E-2,2.1272442E0,6.8001014E-1,-1.4947302E0,7.0030224E-1,-5.476814E-2,1.4140337E0,-1.6627394E-1,-1.5931811E0,1.5303602E0,-1.0136748E-2,4.607028E-1,-3.0260046E0,-7.541957E-1,3.319332E-2,7.756039E-1,-9.838505E-1,2.8227112E-1,4.3967706E-1,-1.0138309E-1,-4.0096954E-2,1.112003E0,-1.5419155E-1,6.87686E-2,9.929928E-1,-2.1314265E-1,2.553422E-1,-2.6346304E-2,-5.426286E-1,1.697123E-2,4.365089E-1,-5.1766497E-1,-8.250577E-1,-4.025552E-3,5.2657956E-1,1.5510316E-1,-1.8585214E-1,3.829688E-1,-5.789279E-1,3.1637722E-1,1.000042E-2,6.0547715E-1,-1.0030204E0,6.980395E-2,-3.4339392E-1,6.4824945E-1,4.3135658E-2,-6.016185E-1],"categories":[],"categories_nodes":[],"categories_segments":[],"categories_sizes":[],"default_left":[0,0,0,0,0,0,0,0,0,0,0,0,0,0,0,0,0,0,0,0,0,0,0,0,0,0,0,0,0,0,0,0,0,0,0,0,0,0,0,0,0,0,0,0,0,0,0,0,0,0,0,0,0,0,0,0,0,0,0,0,0,0,0,0,0,0,0,0,0,0,0,0,0,0,0,0,0],"id":20,"left_children":[1,3,5,7,9,11,13,15,17,19,21,23,-1,25,-1,27,29,31,33,35,37,39,41,-1,-1,43,45,47,49,51,53,55,57,59,61,63,65,67,69,-1,-1,71,73,75,-1,-1,-1,-1,-1,-1,-1,-1,-1,-1,-1,-1,-1,-1,-1,-1,-1,-1,-1,-1,-1,-1,-1,-1,-1,-1,-1,-1,-1,-1,-1,-1,-1],"loss_changes":[1.0704674E1,2.4446163E1,4.1870163E1,1.6542871E1,4.033242E1,4.1054176E1,1.9391874E1,1.8370735E1,2.1337126E1,2.6324974E1,2.9028553E1,6.5592833E0,0E0,2.6788109E1,0E0,2.3267942E1,1.6344893E1,2.0338919E1,1.935546E1,1.058284E1,2.8565718E1,1.9255347E0,2.9968933E1,0E0,0E0,1.8537136E1,1.9540688E1,2.4024612E1,2.1781643E1,1.2228565E1,1.5776705E1,8.6314344E-1,8.871159E0,6.842158E1,6.639015E1,3.0717125E0,5.36843E0,1.27293E1,2.8542976E0,0E0,0E0,1.3189491E1,1.840783E1,1.313911E1,0E0,0E0,0E0,0E0,0E0,0E0,0E0,0E0,0E0,0E0,0E0,0E0,0E0,0E0,0E0,0E0,0E0,0E0,0E0,0E0,0E0,0E0,0E0,0E0,0E0,0E0,0E0,0E0,0E0,0E0,0E0,0E0,0E0],"parents":[2147483647,0,0,1,1,2,2,3,3,4,4,5,5,6,6,7,7,8,8,9,9,10,10,11,11,13,13,15,15,16,16,17,17,18,18,19,19,20,20,21,21,22,22,25,25,26,26,27,27,28,28,29,29,30,30,31,31,32,32,33,33,34,34,35,35,36,36,37,37,38,38,41,41,42,42,43,43],"right_children":[2,4,6,8,10,12,14,16,18,20,22,24,-1,26,-1,28,30,32,34,36,38,40,42,-1,-1,44,46,48,50,52,54,56,58,60,62,64,66,68,70,-1,-1,72,74,76,-1,-1,-1,-1,-1,-1,-1,-1,-1,-1,-1,-1,-1,-1,-1,-1,-1,-1,-1,-1,-1,-1,-1,-1,-1,-1,-1,-1,-1,-1,-1,-1,-1],"split_conditions":[3.2801047E2,3.0192297E2,3.3240836E2,1.1E1,1.6443172E1,1.2E1,3.1E1,6.974166E-1,-4.710917E0,1.7E1,-3.1984167E0,7E0,1.2887301E0,2.4E1,6.7384475E-1,2.691242E2,2.9522196E1,9.796366E0,-1.6213335E0,3.233463E2,2.6E1,1.3E1,1.8057499E0,3.5282338E-1,-3.522154E-1,2.3E1,3.5224164E0,1.5369553E2,-3.3421671E0,1.3202726E1,8E0,2.8130988E2,2.8743893E2,2.4879709E2,-1.3171667E0,9.000001E-1,3.2678152E2,1E-1,-3.3421671E0,-1.0136748E-2,4.607028E-1,3.275081E2,3.176779E2,1.3100001E1,7.756039E-1,-9.838505E-1,2.8227112E-1,4.3967706E-1,-1.0138309E-1,-4.0096954E-2,1.112003E0,-1.5419155E-1,6.87686E-2,9.929928E-1,-2.1314265E-1,2.553422E-1,-2.6346304E-2,-5.426286E-1,1.697123E-2,4.365089E-1,-5.1766497E-1,-8.250577E-1,-4.025552E-3,5.2657956E-1,1.5510316E-1,-1.8585214E-1,3.829688E-1,-5.789279E-1,3.1637722E-1,1.000042E-2,6.0547715E-1,-1.0030204E0,6.980395E-2,-3.4339392E-1,6.4824945E-1,4.3135658E-2,-6.016185E-1],"split_indices":[4,4,4,0,3,0,0,1,1,0,1,0,0,0,0,4,3,3,1,4,0,0,1,0,0,0,1,4,1,3,0,4,4,4,1,2,4,2,1,0,0,4,4,2,0,0,0,0,0,0,0,0,0,0,0,0,0,0,0,0,0,0,0,0,0,0,0,0,0,0,0,0,0,0,0,0,0],"split_type":[0,0,0,0,0,0,0,0,0,0,0,0,0,0,0,0,0,0,0,0,0,0,0,0,0,0,0,0,0,0,0,0,0,0,0,0,0,0,0,0,0,0,0,0,0,0,0,0,0,0,0,0,0,0,0,0,0,0,0,0,0,0,0,0,0,0,0,0,0,0,0,0,0,0,0,0,0],"sum_hessian":[9.52E2,8.8E2,7.2E1,8.21E2,5.9E1,7E0,6.5E1,1.69E2,6.52E2,3.2E1,2.7E1,3E0,4E0,6.2E1,3E0,3.4E1,1.35E2,2.2E1,6.3E2,1.8E1,1.4E1,3E0,2.4E1,1E0,2E0,5.8E1,4E0,2.8E1,6E0,1.32E2,3E0,5E0,1.7E1,3.5E1,5.95E2,1.2E1,6E0,1.1E1,3E0,1E0,2E0,1.1E1,1.3E1,5.6E1,2E0,3E0,1E0,1.3E1,1.5E1,2E0,4E0,2.7E1,1.05E2,2E0,1E0,4E0,1E0,1.4E1,3E0,2.7E1,8E0,8E0,5.87E2,8E0,4E0,5E0,1E0,1E1,1E0,1E0,2E0,1E1,1E0,1.2E1,1E0,5.4E1,2E0],"tree_param":{"num_deleted":"0","num_feature":"5","num_nodes":"77","size_leaf_vector":"1"}},{"base_weights":[1.1679018E-2,4.431717E-1,-6.725238E-3,1.3063641E-1,1.2268401E0,-1.5128342E0,1.3274798E-2,4.5612535E-1,-5.334051E-1,6.4098E-1,7.726422E-1,-2.2529078E-1,-2.4003236E0,1.07439645E-1,-8.8047646E-2,-4.5466974E-1,1.1012112E0,-9.32887E-2,-1.1702576E0,3.0894685E-1,4.9458677E-1,-9.9941236E-1,5.467976E-1,-1.0293703E0,-2.3079973E-1,1.9367738E-1,-8.757747E-1,-2.1232992E-1,3.316641E-1,-1.2431141E0,4.2470855E-1,1.282626E0,-1.341528E-1,3.9525908E-1,-2.6293164E-1,-1.03748135E-1,-3.989376E-1,5.3277713E-1,-2.4169604E-1,-1.6600776E-1,-6.499546E-1,8.299734E-2,1.5745842E0,-1.6487455E-1,-1.5779972E0,-5.0954056E-1,1.7528611E-1,1.5355474E0,-3.117841E-1,-8.8119365E-2,-7.560969E-1,2.2241436E-1,-1.262973E-1,5.2132326E-1,2.3229285E-1,1.3185984E-1,3.2724667E-2,1.8839975E-1,8.500099E-3,-1.7614603E-1,6.738281E-2,1.24675944E-1,-1.495204E-1,4.6172418E-2,-7.335305E-1,1.1766161E0,2.9838198E-1,-1.7470646E-1,3.612112E-1,-9.393766E-1,-2.3988035E-1,2.5296625E-2,-3.331626E-1,1.8613577E-2,5.714257E-1,